1000 256
144 -0.04226204 0.1498842 0.06818319 -0.01861369 -0.070824556 -0.0035712516 0.1074856 0.076586 -0.1173123 0.043209367 0.0778417 -0.14913717 0.11360556 -0.07713835 -0.13362005 0.12132317 -0.03646645 -0.17668338 -0.028144892 0.031875066 0.049867555 0.015572984 -0.029456614 0.22308321 -0.13241242 0.13447699 0.22932851 -0.012091069 -0.005713592 0.0027289232 0.14475553 0.18817218 0.052392744 -0.10671206 -0.026408851 -0.060305238 -0.11333566 -0.18668906 0.07286877 -0.070939735 0.038924534 -0.08955674 -0.07503563 -0.037400227 -0.16860133 0.11376695 -0.16133991 0.21407305 0.084973074 -0.094906546 -0.010842826 -0.06710279 0.31035325 -0.117426425 0.12863493 -0.07067036 0.0856973 0.055131488 -0.2511025 0.15906152 -0.013681365 0.09374418 -0.18079598 -0.09617983 0.09050489 0.053803813 -0.06622009 -0.10577414 -0.14092156 -0.13820937 -0.16453761 -0.025275053 0.18943264 -0.059120476 -0.030840263 0.019128507 0.12614061 0.010037993 0.03525807 0.041185476 -0.1955506 0.14563651 -0.07331129 0.06550438 -0.18176377 -0.03495971 0.1805255 0.026344279 -0.13446897 -0.07844613 -0.26466238 0.09299113 3.5557354e-05 -0.020496992 -0.05795206 -0.0016571305 0.014734369 -0.09148482 0.041963663 0.16589808 -0.11097348 -0.35348722 0.022225263 -0.04386291 -0.044552602 -0.12816466 0.12918852 0.26064256 0.017414095 -0.091915905 -0.013243807 0.0018240864 0.07503566 0.040747926 0.041105386 0.005345455 -0.08945481 0.047981977 0.21677028 0.124100395 0.18960123 -0.04254573 0.020180227 -0.29755375 -0.13733321 0.14853631 0.083755895 -0.093217015 -0.1689864 0.020030806 0.09348775 -0.17921877 -0.023777364 0.070416875 0.06823471 -0.14147909 0.06389419 0.17973135 0.18321441 0.0964934 -0.06561606 -0.21301669 -0.1540401 -0.039676543 0.0239469 0.023007778 -0.2297263 -0.055858217 -0.24287577 -0.016776605 0.14689806 0.076290034 0.074611284 0.10662917 -0.2429987 -0.036430962 0.060577404 -0.02021887 -0.025125071 -0.13896264 0.10904162 -0.25192407 -0.05852966 -0.11123592 0.22563343 -0.24370739 -0.14483128 0.07532808 -0.017829737 -0.04877433 0.13938114 0.03520419 0.067729756 -0.028724184 -0.29772717 0.17087285 -0.019485386 -0.07070248 0.31348106 0.037434094 -0.119779095 0.0678581 0.015556125 -0.09624767 0.10073708 0.017479023 -0.14292368 0.015356558 0.03597695 -0.035248835 -0.28605682 -0.07416529 -0.10031906 0.03268485 -0.017475491 0.049904622 -0.058089703 0.047498707 -0.006907735 -0.19335832 0.13314717 0.041740403 0.05377152 0.106400244 0.005263031 0.071361564 0.07247839 -0.21912543 -0.050765492 0.016666142 -0.13480005 -0.06962009 0.33006617 0.21776854 0.017318483 0.14960209 0.122702554 0.17900021 0.17725018 0.11071875 0.020108873 -0.025837868 -0.112307765 0.013209776 0.31749064 0.082372785 -0.099312454 0.20271398 -0.0068186163 -0.12950318 -0.18389492 -0.059526347 -0.30548507 -0.01873576 -0.32324785 0.036023263 0.22042745 0.23794667 -0.004493046 0.16597877 0.21505624 0.038839273 -0.13554995 -0.07070816 0.13133146 -0.1005827 0.16653122 0.19257845 0.04858808 -0.0032796983 0.06327176 0.053633492 0.0005780867 -0.042815834 -0.041184194 -0.15668459
933 -0.14652221 0.026983956 0.0074567124 -0.06108646 -0.049426172 -0.07373595 0.0129944235 0.096593365 -0.0814089 -0.100386426 0.07588998 -0.17273502 0.16937684 0.07619736 -0.12203006 0.17917645 -0.06688304 -0.1033232 -0.01811224 0.052119624 0.03370579 -0.105680734 0.03203574 0.2742608 -0.07066833 0.22323705 0.14653532 0.001794096 0.065362684 0.097309254 -0.08073776 -0.0034728353 0.056290314 -0.28274953 0.08368333 -0.07293372 -0.080171935 -0.19565183 0.033805512 -0.02280147 0.048787527 -0.16610475 -0.15943326 -0.04657363 0.014850695 0.036128636 -0.13941132 0.11782285 0.09546286 -0.025118828 -0.074884735 0.018312592 0.5155619 -0.07183335 0.048176788 -0.066959076 0.12680033 0.055437684 -0.440963 0.0065555717 -0.06236239 0.0029128047 -0.23314902 -0.07772948 0.14286636 0.1264178 -0.06287158 -0.09867167 -0.15917617 -0.06464999 -0.087070964 -0.0822286 0.1256912 -0.043203134 -0.1651621 -0.07233569 0.24493517 0.051381133 0.13428435 -0.05477002 -0.20053238 0.16186747 -0.019056309 -0.0050959024 -0.18690218 -0.045981333 -0.0634972 0.03761993 -0.068006024 -0.10298755 -0.20735283 0.183328 0.09170482 -0.11998451 0.10513315 0.02915733 -0.04038604 0.08256877 -0.058579087 0.045195673 -0.1012656 -0.2926772 -0.022603912 0.103137925 -0.079573825 -0.18379833 -0.038223054 0.108999394 -0.02108209 -0.020382969 -0.11101773 0.15895864 -0.09769822 -0.014140587 -0.043308485 0.07819048 -0.19570498 -0.17586376 0.21485403 0.0709077 0.22740377 0.07857373 0.022454588 -0.12799048 -0.03349941 0.011850408 0.13495408 -0.052348156 -0.17601545 0.06575262 -0.11341887 -0.0685606 -0.034564596 0.052991793 0.07699198 0.06485576 0.05924601 0.05953554 0.19530274 0.10306543 -0.10080339 -0.15329207 -0.18571028 -0.019357573 -0.057317585 0.10702533 -0.17919834 0.029658906 -0.10076623 0.013065953 -0.0052359956 0.04604805 0.100442596 0.067238346 -0.14231706 -0.11239407 0.13274655 0.058779463 0.070499666 -0.06716339 0.030481536 -0.11224657 -0.14604758 -0.086871654 0.13448174 -0.29448527 -0.029833617 -0.0014851585 -0.24653447 0.05834388 0.14538078 0.06173093 0.19439223 -0.08283254 -0.15229073 0.16130722 -0.16519499 -0.12540835 0.15392275 -0.14243501 -0.20923194 -0.047327098 0.08366615 -0.075108066 0.028770793 0.0797075 -0.13529845 0.16779573 0.009699613 0.040902685 -0.13369726 -0.29053515 -0.10188544 0.027284607 -0.026106736 0.15000862 0.110001944 0.009761078 0.07417628 -0.19684929 0.20856398 0.052597113 -0.11164079 -0.11849009 0.11095746 -0.112925716 0.07912119 -0.07254896 0.13564032 -0.021060307 -0.12446706 0.034999464 0.09706903 0.07894023 0.019432181 0.18456422 -0.07276373 -0.054303903 0.09309265 0.0077858875 0.020573374 0.050300576 -0.22400491 -0.1466891 0.29393345 0.12613772 -0.111273035 0.20824318 0.12097672 -0.17024161 -0.07595254 -0.016051397 -0.28517032 0.0077674733 -0.28193763 0.07054449 0.27807754 0.063158445 -0.021659007 -0.039647456 0.39028865 -0.0023124837 0.012575204 -0.13242838 0.13994753 0.066368185 0.02737056 0.08787845 -0.107066855 0.072894886 0.06555104 0.056477472 -0.113262855 0.011442338 0.027011676 -0.18611167
545 -0.17593916 -0.08791254 0.23606104 -0.08157971 -0.14989978 -0.1338992 0.16392541 0.008291906 -0.12269012 0.098103784 0.17621645 -0.3093298 0.08496114 -0.13082184 -0.13493209 0.24746507 -0.055265434 -0.03339562 -0.18051107 0.02187031 0.23776028 0.05938381 0.12315295 0.24960332 -0.05371282 0.20049855 0.19408631 0.1749022 0.20108916 0.11699361 -0.048163857 -0.0041873865 0.09982569 -0.20200029 -0.033586968 -0.007636609 -0.25076297 -0.11555622 -0.027115855 -0.07883907 -0.13788827 -0.11849214 -0.10736325 -0.09904033 -0.11605647 0.05628185 -0.20965411 0.052957285 0.119027175 -0.115729354 -0.025799623 0.055435408 0.3211369 -0.13411282 0.06739542 -0.15915619 0.1369168 0.00923582 -0.21032058 -0.064443246 0.19367352 -0.22289538 -0.39132118 -0.16493662 0.1711095 0.24259242 -0.09686744 -0.11263319 -0.23313753 -0.006363416 0.18829188 -0.06137255 0.17921475 0.016733408 -0.15866168 -0.16626841 0.28021395 0.03384705 0.15693134 -0.1079308 -0.02354779 0.01187561 -0.13401306 0.045868725 -0.12178294 -0.014048104 0.1220245 0.028613105 -0.047579624 -0.045781832 -0.28760436 0.18013632 -0.032756917 0.064219154 0.12407359 0.18557999 0.054783467 -0.07778104 0.0889115 0.16481602 -0.006857943 -0.25491098 0.016644176 -0.021846237 -0.05417409 -0.3364138 0.0003182481 0.29764482 0.123774834 0.062280808 0.011501522 -0.1215069 0.1807388 0.1256102 0.08449141 -0.12479445 -0.02639234 0.0047730873 0.08042962 0.043666333 0.109924 0.062185608 0.13923249 -0.09429699 -0.014580355 0.0011592914 0.24250552 -0.0073999786 -0.17380032 0.058890983 -0.15090309 0.033351164 0.005694966 0.022094484 0.02516764 -0.10523788 -0.04160024 0.12046159 0.045770425 0.055802763 0.0032305832 -0.09058505 -0.15349339 -0.06619719 0.02243964 0.12904462 -0.1286467 -0.011507098 0.0019860382 -0.031947166 -0.0011667096 -0.05631874 0.014323634 0.25342795 -0.17334642 -0.07077095 -0.019158553 -0.100586206 0.010429802 0.027527915 0.097388394 -0.11982402 0.11133598 -0.012753632 0.08162505 -0.40397474 0.01465246 -0.07918553 -0.24060489 0.0844442 0.04692512 0.07248594 0.120341755 -0.02764598 0.04419125 0.09178811 -0.014554941 -0.009985288 0.16270843 -0.1615623 -0.09507966 0.027444685 0.0069639627 -0.05853276 0.1210133 0.035748813 -0.17861663 0.09458521 -0.1792578 -0.05446082 -0.353851 0.09748091 0.087700345 0.13708241 -0.18027775 -0.026363289 -0.008606196 0.17587224 0.16872177 -0.29120597 0.11959137 0.042441245 0.0023594992 -0.10792039 0.12416545 -0.037689194 -0.117282555 -0.11062631 0.104905516 -0.0019191798 -0.20561472 0.11248733 0.19131331 0.1008715 -0.14110897 0.2023728 0.07947137 -0.041132916 0.13311563 0.005510138 0.1445267 -0.01663859 -0.11655876 -0.042630956 0.18706623 -0.011923501 -0.03882851 0.19921769 -0.050090183 -0.072460674 -0.07669312 -0.11105158 -0.21679622 0.028466541 -0.17166261 0.014944626 0.13035154 0.23457778 -0.0092330575 0.0561301 0.21637551 0.06612015 0.054051522 -0.07382533 0.083994344 -0.09488769 0.09587242 0.01769283 -0.087324746 0.065167755 0.016991628 0.016280072 -0.078462265 0.0026314484 -0.01610242 -0.21525452
838 -0.2649928 0.07482689 -0.0064750323 -0.081278235 -0.12047331 -0.16315037 0.14298704 -0.11039091 -0.0982133 0.08756216 0.17567447 -0.22757994 0.11701367 0.15228361 -0.17479374 0.11704202 0.019754525 0.0365909 -0.013112658 -9.234632e-05 0.09581192 -0.05186119 0.02256289 0.20536388 -0.08177274 0.19103667 0.21594638 -0.042036213 0.002252698 0.12975657 0.009983608 -0.006838889 -0.14323771 -0.15891561 0.10541262 -0.3220217 -0.19887896 -0.09370559 0.07935743 -0.121991254 -0.027766885 -0.14705737 -0.074405044 -0.09244394 0.030757213 0.07242908 -0.108101435 0.15728386 0.030057285 -0.08341018 -0.1091376 0.09145342 0.36693713 -0.09828297 0.068548486 -0.18509881 0.12179387 0.03904118 -0.21560259 -0.034628022 0.003794926 -0.036830574 -0.28884712 -0.1358409 0.017144931 0.03372983 -0.020712739 -0.1276627 -0.42469096 -0.013633223 -0.028826814 -0.08003739 0.11403364 -0.20560423 -0.005499188 -0.011498225 0.12245871 0.08275203 0.18391204 0.07157392 -0.20187855 0.18129706 -0.16759004 -0.0097489655 -0.26492277 -0.046663962 0.030057438 0.053980738 -0.0676039 0.08820218 -0.21420687 0.0798975 0.07702782 0.028727809 0.036758177 -0.0057225074 -0.027114296 -0.10793753 0.06880331 -0.017823944 0.07690296 -0.44701618 0.1071701 0.03873105 0.059208903 -0.21429949 -0.16102548 0.15480077 -0.015734686 -0.07180908 0.16141342 -0.05961544 0.075389326 0.100861095 0.06117643 0.008059641 -0.08712757 0.054386634 0.17443722 0.07921589 0.23926206 0.0879198 0.033214908 -0.12426271 0.021249453 0.044198625 0.19259171 -0.013899266 -0.2435364 -0.018239804 -0.073298715 -0.062327508 0.07494842 -0.0045838635 -2.1181446e-05 -0.1525005 -0.10849626 0.18088269 0.19457205 0.06726187 -0.010675903 -0.1910457 -0.10094573 0.0082688015 0.014567714 0.01757383 -0.2671578 -0.05836771 -0.014380383 0.015490166 0.1344674 -0.0961672 0.08224333 0.053206872 -0.24862376 -0.15787515 0.1562689 -0.07827481 -0.17716686 0.04456622 0.013619699 -0.18374027 -0.07544343 -0.04458498 0.21467046 -0.37994087 -0.054444496 -0.07159387 -0.20592554 0.043148905 0.10310181 -0.008153261 0.06991184 0.038202427 -0.13193974 0.13113268 -0.07678615 0.019984525 0.17263506 -0.03507414 -0.12305741 0.012715375 0.034564745 -0.0858226 -0.07278332 0.16312914 -0.08114261 0.0081861485 0.04457896 0.032314625 -0.17500179 -0.1723497 -0.022773486 0.10324974 -0.043237034 0.080334924 0.113239735 0.1002519 0.14549382 -0.2647843 0.22382109 0.054408398 -0.006437912 -0.06432961 0.018580174 -0.08698419 0.117389016 -0.0906396 0.1333717 -0.023441792 -0.03836916 -0.083920024 0.16786605 0.09347769 -0.006149468 0.20594674 0.068137094 -0.007952038 0.12858853 -0.00786807 0.18979637 -0.047031533 -0.28233138 -0.016302584 0.19870016 0.045983713 -0.090482436 0.21247344 0.07927292 -0.16028039 -0.04733007 -0.11662715 -0.2062984 0.09566546 -0.3632576 0.16657127 0.41763833 0.11957481 -0.12746204 0.06438209 0.15344363 0.12773785 -0.04413812 -0.022786245 0.13079222 -0.0121157095 0.15285787 0.24972291 -0.040381733 0.049926568 0.06011582 0.05806319 -0.086719416 0.088343374 0.052890584 -0.21234073
600 -0.10825455 -0.0836169 -0.03028464 -0.09626719 -0.19308664 -0.23372173 0.1493231 0.010211413 -0.118712425 0.09612296 0.29008028 -0.04289096 0.07153311 -0.07290272 0.24905667 0.20433797 -0.0706753 -0.15605606 -0.16498277 0.16483447 -0.1685771 0.0015195837 -0.002698307 0.16953135 0.028266897 0.08662829 0.16980636 0.004319562 0.17684738 0.026795646 0.06476003 0.18526244 0.2773047 0.0008156161 -0.03687781 0.05855578 -0.16253696 -0.025052875 -0.0049219285 0.034087837 0.22106405 -0.14090924 0.12124623 -0.0025309199 -0.060209826 0.0029579857 -0.12953825 0.12131033 -0.034931954 0.019057777 -0.29361272 0.07978367 0.32619888 0.04091669 0.008022683 0.11136497 0.26229817 -0.077814616 -0.023708126 0.06604921 -0.17970933 0.1433296 0.015274237 -0.014143902 0.11972237 0.04405984 -0.104661725 0.111032955 -0.0934646 -0.10475138 -0.17562336 0.029687954 0.13478383 0.080740035 -0.06344405 -0.07094246 0.21360408 -0.15341333 0.07218691 -0.1297542 0.06252779 -0.09512291 -0.27256882 -0.037155755 -0.18279488 -0.06297076 0.096239924 0.14073543 0.059594173 -0.031821135 -0.23419283 0.004033261 0.08398993 -0.17902903 0.08265381 0.12919708 0.15065834 0.00028448258 0.013876955 0.10812346 0.09137072 -0.34248272 -0.05428422 -0.049316783 -0.18487342 -0.15686782 0.0001718182 0.15906997 0.10657308 -0.071442135 0.004599923 0.12723978 -0.1169291 -0.045025796 0.0011050217 -0.012836164 -0.120166674 -0.077912286 0.07415232 0.17455155 0.16999842 -0.22449017 -0.07815414 0.17942476 -0.122135654 0.13287039 0.191964 -0.030242937 -0.08581109 0.070946485 0.15101162 -0.078133486 0.034761127 0.051087245 0.027860252 -0.1878658 0.0039959406 0.047652703 0.14605002 0.139183 -0.10531937 -0.14217152 -0.1355819 0.07021371 0.035697 0.111559235 -0.28354722 0.12574017 -0.12767643 0.11074286 0.1976841 0.18350554 0.087804064 0.23844709 -0.14711973 -0.036705893 0.15803891 0.04272994 -0.12913841 -0.02694513 -0.026582994 -0.1294612 -0.07111899 -0.11033475 0.1927048 -0.37966767 -0.06039494 -0.15368974 -0.20929591 0.16704741 0.090902455 0.09617902 -0.019672079 -0.19612099 -0.06622265 -0.023571474 -0.024143972 -0.07108291 0.2793693 -0.091629036 -0.21979998 0.04694623 0.14354584 -0.2426669 -0.010918367 0.087061495 -0.24387014 0.15664671 0.034021072 0.06337021 -0.18739012 -0.22560224 -0.056862053 -0.022813281 -0.00755759 -0.07716809 0.038189713 0.07117511 -0.22225533 -0.16759627 0.03955679 -0.038891573 -0.17109333 -0.1657035 0.24877162 -0.043886006 0.21278584 -0.2927463 0.30231857 -0.036901686 -0.26600692 -0.027252821 0.35207945 0.17569193 -0.011510055 0.1140387 0.03786525 -0.0061669415 0.12358622 -0.007716881 0.06690131 0.06587932 -0.24276271 -0.115850575 0.26334178 -0.03775336 -0.17645612 0.2913847 0.23416734 -0.2124827 0.07593608 0.0070648533 -0.08251604 0.07235553 -0.13278225 0.19939567 0.37604117 0.4488444 -0.25370994 0.06256016 0.27518 -0.16131845 -0.031653084 -0.26711994 0.17777058 -0.04506427 -0.034047477 0.13853523 -0.03263158 0.037605572 0.099668704 -0.05548023 -0.0077023716 0.077003025 -0.18056946 -0.19991758
476 -0.117573924 0.20265673 -0.08247489 -0.08746142 -0.30472133 -0.18623997 0.15306896 0.1482912 -0.017007748 0.03184024 0.07527144 -0.1958986 0.1965603 0.22111917 -0.024596578 0.20304444 -0.06415654 -0.09093714 0.009756895 0.082831785 0.10758579 0.030258799 0.11287172 0.02862401 -0.13468167 0.24913697 0.053793468 -0.044142883 0.07948332 0.13534273 0.019537535 0.007595842 0.06806351 0.070271514 0.026605891 0.10973061 -0.19683735 -0.21331458 -0.13584684 -0.02989095 -0.08823281 -0.22714657 -0.30478215 0.15327975 -0.121144034 -0.066808574 -0.13855174 0.20485887 0.042264927 -0.2738791 0.022352686 0.0030958063 0.45455208 -0.24908592 -0.25820494 0.08317727 0.08844826 -0.115027644 -0.4650996 0.31524867 -0.050534498 -0.047835562 -0.4145561 -0.20524135 -0.14484918 -0.014214198 -0.07805286 -0.24300845 -0.1667191 0.0046316045 0.079313725 -0.10937441 0.07407871 0.13589697 0.01303441 -0.04378899 0.12393487 -0.001381864 0.17442358 -0.17746273 -0.20861061 0.031924274 -0.031095743 -0.041629422 -0.0656735 0.028958196 0.19459514 -0.08540884 -0.012963898 -0.2684157 -0.025279608 0.31540677 -0.025017055 -0.07559599 0.20474917 0.032156084 -0.11396066 -0.067196324 0.3285137 0.026406707 0.13472708 -0.318256 -0.011170136 0.018775372 -0.011192304 -0.3589556 -0.010139882 0.41883734 0.0069788825 -0.060987715 0.048695765 -0.01825039 0.12218352 -0.031454034 0.10827794 -0.07571037 -0.23311043 0.0657587 0.11074906 0.2190937 0.1052192 -0.020081304 0.14416951 -0.1939307 0.010172776 -0.04797163 0.09077201 0.04119236 -0.006328618 0.0037177878 -0.13659072 -0.2119991 -0.13166668 0.028171835 -0.042112954 -0.2029368 -0.16698755 0.20787048 0.19761069 0.29147583 -0.12677337 -0.24691336 -0.20755696 -0.0142569095 -0.08178093 0.017735267 -0.1410071 0.1156837 -0.104374886 0.13467585 -0.10747136 -0.08665236 -0.1186175 0.22035679 -0.042869758 -0.06390183 0.018412659 -0.009038314 -0.08360996 -0.01342383 -0.23203197 -0.22534437 -0.17393667 0.011709958 0.27320537 -0.27503625 -0.32451013 -0.0061645173 -0.2391192 -0.15461233 -0.17533955 0.048989296 0.25802585 -0.09556264 -0.07364851 0.25160563 -0.060082324 -0.0789541 -0.02063712 0.05264919 -0.11221829 -0.0026333039 0.2088222 -0.024580639 -0.0038574927 -0.09561307 -0.27536654 0.11651305 0.11112802 0.010369088 -0.09777142 0.007793975 0.17135866 -0.014414528 0.007701466 -0.008124996 0.010788784 -0.0017153482 0.055882327 -0.12508409 0.15846643 0.19754556 -0.0032481754 -0.047049053 0.067372635 0.025955489 0.21040826 -0.022481345 -0.012855063 0.011664995 -0.0027404365 0.111857206 0.19133206 0.0172556 -0.13546103 -0.004134051 0.037953828 0.07406871 -0.018632643 0.03523154 0.17728446 -0.07073215 -0.061348744 -0.04207921 0.16545637 0.019805742 -0.12762351 0.056039862 -0.07152648 -0.30977026 -0.0089451345 -0.03605484 0.031367686 -0.22462213 -0.26515535 -0.063961565 0.21076418 0.04042128 -0.17930956 0.04690029 0.26700842 -0.20176338 0.2670093 0.102888025 0.07881972 -0.05993004 0.07567363 -0.12722927 0.011641308 -0.032290377 -0.066845424 -0.055346336 -0.09797337 -0.08164862 -0.0026986108 -0.2046141
238 -0.030810168 -0.07542121 -0.13495305 -0.004334611 0.011760326 -0.062747724 0.053848796 0.03289845 -0.12371366 -0.09273115 0.121122636 -0.0984527 0.08834884 -0.06352448 0.05701605 0.054492783 -0.0060439217 -0.049983602 -0.043853257 0.15074004 -0.06320782 -0.05816838 -0.051347308 0.14906551 -0.15087083 0.12416538 0.20630342 -0.020296847 0.015386831 -0.10290078 0.04286612 0.10667764 0.21599993 -0.118161306 -0.0041660694 0.07900899 -0.12926826 -0.020727279 -0.028941788 0.058433652 0.24072134 -0.028222518 0.116866626 0.00244119 -0.14756495 -0.021401903 -0.14044082 0.106761836 -0.07455558 -0.09112558 -0.2067575 0.031292744 0.42270464 0.051014498 0.042706106 0.11732485 0.18349287 -0.025947923 -0.073217325 0.025514744 -0.12849441 0.053487305 -0.035840087 -0.07128388 0.12225372 -0.0025764208 -0.24812436 -0.049609017 0.06419078 -0.13364787 -0.26322865 0.016819073 0.1391689 0.020268358 -0.12561241 -0.055820663 0.045997735 0.05298827 0.014517491 0.009662186 0.04635045 -0.094743714 -0.016483404 0.08833927 -0.14376722 -0.082880884 0.041370865 0.14837117 -0.040579867 -0.07037768 -0.20646493 0.10507326 0.21686621 -0.12967221 -0.053476717 0.042156365 0.095286995 -0.02865246 0.066247724 0.03781269 -0.074075066 -0.354139 -0.03157222 0.0023568908 0.013115545 -0.2159116 0.04678309 0.1393981 0.05140781 -0.046240192 -0.20861113 0.13592654 -0.113964856 -0.07162127 -0.12861963 0.16240689 -0.18280607 -0.14890538 0.19621237 0.080559276 -0.010009876 -0.10089047 0.07864622 -0.021338174 -0.11227868 0.034888364 0.07505662 -0.0007034038 -0.097567976 0.07257412 0.099323556 -0.11976772 -0.06803626 0.047921713 -0.025442839 -0.075272776 0.08037802 0.111991026 0.012425068 0.1846694 -0.050945595 -0.22539122 -0.22118755 0.075650536 -0.022303479 0.062316313 -0.25130683 0.14304277 -0.23037297 -0.005153399 -0.008958167 0.08975479 0.08156655 0.22491512 -0.1439302 -0.06350991 0.1784441 -0.120016634 0.05854649 0.051418863 0.011741286 -0.10087042 -0.14638777 -0.26824528 0.18207777 -0.33679965 -0.117483996 -0.012071661 -0.05688798 0.13732454 -0.043155946 0.06045608 0.13260908 0.037749454 -0.14886391 0.08990533 -0.097695135 -0.16237691 0.37806338 0.045860596 -0.09370204 -0.016302362 0.09217235 -0.038472306 0.11268153 -0.026292138 -0.18442073 0.13500166 0.0354421 -0.035919897 -0.0813057 -0.17528835 -0.11361369 -0.04376706 -0.09589501 -0.018970897 0.03636215 -0.11258296 -0.051524 -0.05030724 0.10865922 0.12223506 -0.15660755 0.08590849 0.31531814 -0.07532315 0.18959238 -0.1692709 0.25896674 -0.16150704 -0.32703155 -0.041499216 0.19552137 0.1427859 0.042469684 0.06684975 0.09629473 -0.14321257 0.321059 -0.043037105 0.00067339477 0.110334106 -0.26874015 -0.13246079 0.41925445 0.0813 -0.24981862 0.16829588 -0.04547192 -0.15774707 -0.114993475 0.019477686 -0.4047294 -0.068548344 -0.3205224 0.21608244 0.35754257 0.38858655 -0.09566764 0.03718246 0.54396695 0.058096707 0.1384227 -0.069360115 0.2374297 -0.09511432 0.092082575 0.17810863 -0.08028248 0.13568887 0.04570262 0.036741108 -0.08108687 -0.018015316 -0.051894028 -0.3355678
328 -0.050478376 0.08053156 -0.03517455 0.041193064 -0.063586354 -0.0308932 0.07362665 0.03734955 -0.14716634 0.004219338 0.16032657 -0.067727104 0.08145039 -0.122852474 0.007021567 -0.116076246 -0.05177475 -0.007805675 -0.0048998906 0.13074256 -0.08973673 -0.091643445 0.045727905 0.20647894 -0.12548804 -0.11651508 0.13927789 0.047875166 0.06517026 -0.06532866 0.048216105 -0.027943125 0.14770986 -0.073179744 -0.1005349 0.08687574 -0.053288948 0.16474198 0.024419392 0.03840972 0.18435697 -0.069526345 -0.032419432 0.001097044 -0.1969947 -0.08348919 -0.14640598 0.12654331 -0.10536491 -0.0090973545 -0.13628931 0.14048542 0.32329074 0.11273912 0.12901756 0.020828048 0.1155757 0.05824267 -0.16308294 0.023441728 -0.06612562 0.0032865573 -0.05185646 -0.026785744 0.05523707 -0.03687333 -0.17420207 0.059166033 0.058129784 -0.1642472 -0.22530377 -0.0324385 0.084102504 0.021701094 -0.07655016 -0.010188884 0.08539922 -0.015402265 0.040729914 0.06289313 0.049791805 0.07391716 -0.0891971 0.048151296 -0.14650881 -0.0507728 0.13817047 0.106879294 -0.028721873 -0.18938555 -0.23009437 -0.023792833 0.13727432 -0.14473252 -0.08380843 -0.0058710664 0.059052512 0.06640586 -0.037153177 -0.016542166 -0.13694888 -0.373627 -0.12541837 0.033524167 -0.05923647 -0.21881464 0.09983398 0.08207418 0.059178445 0.027288917 -0.102947764 0.27448145 -0.039418295 -0.081175454 0.004887256 0.110943906 -0.24048202 -0.09161111 0.17322774 0.0027465448 0.04804815 -0.20118067 0.15552564 -0.03985054 -0.02963084 0.041062914 0.13646056 -0.027855275 -0.069732286 -0.010880077 0.12952086 -0.09970511 0.005283005 0.013428987 0.031517137 -0.1044285 0.13629259 0.06206364 0.116355814 0.16369046 -0.08732209 -0.23792514 -0.34690142 0.06528491 -0.053610288 0.122895226 -0.23870394 0.10381669 -0.23609774 0.04754382 0.12718661 0.13076064 0.066863276 0.12599578 -0.26745877 -0.03139344 0.17139158 -0.20516635 0.10558568 0.018360116 0.04663025 -0.11104366 -0.11969734 -0.3284819 0.22640206 -0.3826436 -0.07433511 -0.0058446988 -0.021015828 0.14931312 0.06228704 0.06056292 0.17395632 0.06012136 -0.20751196 0.09335127 -0.07151551 -0.15441114 0.30616882 0.006167639 -0.11934873 0.079573244 0.063426286 -0.02246792 0.015394231 -0.029816825 -0.29960644 0.1535806 -0.11135568 -0.030728785 -0.08980268 -0.24729176 -0.14100717 0.009085875 -0.18253052 -0.0041269003 0.1314265 0.020471113 -0.0023795264 -0.10027206 0.19811416 0.24437954 -0.11062681 -0.061551675 0.26416194 -0.036754195 0.07086028 -0.102119535 0.11542073 -0.18647799 -0.19523701 -0.060930792 0.2305014 0.04964148 0.10095558 0.12900662 0.16107993 -0.034605063 0.23847362 -0.097083814 -0.031453136 0.08035956 -0.18069807 -0.15070459 0.33971834 0.011103544 -0.19142771 0.22325353 0.036831357 -0.16763459 -0.16870362 0.028430386 -0.48147336 -0.029065324 -0.44979906 0.3347211 0.3921119 0.499108 -0.13425517 0.035063077 0.56409305 -0.05796561 0.1480223 -0.046687864 0.28727433 -0.13124216 0.0073355716 0.16635032 -0.12189368 0.0706535 0.14157368 -0.00010231124 -0.025719186 0.0497068 -0.008492566 -0.27036107
164 0.04249035 -0.07963323 0.0032915235 -0.04793988 -0.047377925 -0.009105814 -0.0021733039 0.0923384 -0.054981567 -0.04904188 0.055103555 -0.10535878 0.05978582 -0.04622582 0.05433756 0.042561837 -0.018672492 -0.04795962 -0.1037269 0.07570843 -0.09483945 -0.09045972 -0.004360784 0.07496723 -0.12275651 0.039553702 0.097944 0.011798142 0.052484468 -0.07459237 -0.015139804 0.08928501 0.19587965 -0.11470143 -0.044794206 0.07877641 -0.08710634 -0.04271725 0.08552471 0.054212943 0.17285009 0.008858399 0.09946498 -0.029324748 -0.078635894 -0.05107422 -0.0868247 0.118832 -0.104142234 0.001396887 -0.14245166 0.09645384 0.38812438 0.036924362 0.039190132 0.12535529 0.16182858 0.037250288 -0.101494424 0.062136028 -0.095360786 -0.0066909813 -0.017242359 -0.04926189 0.094929725 0.009826612 -0.25889546 -0.009612718 0.06331955 -0.18241037 -0.17197067 -0.026286345 0.20674874 0.0033604568 -0.18988809 -0.055170428 0.09924729 0.041898623 0.0085452115 -0.037004508 0.04410455 -0.023039903 -0.03793726 0.1168662 -0.17115901 -0.008956922 0.12195429 0.11079208 0.015213307 -0.10423453 -0.20084886 0.034550387 0.15114985 -0.05180976 -0.085518375 -0.0050295815 0.074691534 0.0013494338 0.001185011 0.050173555 -0.099510096 -0.32761186 -0.019442985 0.085609026 0.0179138 -0.18524505 0.09983554 0.07152669 0.09962503 -0.041140147 -0.097620025 0.21356684 -0.09486857 -0.0899819 -0.055538755 0.15197116 -0.2073038 -0.09657192 0.20015863 0.06562247 0.05656604 -0.06866 0.13013655 -0.06281753 -0.0800479 0.13800919 0.103541546 -0.0072019896 -0.15612404 0.043569334 0.037437856 -0.1577059 -0.0006982468 0.14901242 0.050817706 -0.08183048 0.112626016 0.11592763 0.15519147 0.15838176 -0.06569929 -0.20319799 -0.26556286 0.03622585 -0.036714263 0.010130812 -0.27120975 0.18057233 -0.27698264 0.023837794 0.038006894 0.106099814 0.00027388337 0.17360187 -0.1936336 -0.0132751865 0.16994138 -0.027464682 0.111524835 0.010017334 0.004959763 -0.12127525 -0.08740323 -0.2322451 0.23391524 -0.3466128 -0.06004023 0.012093938 -0.031657834 0.17994727 -0.04752135 0.11248254 0.19416127 0.038491655 -0.08910657 0.085710526 -0.15781836 -0.24352553 0.32651836 -0.027606806 -0.089882575 -0.012123886 0.10452178 -0.03888639 0.08525327 0.015780443 -0.1992032 0.13849911 -0.009348113 0.06907292 -0.112637274 -0.2357168 -0.15527335 -0.03871466 -0.12587786 -0.036504846 0.045973152 -0.05301509 -0.026860507 -0.10738395 0.10436858 0.0442014 -0.10642156 0.008905887 0.33915624 -0.02238895 0.09926947 -0.16701132 0.1831894 -0.12030445 -0.23140155 -0.044735774 0.2726995 0.14456691 0.102067165 0.12142399 0.06218301 -0.054538596 0.3203751 -0.050774164 0.040818453 0.048710365 -0.15138832 -0.12932044 0.4133443 0.06765621 -0.2514939 0.19665366 0.015423623 -0.16661094 -0.1616545 0.073465504 -0.41155636 -0.09354085 -0.44807827 0.29695144 0.31724226 0.40843824 -0.12875444 0.027467862 0.5800676 -0.065727614 0.029441515 -0.18998052 0.25769934 -0.1645448 0.048222363 0.17851768 -0.07722065 0.17726941 0.14346823 -0.02352804 -0.029567827 -0.04187901 -0.05195256 -0.3257498
767 0.03322614 -0.041279946 -0.034872815 0.009730588 0.0041952995 0.017009588 0.04401572 0.09861317 -0.013978521 -0.07855873 0.11386684 -0.1082249 0.12045087 -0.059165973 0.021444753 -0.002946863 -0.0434814 -0.082018614 -0.04734732 0.07436094 -0.10257056 -0.117831975 -0.01818377 0.08573023 -0.084367916 0.027074257 0.11097757 -0.04668288 0.018096616 -0.06329776 -0.016598837 0.077061236 0.16030693 -0.12345834 -0.07479514 0.10485961 -0.1115029 -0.023460604 0.077463396 0.0034001772 0.23031777 -0.025761021 0.09527626 -0.0515223 -0.1431937 -0.11125651 -0.12351463 0.12619552 -0.1284889 0.023885857 -0.1418649 0.011168285 0.37983918 0.023912115 0.010289276 0.12872604 0.17052534 -0.013332682 -0.07269837 0.075820066 -0.10694035 0.024211435 -0.017560164 -0.024368322 0.112652525 0.0015200232 -0.25953382 -0.021827323 0.07689695 -0.19179569 -0.20806967 0.0058213565 0.1250246 0.008676095 -0.12796214 -0.0140375 0.092332035 0.008199328 0.041907523 0.020524878 0.05439862 0.021901812 -0.044401873 0.12654772 -0.15519522 -0.0076140426 0.1036782 0.14194667 0.023103446 -0.079696834 -0.1438641 0.031603742 0.12683958 -0.05790554 -0.0014859679 0.030923631 -0.009373571 0.027620273 -0.070990235 0.01028659 -0.099890545 -0.33472872 -0.07092609 0.1151458 0.010377263 -0.23507074 0.04336962 0.059211317 0.14929561 -0.058480058 -0.05081851 0.2058975 -0.08297583 -0.07197357 -0.032263614 0.15412824 -0.18826824 -0.10266137 0.19158518 0.09248226 0.04760159 -0.12016028 0.12376568 -0.07116265 -0.05263344 0.08187132 0.15774219 -0.0056466004 -0.13441712 0.00471546 0.05445868 -0.10944423 -0.023742892 0.07007844 -0.0111771505 -0.11867006 0.101177365 0.1272741 0.10385993 0.17317145 -0.109874874 -0.20449056 -0.22526944 0.06581838 -0.03542652 0.036058195 -0.21911702 0.12076645 -0.26370987 0.016849037 -0.014139952 0.15715508 -0.02138409 0.11973771 -0.2245188 -0.049923133 0.17716593 -0.072019614 0.16543463 0.0016339313 0.056084193 -0.13830587 -0.037481673 -0.233011 0.18309242 -0.31286836 -0.03464559 -0.060737565 -0.039786223 0.13985282 -0.012658632 0.113063395 0.18727821 0.014585676 -0.15117528 0.084554836 -0.113213405 -0.21096122 0.32495606 -0.04272545 -0.19158393 -0.026156154 0.09574845 -0.08124857 0.061311863 -0.0057982984 -0.2661749 0.17750889 -0.027143719 -0.03825927 -0.13275771 -0.20669304 -0.19802307 -0.03649724 -0.10918277 -0.01869207 0.03242266 -0.06468273 -0.060755968 -0.05219249 0.15535024 0.08724251 -0.08546872 0.020146402 0.31008902 -0.026458314 0.11746771 -0.22894183 0.15516742 -0.14691186 -0.20001826 -0.019055977 0.27185908 0.1343094 0.038491957 0.082033895 0.13016865 -0.029314978 0.24143644 -0.095014684 0.03404157 0.055291142 -0.13813727 -0.10074464 0.38595244 0.09460175 -0.23227128 0.23358801 0.032711416 -0.17610411 -0.18526827 0.057641283 -0.41386884 -0.057654493 -0.3957048 0.20858778 0.28790793 0.43137512 -0.104917794 0.04136352 0.5495922 -0.015155231 0.083200075 -0.22333232 0.23635544 -0.138426 0.051044833 0.20308904 -0.07875522 0.13440935 0.1642658 -0.030280588 -0.026597789 -0.051839203 -0.089146286 -0.3656268
851 -0.06855205 0.0250355 -0.05880467 -0.10576668 -0.06747973 -0.004758469 0.028341543 0.11586007 -0.059328992 -0.053293776 0.06089445 -0.08014898 0.010193914 -0.065690555 0.037352845 -0.015826082 -0.05977699 -0.07522262 0.0096863825 0.014761579 -0.0910383 -0.08872401 -0.006948292 0.16010082 -0.092650995 0.09588962 0.14973834 0.020714944 0.055217393 -0.06212835 0.01239562 0.11100954 0.14711833 -0.1327109 -0.044711117 0.11160008 -0.10812686 -0.002925131 0.04529284 -0.011453852 0.20116003 -0.022761405 0.11002487 0.015875593 -0.10861622 -0.11480279 -0.09228714 0.12371131 -0.05797974 0.007067427 -0.08745214 0.09141238 0.3955481 0.009438385 0.024533458 0.09528674 0.093346365 0.03310753 -0.16938096 0.06782918 -0.1254402 0.054437168 0.015687913 -0.04460832 0.07460277 0.030536164 -0.27328777 0.033993233 0.1175201 -0.17096312 -0.17641191 -0.0022414092 0.16072674 0.04355138 -0.1630727 -0.070644476 0.10072093 0.0007657015 -0.06728464 0.043874655 0.021552417 -0.006514625 0.016606655 0.11103218 -0.071678974 -0.04637411 0.15308808 0.15057702 -0.056079958 -0.12264204 -0.15548384 -0.010141337 0.098569945 -0.08452615 0.032452036 -0.06498326 0.05228613 0.06803441 -0.018976804 -0.010690694 -0.12300459 -0.29482886 -0.055074926 0.10324322 0.015327472 -0.1880399 0.11016851 0.08078074 0.12953904 0.020476853 -0.07645851 0.1462382 -0.16099574 -0.07816999 -0.031274863 0.16690663 -0.21074788 -0.112766184 0.1506565 -0.0077129197 0.072436854 -0.14308374 0.07842831 -0.076604426 -0.15641938 0.11133758 0.20070294 -0.019384807 -0.28031805 0.028267689 0.042843755 -0.18282512 -0.039173257 0.0934204 0.020602167 -0.07981833 0.09103852 0.09144786 0.13553298 0.09492989 -0.018647233 -0.19282743 -0.25980335 0.054997727 -0.01135375 0.049298704 -0.25751737 0.13783233 -0.24097107 0.022666903 -0.0009391614 0.11792464 -0.012993472 0.09315609 -0.17550342 0.0064606126 0.15171528 -0.110541545 0.09153815 0.003144388 0.03208053 -0.13865788 -0.102358215 -0.2684805 0.21288463 -0.35499987 -0.018984748 0.015487887 -0.0032428321 0.18764775 -0.020011242 0.1257277 0.16228016 -0.04304543 -0.17031373 0.11061382 -0.11820324 -0.17629172 0.36205164 -0.07837519 -0.15031326 -0.028952958 0.057024512 -0.07952633 0.021982009 -0.0052158553 -0.24386437 0.24772339 -0.07541974 -0.00712913 -0.11061248 -0.18510264 -0.19295263 -0.011630401 -0.14544012 -0.043209884 0.03230977 -0.11723684 -0.02593911 -0.13097712 0.15823103 0.15798955 -0.1049872 -0.026370846 0.32859325 0.0037845739 0.15538374 -0.17900223 0.16698141 -0.15016416 -0.23138884 -0.015211205 0.28773066 0.1418942 0.080870934 0.072891444 0.09138109 -0.016298627 0.2973064 -0.055016004 0.026214069 0.059255276 -0.16152196 -0.19740728 0.4309539 0.0022809894 -0.2088326 0.22231878 -0.05328363 -0.15790144 -0.19831315 0.02034687 -0.39455715 -0.027467854 -0.35262582 0.21736588 0.32479614 0.4372621 -0.136439 0.00464219 0.5485233 -0.051164858 0.08672867 -0.18153222 0.26026738 -0.14807875 0.060049 0.2321151 -0.08812692 0.11550256 0.13277854 -0.026234204 -0.059049625 0.016815579 -0.009770882 -0.27310348
128 0.02059733 -0.023395235 -0.06575735 -0.014443642 -0.04539191 -0.05171938 0.005682335 0.1335981 -0.06278616 -0.06729131 0.1499612 -0.0716903 0.12872896 -0.10749833 0.05747239 0.01237956 -0.017470175 -0.049655683 -0.095647395 0.14698544 -0.07606283 -0.10232465 0.030617887 0.1337961 -0.03837589 0.05439625 0.1674856 -0.055534136 0.027321985 -0.093498245 -0.032011665 0.12598242 0.11880827 -0.12786385 -0.10137898 0.059669778 -0.07674938 0.052187588 0.075451404 -0.012165192 0.19023517 0.036963556 0.15757453 -0.02096652 -0.12346464 -0.040265363 -0.082709126 0.12240336 -0.07350633 -0.056905948 -0.116817944 0.09181462 0.38581842 0.005032839 0.031917863 0.103796564 0.11593361 0.05304712 -0.10853746 0.07717233 -0.087102816 0.00837877 -0.036082692 -0.028240707 0.07190656 0.033652727 -0.17835091 0.010273308 0.09187823 -0.11635728 -0.18642466 0.03069423 0.13020161 -0.031472016 -0.15301095 0.017598147 0.097903214 0.021931529 -0.030975137 -0.02543386 0.027959881 0.042519264 -0.047799423 0.09562054 -0.11981154 0.010689067 0.06059307 0.09979137 -0.005533904 -0.100770645 -0.16110726 0.022180976 0.110945456 -0.10861859 -0.054057397 0.035392847 -0.0037494656 0.019129978 -0.007229348 0.04479604 -0.13108926 -0.367371 -0.096488915 0.11724637 -0.011482703 -0.19242935 0.043032244 0.051322598 0.11476471 -0.050716665 -0.10770713 0.2410542 -0.12184174 -0.06618021 -0.036377285 0.17710248 -0.2102861 -0.08513738 0.16626468 0.071473636 0.046966754 -0.09107894 0.14591716 -0.07392851 -0.130982 0.10936249 0.10404346 -0.018292297 -0.12019488 0.02250511 0.05634254 -0.121691205 0.028889382 0.10157197 -0.050301265 -0.12511311 0.12440083 0.12277132 0.13351968 0.16714804 -0.10543156 -0.23013143 -0.21435064 0.08411138 -0.027300369 0.050346334 -0.28347474 0.16228083 -0.27664977 0.042352494 0.07924953 0.108529225 -0.017453143 0.14501625 -0.23690479 -0.06062683 0.19259249 -0.07241397 0.11018692 0.037699126 0.009646415 -0.14213008 -0.15588579 -0.29823127 0.17267132 -0.3427158 -0.12456679 0.009378702 -0.031859327 0.14172046 0.023630243 0.087554105 0.23847269 -0.05998366 -0.12593316 0.09869519 -0.08089954 -0.19943513 0.30507883 -0.026228052 -0.15900399 -0.03507686 0.11078601 -0.098336466 0.1164931 -0.028643426 -0.28260937 0.17065653 -0.076138 0.0139438845 -0.13669297 -0.19512004 -0.16806102 -0.06721834 -0.107819535 -0.01964472 0.08388572 -0.023903945 -0.0631857 -0.107713915 0.13052341 0.06530883 -0.18861763 0.016061038 0.27456152 -0.028771617 0.08167674 -0.1829421 0.12038106 -0.14569102 -0.26012713 -0.04529107 0.3098296 0.14639641 0.15469535 0.07220679 0.10630398 -0.10888913 0.29368436 -0.09826412 0.08224153 0.06666492 -0.12678343 -0.11566243 0.37799603 0.05845538 -0.16610914 0.19414471 0.017142596 -0.1987117 -0.09513845 0.06530885 -0.44473317 -0.0991817 -0.4268144 0.29105148 0.25734067 0.41498396 -0.032164652 0.03162956 0.5842286 -0.023167117 0.12063782 -0.175103 0.3256263 -0.103646494 0.02850939 0.21865594 0.011597666 0.15507157 0.18685053 -0.036343418 -0.027278734 0.006414371 -0.072357774 -0.3161694
287 0.0098627405 -0.029936468 -0.0189027 -0.048479173 -0.015248178 0.0077491323 0.040456615 0.1019664 -0.0805715 -0.08524553 0.15172099 -0.012935524 0.050627474 -0.112095796 0.07606518 0.060941756 -0.0206655 -0.1401113 -0.019161444 0.03708947 -0.14595535 -0.11693555 -0.00074587343 0.07849481 -0.021952866 0.08897748 0.15661007 -0.024328036 -0.013708824 -0.09530222 -0.0014548461 0.13008049 0.11798171 -0.13646597 -0.075757146 0.027107786 -0.10918356 -0.005428639 0.07145679 0.028512627 0.12861122 0.012545219 0.035183858 -0.019027388 -0.20562929 -0.03408052 -0.041024458 0.1029068 -0.07865352 -0.03956454 -0.16554278 0.096207514 0.41687915 0.032630198 -0.050424278 0.12291779 0.1531846 0.03389331 -0.21279564 0.12418586 -0.08134623 0.027916588 0.011730149 -0.07053233 0.14131773 0.013433244 -0.13124165 -0.00833079 0.11970636 -0.13051543 -0.23492569 -0.001041651 0.2002589 0.043802124 -0.20084688 0.0026288016 0.14077993 0.038183056 -0.0731549 0.047037262 0.07329092 0.02667351 0.016028784 0.09153822 -0.15874596 0.0015801549 0.089211985 0.16268086 -0.07145775 -0.13249978 -0.17227104 -0.016690668 0.11094839 -0.08164148 -0.011417656 -0.021380432 0.036986493 0.076908246 -0.070545 0.01445421 -0.11558144 -0.29134732 -0.086285695 0.1430709 -0.036702096 -0.1829585 0.0629908 0.08686076 0.12479272 -0.027031403 -0.117632575 0.22171512 -0.1146532 -0.04052309 -0.059924014 0.16049515 -0.22639565 -0.050709903 0.1346499 0.07056754 0.07555066 -0.114704 0.13567257 -0.03874314 -0.1461136 0.17277712 0.16077563 -0.0032053606 -0.14307506 0.041833304 0.017777793 -0.1605201 -0.01843129 0.068865925 0.022798842 -0.10139291 0.12290388 0.07248812 0.15762903 0.10785856 -0.012156938 -0.1757998 -0.25183648 0.06674566 -0.07771981 0.050077252 -0.27584925 0.21378107 -0.29227298 0.061138827 0.047091592 0.12036053 -0.050512545 0.13355851 -0.1940471 0.018905621 0.20182112 -0.10022441 0.119827084 -0.03989945 0.058572676 -0.16177766 -0.067730226 -0.27745077 0.21678403 -0.3262716 -0.074559666 0.014922501 -0.059878327 0.17509148 -0.013794487 0.1528276 0.19840749 -0.048544064 -0.15893379 0.050855894 -0.0930873 -0.21547061 0.35232976 -0.05011218 -0.18811576 -0.044693757 0.13187654 -0.12161157 0.028798526 -0.07703153 -0.21804799 0.17590293 -0.06317369 0.04072996 -0.108229004 -0.19673046 -0.13926971 -0.021853821 -0.11074527 -0.0286825 0.080881864 -0.07121259 -0.051412012 -0.1416876 0.121871576 0.08458633 -0.09777946 -0.010100722 0.32047084 0.03845573 0.12811393 -0.12266775 0.1228202 -0.15147096 -0.28559345 0.0053873197 0.34263858 0.18530844 0.124557704 0.05160637 0.06947497 -0.04275326 0.3212819 -0.06589509 0.03669418 0.10355064 -0.122184 -0.18376501 0.44678017 0.1026255 -0.18828592 0.17860939 -0.022586733 -0.17769875 -0.07234043 0.034055434 -0.37724295 -0.10987256 -0.38216728 0.26730743 0.2869665 0.37920618 -0.16210195 -0.020702088 0.6191412 -0.03604255 0.10691938 -0.24317455 0.29748154 -0.108165696 0.030799208 0.18616 -0.046235263 0.18432565 0.17556562 -0.040049244 -0.04870853 0.039861042 0.031542737 -0.3196924
720 -0.04271805 -0.084735826 0.24457681 -0.22539006 0.11280133 -0.11782989 -0.12099224 0.03792996 -0.3713986 -0.0640232 0.36514863 -0.11182998 0.15180701 0.030024769 -0.18694165 0.13522135 0.031001993 -0.28242153 0.15395358 0.010616468 0.056068946 -0.0062406915 0.12703124 0.17535372 -0.070478044 0.16301373 0.056912605 0.052891895 0.18664806 -0.06054526 0.05746722 0.012987891 -0.107987344 0.14583628 0.046418484 0.23505002 -0.25685447 0.09596721 0.06202639 0.0633089 0.02923926 -0.041950412 -0.049050085 -0.0004625426 -0.052119225 0.1039536 -0.01843209 0.0405434 0.2836236 0.01971109 -0.042468723 0.11813637 0.37866136 0.036416195 -0.13544603 0.21398118 -0.23748656 -0.16552117 0.049696065 0.25535133 0.05906477 0.14658494 0.008054323 -0.19284353 0.3139287 0.14011732 -0.13432689 0.1026585 -0.018872749 -0.1571113 -0.09408618 0.16429856 0.16126329 0.27190873 -0.14942765 0.07938959 0.19982734 0.08385859 0.08545381 -0.03492732 -0.17988986 0.22629051 -0.10381954 -0.001488765 -0.057198912 -0.12452929 0.034490854 0.08166619 0.17305529 0.09996046 -0.06800151 0.04619911 -0.20389837 0.062999964 0.03229315 -0.12971582 0.04162356 -0.12318122 0.08073238 0.08285382 0.10807278 -0.06309432 -0.035101894 0.1633437 -0.0017387206 -0.17912076 -0.056582574 0.0791683 0.04480101 0.30478007 -0.0019316017 0.03876908 -0.09592196 0.036248337 -0.16011295 -0.24054523 -0.29081136 -0.08138435 0.13111728 -0.09827414 0.2641253 -0.04533245 0.15017739 0.0149709005 0.22731958 -0.10188231 0.059920385 0.1409324 -0.038203128 -0.25687042 -0.113870084 -0.1369232 -0.024407456 -0.10862153 -0.11112667 -0.12346986 -0.03116533 0.009774516 0.12509878 0.051588405 -0.14884399 -0.3190897 -0.23614967 0.09063314 -0.16639903 -0.24045394 -0.15593095 0.35065576 -0.17466673 -0.094773754 -0.085048206 0.031000506 0.3359437 -0.32892513 -0.12867765 -0.023472015 0.022709394 -0.23635669 0.15391585 -0.120393775 -0.05956573 -0.026951183 0.21495539 -0.13071822 -0.04795781 -0.26987657 -0.13852908 -0.1222251 0.04174186 -0.21764216 -0.31332192 -0.06925156 0.14412959 0.05959973 -0.2222603 -0.073853694 0.043221705 -0.24341872 -0.0039193924 0.009129741 -0.18702334 -0.03642312 0.011640545 0.16936009 0.056162495 -0.14629632 -0.22794595 -0.18581298 -0.18716937 -0.00049635593 0.05506183 -0.19278288 0.14946128 -0.08877261 -0.10371584 0.062390316 -0.0953876 0.05818195 -0.14289127 -0.16823144 0.01087172 0.029439334 -0.24800682 -0.023702594 0.6783121 -0.16315529 0.10419926 -0.079325646 0.1801403 -0.109510325 0.5547281 -0.19834872 0.16800778 0.1941356 -0.06812053 -0.14106537 0.14346963 -0.15188709 0.21552052 -0.095045544 -0.3213781 0.14805225 -0.057983335 -0.0033301178 0.3328107 0.3804108 0.10285084 0.07142953 -0.024984427 0.34505972 0.29795602 0.20848778 0.051168684 0.25120288 -0.16605037 0.20414893 0.35448644 0.19390838 0.09197941 0.059224296 0.089117385 0.18060462 -0.18327253 -0.1807061 0.32485053 -0.27811992 -0.07529098 0.33287692 0.099246725 -0.10006988 -0.08083204 0.05659939 -0.075187154 0.033025462 -0.21484469 -0.00788948
319 -0.18340151 0.08703188 0.2464354 0.0015473955 -0.29424545 -0.14762479 0.18888225 -0.11655949 -0.26220068 0.12614837 -0.025400981 -0.17653088 0.20299225 0.16592768 -0.22360826 0.20340438 0.0010742154 -0.2063952 -0.027200425 0.18807282 -0.15745242 0.20317793 -0.1052735 0.3657631 -0.11419957 0.44570765 -0.009528868 0.006049392 0.21122669 0.22020523 -0.12927066 0.00451601 0.26491135 -0.2770249 0.10369397 0.055201072 -0.26096913 -0.49040118 0.13247323 0.13916598 0.13335599 -0.026758585 -0.05482982 -0.3423776 0.15755214 0.08068227 -0.30880582 -0.0070142313 0.09796305 -0.07418358 0.016661191 0.058136694 0.2892483 0.06084251 0.18853512 -0.0034175979 0.08955649 -0.05164224 0.013298329 0.036647044 0.16762915 -0.038200587 -0.20160523 -0.20863368 0.0052594906 0.2307908 0.022186244 0.059862684 -0.085308544 -0.0012298675 0.03804203 -0.12682769 0.11955582 0.01720813 -0.2486631 -0.088201806 0.22016418 -0.25039545 0.10080972 -0.078515865 -0.3470101 0.28600895 0.075886406 0.018952427 -0.39316922 -0.13396245 -0.035400484 0.011141766 -0.13733691 0.03530927 -0.3279522 0.14554165 -0.06689618 -0.04799743 0.010980047 0.38105208 0.06755976 -0.06795564 0.1842574 -0.038822412 0.031966154 -0.3401372 -0.17804734 0.19558497 0.01171924 -0.25831848 0.16463505 0.40980724 0.08817307 0.0133844325 -0.1250228 -0.12734474 -0.013292799 0.01855839 0.009294631 -0.07993525 -0.07075116 -0.097840235 -0.11529553 0.25375962 0.1350761 -0.044444785 0.16712123 -0.055857282 -0.007261508 -0.0750837 0.054404296 0.12076865 -0.074197195 -0.14248776 -0.06518807 0.07375962 0.08397455 -0.08700069 0.044722635 -0.18081263 -0.18643835 0.052244868 -0.12699352 0.08577768 -0.15109238 -0.26589262 0.0649468 0.08139912 -0.18635684 0.2440879 -0.09702161 0.22916225 0.03827652 -0.15317807 0.097322226 0.0871666 0.30882803 0.20266227 -0.22915652 -0.061841436 -0.016872298 -0.3323911 -0.09285938 -0.07360098 0.078156926 -0.07164271 -0.052802622 -0.20450431 0.20548761 -0.34993395 0.018976595 0.02417319 -0.2066533 -0.029145338 0.23332487 0.05763741 0.186726 -0.0144478725 -0.21959542 0.10895021 0.071536705 0.093289666 0.063268974 -0.04644344 -0.3128129 -0.059519906 -0.17877401 -0.123958066 0.14697695 0.073232435 -0.15614934 0.021820465 -0.06636596 0.13135032 -0.21178046 -0.0154203465 -0.03933092 -0.085764095 -0.007214939 -0.059497524 0.1598085 -0.023004238 -0.11552094 -0.18570487 0.22299944 0.13741289 0.19838306 -0.13553812 0.054337356 0.07352644 0.15922192 -0.076331824 0.039162718 0.119318895 -0.18642789 -0.1855722 0.11817076 0.013227317 -0.010607866 -0.035884634 0.02505184 0.03047324 0.23920426 -0.13384415 0.04518396 -0.11966223 -0.14029936 -0.12681912 0.15590398 -0.02561797 -0.02290972 0.31032303 -0.11524203 -0.17500816 0.029486898 0.14017871 -0.30892536 -0.11916595 -0.21892339 -0.13164778 0.077551864 0.31640774 -0.1620016 -0.030303035 0.18217218 -0.13535842 0.13796057 -0.18358588 0.08832309 0.045802485 0.23222886 0.10042288 -0.14942595 0.10618118 -0.033780713 0.0016038434 -0.319778 0.1920863 -0.16082357 -0.24761637
917 -0.05868581 -0.034942545 0.09312978 -0.21592487 -0.26763487 -0.3536958 0.20841037 0.12003195 -0.046368748 -0.035743065 0.27542958 -0.24457125 0.08750726 -0.03692679 0.10495099 0.2742148 0.08218544 -0.21372236 0.056909077 0.32261002 -0.053088423 0.24891281 0.1191759 0.039211683 0.08812094 0.05756954 0.15632364 0.13513751 0.17649984 0.0669894 0.08090631 -0.03964468 0.01028888 0.107835665 -0.054014023 0.026202517 -0.29345554 -0.07625812 -0.055423893 -0.15419634 0.24747461 -0.34648368 0.09842862 0.042885266 0.12483775 -0.041446675 -0.19187404 0.13247843 0.0408247 -0.096689664 -0.25963297 0.13406208 -0.0019645656 -0.28542423 -0.07897209 0.17322236 0.049368683 -0.19780818 -0.0783542 0.1408952 -0.22603267 -0.03122485 -0.09014895 0.07155993 0.084404536 0.2619091 -0.15828177 -0.10997059 0.044270143 0.092539065 0.19242029 -0.028702697 0.16607152 0.15157811 0.09200582 -0.11234542 0.031632025 -0.08800168 0.0888646 -0.23591605 -0.13353159 -0.07281673 -0.14190118 -0.051598713 -0.0692395 -0.23507544 0.07838079 0.07396158 -0.044084065 -0.10597513 -0.05733318 0.1358236 -0.28385237 -0.10737326 -0.16119689 -0.03308978 0.032618564 -0.12281664 0.013684904 0.07364663 0.24947922 -0.20389429 -0.011776623 -0.17903759 -0.019139357 -0.15985756 -0.06853016 0.17052826 -0.12765275 -0.09421762 -0.047967434 0.18970646 0.014001432 -0.12293142 0.24462196 -0.017093213 -0.23516348 0.1662424 -0.038073234 0.29114276 0.37107813 -0.17365472 0.06367689 0.0735408 -0.187542 -0.023510115 0.29738674 0.07225229 -0.13221212 0.016641797 0.19662124 -0.049617015 0.04137455 -0.15025802 -0.007077844 -0.16467132 -0.21619414 -0.06889734 0.18679012 0.009329232 -0.047227364 -0.054225937 -0.098451294 0.06409354 -0.038767826 0.10676552 -0.30346724 0.12247128 0.014305787 0.1156137 0.2799887 0.15492047 0.0237193 -0.09955861 -0.18714386 0.039921388 0.21133205 0.09111277 0.055028338 -0.09427102 0.04066028 -0.29841077 -0.08145635 -0.022481631 0.08297189 -0.19716944 -0.15753162 -0.025696239 -0.25241837 0.018822862 0.10031245 0.14493436 0.08979932 0.008474383 0.10696792 -0.020164672 -0.11992412 -0.0815834 0.0654941 -0.32045707 -0.30911598 0.044935357 0.12023922 -0.057198662 0.14283286 0.35019192 -0.1687406 0.04906114 0.04793101 0.06133518 -0.4122644 -0.1291609 -0.15605411 0.02667639 -0.16486332 -0.0033505051 0.09460142 0.20304573 0.015360109 -0.1944075 0.1416154 -0.05457632 -0.11565987 0.061175894 0.2788823 -0.15964773 0.13383146 -0.22238016 0.26160812 0.009486227 -0.09633678 -0.05584738 0.43148682 0.11480506 -0.13291866 0.1245192 -0.034686863 -0.316691 -0.048131492 0.005452695 0.029575124 -0.029390657 -0.23297867 -0.36512497 0.19333963 0.14347751 -0.08989988 0.38278386 0.11342177 -0.25679234 0.04128864 -0.04509748 -0.2897936 -0.051606886 -0.38238588 0.066858746 0.46970683 0.32794654 -0.08382342 -0.062807895 0.057296656 -0.084480315 -0.11662026 -0.3589587 0.36211148 -0.08630297 0.01531525 0.21201321 0.009474381 -0.16328296 0.060205985 -0.076446734 0.108460456 -0.02826049 -0.023306904 -0.1521822
843 -0.044395387 -0.11516423 0.16174948 -0.18063152 0.13891712 -0.10385323 -0.045259137 -0.06610574 -0.32236606 -0.04985645 0.21245275 -0.23210466 0.18075132 0.0791971 -0.08327054 0.18870465 0.0698474 -0.20482996 0.16377985 -0.01388671 0.027189486 0.043558877 0.12528437 0.21986969 -0.09068161 0.20734638 -0.0009903226 0.039341312 0.19792488 0.09855157 0.062032547 -0.025209734 -0.08520918 0.0066619827 0.018168153 0.33952832 -0.2811055 0.14050403 0.1250361 0.11422758 -0.011683555 0.0051097446 -0.007197935 -0.041407928 -0.107597 0.11854 -0.05644356 0.08561408 0.266606 -0.008349515 -0.04135277 0.008657304 0.2698243 0.07500299 -0.056282766 0.20378059 -0.22798993 -0.21762796 0.018191021 0.20562652 -0.020566132 0.13422352 -0.106244214 -0.19626567 0.28642613 0.053296477 -0.11798853 0.025465634 -0.15635718 -0.15258269 -0.16246556 0.19405265 0.10060169 0.17149906 -0.19542277 0.057995487 0.07741115 0.16374163 0.16997561 -0.0015167951 -0.12173851 0.110713154 -0.10070033 -0.07925051 -0.0885313 -0.13332671 -0.081224054 0.03076775 0.1839451 0.12277418 -0.21576546 0.09528237 -0.11177647 0.10511531 -0.021953657 -0.13888009 -0.09027891 -0.21039934 0.12615785 0.089873135 0.1549594 -0.10840265 -0.007391944 0.09355067 -0.009678479 -0.13839573 -0.05470106 0.0109551 0.012020754 0.19639677 0.10336665 -0.0059391595 -0.14265005 0.1072689 -0.18229194 -0.22044733 -0.22418791 -0.12772137 0.058076378 -0.039928153 0.2224065 -0.05171796 0.20306332 -0.0009557284 0.008948925 -0.0077985795 0.068747886 0.102803454 0.017179044 -0.2854436 -0.099653564 -0.104338035 -0.02298183 -0.036983397 -0.07996122 -0.060458604 0.006694814 0.08374056 0.11260274 -0.059074152 -0.15398261 -0.36774892 -0.23593925 0.08544897 -0.22767583 -0.26747397 -0.121167704 0.33853906 -0.14847317 -0.06292725 -0.031080255 -0.0039301533 0.21654846 -0.22786564 -0.05754081 -0.09048704 -0.13810718 -0.3041404 0.10809948 -0.04464967 -0.1770806 -0.07603357 0.11451355 -0.101313144 -0.06274366 -0.29742113 -0.050239075 -0.05702945 0.07274841 -0.09150324 -0.32714376 -0.119238906 0.08243702 0.092728995 -0.16400039 -0.14814703 0.021959415 -0.11733274 0.007658335 0.0054422515 -0.048862774 0.037711725 0.14991756 0.249921 0.09229143 -0.1616911 -0.17877215 -0.13202074 -0.28659797 -0.033860568 0.017731374 -0.27761224 0.20859389 -0.041442245 -0.124132805 0.09240763 -0.028736988 0.08875591 -0.046313755 -0.15448159 0.040851668 -0.0057904865 -0.18740585 -0.065499544 0.5081109 -0.039539102 0.1310101 -0.24598354 0.1709743 -0.042407285 0.42697546 -0.08016267 0.26727572 0.07893986 -0.027877951 -0.24416158 0.09708765 -0.15057968 0.17692104 -0.059420746 -0.32503963 0.10140278 -0.041770644 -0.19338904 0.33471802 0.5263538 0.12235958 0.015361878 -0.11379808 0.20863643 0.4820164 0.2181651 -0.044308547 0.16731393 -0.121684626 0.1785201 0.5156378 0.2334012 0.01757506 -0.050704747 0.03500683 0.225916 -0.21517901 -0.16666129 0.3113316 -0.36784992 -0.06456191 0.54226667 0.19585983 -0.17585182 -0.15163907 0.04232775 -0.010559847 0.014032222 -0.15099335 -0.03155442
807 -0.023972392 -0.105632566 0.20888948 -0.21183726 0.08775694 -0.16537975 -0.104671985 0.033244353 -0.3408553 -0.07785531 0.27816734 -0.13846263 0.1205973 0.061469026 -0.060271643 0.059835155 -0.010403546 -0.31668875 0.1819186 -0.02365509 0.046360217 0.097974695 0.15376075 0.19251652 -0.04991806 0.16980049 -0.06683469 0.14611897 0.18833494 0.08948444 0.040704604 -0.019635214 -0.1660337 -0.0533559 0.00017846265 0.3449605 -0.27198887 0.1038319 0.06620038 0.04764578 -0.0817089 0.026359275 -0.027936136 0.044041563 -0.078920215 0.048020218 -0.090405375 0.08480881 0.24426752 -0.06313104 -0.073686436 0.025924679 0.2633666 0.11559995 -0.028856467 0.22650893 -0.26828375 -0.18560871 -0.039685942 0.19961402 0.01131478 0.10357234 -0.1186439 -0.16985631 0.26437762 0.038098812 -0.15608582 -0.028510574 -0.094998874 -0.1374787 -0.020683821 0.19339725 0.17112567 0.22282624 -0.2278332 0.043598644 0.1536111 0.15609588 0.16279562 0.00047671137 -0.18370728 0.071569644 -0.06325386 -0.049851976 -0.07582141 -0.109224625 -0.07507688 0.009118616 0.14131631 0.14713772 -0.09189809 0.067359306 -0.10813199 0.044797692 0.011923552 -0.11127974 -0.06430394 -0.16296655 0.17744228 0.07154311 0.2043592 -0.1099022 -0.020948883 0.04334295 -0.0014815351 -0.10777073 -0.012927869 -0.052004978 -0.012968692 0.24692142 0.085798405 -0.0016918208 -0.18921511 0.11165992 -0.17229651 -0.26477748 -0.2548288 -0.116275206 0.17150189 -0.056065273 0.20357837 -0.14784776 0.17084472 -0.02428139 0.10546821 -0.04844306 0.0808979 0.013885092 -0.0488568 -0.3175535 -0.14312705 -0.10335068 0.086668946 0.016969426 -0.11645785 -0.0839106 0.09618108 0.053696156 0.13468996 0.026997278 -0.07523177 -0.34121093 -0.34375313 0.01699567 -0.16507167 -0.2842538 -0.12695007 0.32898545 -0.10899524 -0.015467174 -0.09137448 -0.04391968 0.26908818 -0.1636513 -0.07904931 -0.08165861 -0.15991253 -0.31859526 0.08341232 -0.020625921 -0.23553984 -0.06979585 0.13635068 -0.14516163 -0.08874302 -0.26242954 -0.07591168 -0.09741927 0.009567557 -0.14474685 -0.23803313 -0.10491623 0.07270463 0.10603678 -0.27018702 -0.1806367 0.00025738412 -0.101045124 0.026026536 -0.02860951 -0.10453398 -0.0060898103 0.053928327 0.1427841 0.07210577 -0.18323839 -0.21143098 -0.14911905 -0.25188038 -0.018899795 0.0010130104 -0.20575473 0.1527929 -0.06732806 -0.13722022 0.16421111 -0.10070967 0.18052515 -0.1344368 -0.12939446 -0.033170518 -0.06327335 -0.27728778 -0.039035186 0.55558586 -0.10511553 0.099476315 -0.25832865 0.19669323 -0.038359053 0.47008997 -0.137039 0.19443002 0.04049121 -0.04883882 -0.2139357 0.14012337 -0.10047348 0.24118978 -0.07479708 -0.2573488 0.10691491 -0.00698378 -0.103344314 0.32949784 0.5180997 0.099252395 0.005261044 -0.058575556 0.36012945 0.4253672 0.30073184 -0.11882964 0.22358352 -0.18893401 0.19646987 0.4825251 0.27042976 0.014755304 -0.047205005 0.015581623 0.067826875 -0.066057555 -0.11979113 0.38766325 -0.24380116 -0.049988624 0.53568983 0.19492723 -0.14005624 -0.09097309 -0.00033256508 -0.046119325 0.059517592 -0.19215073 -0.067452036
801 -0.008017535 0.08430635 0.15108842 -0.00879556 -0.3770532 -0.23745698 0.08062488 0.048028752 -0.11999518 0.018868795 0.19246954 -0.19700444 0.39893696 -0.00063506607 0.092347145 0.12097704 0.11956008 -0.07976308 -0.07369101 -0.010387064 0.07940281 0.18682562 0.15855697 0.10830486 0.21487972 -0.063676424 0.17267625 -0.00677615 0.08431277 0.21746756 0.061509274 -0.050804425 0.08903459 0.050248545 0.08896781 -0.08025452 -0.19078068 -0.20776571 -0.15447648 -0.13185251 0.069803305 -0.20556875 -0.026441181 -0.10558097 0.1378577 -0.095972925 -0.054801177 -0.064627714 0.07059103 0.033698544 -0.08903923 -0.053534284 0.27814344 -0.44139364 -0.07756759 0.111642316 0.045953758 -0.0137853185 -0.059054848 0.151319 -0.19181617 -0.18622869 -0.06415917 0.12059686 0.04489978 -0.1499018 -0.13242015 -0.10117776 -0.021877516 -0.041630182 0.07934041 -0.10968314 0.19269021 0.15695186 0.14517085 0.06234939 0.27869812 0.018705959 0.08686779 -0.059325427 -0.10023128 -0.18899082 -0.13320284 0.0643387 -0.048862357 -0.13419509 0.046384644 -0.07384011 -0.11305119 -0.23616886 -0.02745428 -0.130523 -0.1250599 -0.12631644 0.055629607 0.105271004 0.13175872 -0.2554984 -0.03908928 0.19526705 0.052261624 -0.25962406 0.010762171 -0.11229957 -0.006938218 -0.26054025 -0.05118553 0.24201442 0.012214928 -0.122707926 -0.06838972 0.122211404 0.041689232 -0.19403446 0.10502469 -0.130575 -0.31381273 0.101578824 0.0046021338 0.28255686 0.3327947 0.012906314 0.055391334 -0.052023143 -0.102149084 -0.09842668 0.2907881 -0.11278226 -0.15709904 -0.026299814 -0.07060737 -0.0126097035 0.11620693 0.11926728 -0.16752878 -0.03247865 -0.26209858 0.023346934 0.20731829 0.15374023 0.06672763 -0.3083397 0.027077934 -0.06453684 -0.14850968 0.0056465524 -0.31287846 0.12842113 -0.09801171 0.099417634 0.31036872 0.23846987 0.009639245 0.112271994 -0.030062653 0.06304591 -0.025653852 0.013929249 -0.13305867 0.0539519 -0.015927525 -0.32141903 -0.1298239 -0.21256825 0.0763469 -0.24314658 -0.13743268 -0.13355698 -0.3112743 -0.053646687 0.04629818 0.033020556 0.21731424 0.096150704 0.0012340827 -0.17880698 -0.1218227 0.11292248 0.06352459 -0.14330398 -0.107310496 -0.048752725 -0.02734478 -0.044327408 0.18436685 0.2525309 -0.14641675 0.3284133 0.08372464 0.010771064 -0.34920695 -0.1608606 -0.16832037 0.16815118 -0.037731864 -0.039830882 0.06101612 0.15620059 0.03317167 -0.079407625 0.072591156 0.041367378 0.03020222 -0.12670985 0.183723 -0.21311308 0.17787121 -0.20486969 0.20280434 0.13412741 0.004096364 0.064684466 0.50765026 0.10327482 -0.056762468 0.22398627 0.21281967 -0.4334627 0.13750167 -0.15490562 -0.13210608 0.21401703 -0.05563637 -0.119817905 0.20474227 0.15777639 -0.17966528 0.31180832 0.052690994 -0.3595937 0.040909216 -0.024892751 -0.18795317 0.08536762 -0.27901566 0.0067664236 0.37953416 0.15565553 -0.07465814 0.09867432 0.09095114 0.019723242 -0.06521158 -0.12963021 0.30909297 -0.008186809 -0.12671766 0.15787901 -0.0015039031 -0.17928162 0.056991342 -0.12947296 -0.098664 -0.07576665 -0.06602405 0.0032878022
766 -0.100552954 -0.10041618 0.12191227 -0.31842566 0.02394289 -0.1675047 -0.2016844 0.002390503 -0.355828 -0.116093874 0.34786636 -0.1268514 0.20168738 0.124128126 -0.019612532 0.0956513 0.08982506 -0.14836441 0.026807308 -0.14531414 0.105731 0.06543351 0.11017701 0.24438697 -0.13113561 0.24790543 0.09643518 0.0403246 0.12773499 0.09079112 0.051784948 0.15630756 -0.08229952 0.07830801 -0.111004084 0.33926806 -0.24759096 0.08259124 0.08239484 0.17397897 -0.06743313 0.1136285 -0.017271861 -0.11444049 -0.105120264 -0.065571815 -0.03731085 0.07922748 0.22822796 -0.053078294 -0.08858806 0.12875916 0.2145213 -0.01995526 -0.03416879 0.1988024 -0.29023257 -0.07867871 -0.17836793 0.22843532 0.022981538 0.23203273 0.08318916 -0.01441088 0.29372454 0.0896973 -0.20890528 0.0493665 -0.17924099 -0.23067196 -0.07376253 0.09636576 0.05892034 0.29530856 -0.07391923 0.13247076 0.1775176 0.18686888 0.16609634 0.09513339 -0.14451426 0.05336142 -0.21502842 -0.14508528 -0.17957905 -0.097092144 0.1012274 -0.06804382 0.22837377 0.12248895 -0.09474395 -0.011327353 -0.17335278 0.050448827 0.070449784 -0.039241023 -0.061972402 -0.15386707 0.20330673 0.006474629 0.21699806 -0.03328505 -0.04287729 0.045651503 -0.0067747342 -0.14889508 -0.0056412257 0.093500614 -0.015231479 0.33973756 0.08483415 0.101465575 -0.18295272 0.14453453 -0.19151905 -0.25834182 -0.2544287 -0.08711694 0.18671167 -0.1472654 0.15919356 -0.10654007 0.14070307 0.010258063 0.016377706 0.05053081 0.008861844 0.16627388 0.015224193 -0.28083602 -0.18215543 -0.1842191 0.0070933667 0.08669024 -0.04219071 -0.14760315 -0.028690549 0.0980363 -0.01602589 -0.18427968 -0.19182284 -0.24409339 -0.26094335 0.07289437 -0.13480134 -0.23833166 -0.18143745 0.46592587 -0.11528565 -0.10491613 -0.11549677 -0.014884862 0.3216278 -0.27804708 -0.08377226 -0.04780054 -0.12262689 -0.28195214 0.19924079 -0.09941203 -0.16006929 -0.055553727 0.18957542 -0.1632012 -0.041262485 -0.26019543 -0.15847357 -0.13350812 0.04789875 -0.30593428 -0.34559977 -0.0052844537 0.15603335 0.048926618 -0.26131925 -0.12942846 -0.01100382 -0.09532131 -0.005115549 0.12749577 -0.09118064 0.112088494 0.17335962 0.27644905 -0.050451152 -0.13406838 -0.19727477 -0.21636134 -0.25165135 0.09381081 0.1414394 -0.20922656 0.18846071 -0.09880124 -0.019143306 -0.032883856 -0.11953535 0.12076612 -0.11093373 -0.14192855 0.058759898 0.11047948 -0.3245015 -0.112469345 0.474519 -0.07335025 0.2941893 -0.09482003 0.13218424 -0.06648978 0.45085496 -0.18126541 0.28881332 0.004615535 -0.027257461 -0.15197764 0.013572936 -0.10229439 0.13690953 -0.026557077 -0.20700678 0.1532519 -0.050469432 -0.10720563 0.118697576 0.3146604 0.1919946 0.14289619 -0.15437828 0.20920408 0.44600803 0.17481127 -0.123193264 0.33957866 -0.3052909 0.14403196 0.36092052 0.13660231 0.068114445 0.025123259 0.1419559 0.17461845 -0.14781065 -0.10210574 0.35653448 -0.29741013 0.008906198 0.4073825 0.18390508 -0.11310212 -0.12179422 0.11665935 -0.008850803 -0.18997315 -0.011911977 0.04186972
73 0.02279426 -0.064814255 0.2104455 -0.2765418 0.14982066 -0.13592762 -0.047211103 -0.077251114 -0.3650762 -0.09274518 0.18158194 -0.2468886 0.1588377 0.1212747 -0.024389792 0.25081298 -0.048036557 -0.23207651 0.053381354 0.0028738219 -0.055979002 -0.021858742 0.09069766 0.0998021 -0.0073583312 0.2158281 0.067475006 0.06067095 0.18562262 0.12698472 0.074065 -0.003280366 -0.108340405 -0.033078372 0.00535072 0.27922451 -0.24867581 0.111470975 0.1201225 0.082113825 -0.06537966 0.0061352113 -0.025052523 0.019906528 -0.14264826 0.06579785 -0.045637514 0.07424747 0.28426093 0.003661269 -0.08359361 -0.027678372 0.18108055 0.089669 -0.08359878 0.21597867 -0.3033091 -0.2465122 -0.004074479 0.17366129 0.043921046 0.040958017 -0.02863342 -0.21704671 0.24148077 0.08623328 -0.20669289 0.01590784 -0.0563258 -0.180451 -0.09386946 0.17923692 0.11764048 0.09421361 -0.22999594 0.06384811 0.18194962 0.18246108 0.11206778 -0.050466266 -0.15992908 0.16418517 -0.0006755548 -0.06301413 -0.0021629347 -0.18417874 -0.06369939 0.08808794 0.19563667 0.19630836 -0.1169633 0.09147934 -0.12450496 0.089150935 0.06980542 -0.16899136 -0.054940347 -0.25022843 0.21719253 0.055701353 0.19903731 -0.0577444 -0.0013018163 0.11448202 -0.065251656 -0.14903013 -0.08194635 0.00048716567 0.07993449 0.20952062 -0.011497577 0.004145977 -0.17045683 0.053238515 -0.2189595 -0.11806743 -0.2376865 -0.23933634 0.08739316 -0.08934179 0.22556722 -0.10217594 0.18580255 0.02544644 0.16155171 -0.063990645 0.12917139 0.09016223 -0.10040443 -0.4027188 -0.09040058 -0.10274158 -0.025882214 -0.054316003 -0.052639686 -0.017878542 0.06349029 0.006456978 0.11685404 0.032906346 -0.098867685 -0.18229333 -0.32452506 0.08475725 -0.18599857 -0.18224007 -0.15687844 0.38559043 -0.16777535 -0.03571657 -0.11019863 0.07174375 0.1286609 -0.23480822 -0.16432244 -0.022328394 -0.023463788 -0.1948494 0.18155363 -0.07280381 -0.20342171 -0.106572725 0.16519944 -0.15683888 -0.04328034 -0.22413328 -0.10027736 -0.14328565 0.014197817 -0.19639884 -0.21077752 -0.054629646 0.10587215 0.0522902 -0.15915185 -0.05767781 -0.10222575 -0.14354202 -0.010849131 0.061273187 -0.10274385 0.022356017 -0.013237366 0.1913952 0.04799564 -0.08735825 -0.19043605 -0.06943976 -0.2296342 -0.03572427 -0.00803211 -0.17229564 0.13472454 -0.12546334 -0.09511371 0.17201997 -0.09981266 -0.0021120047 -0.15290725 -0.07190971 0.024438411 0.07343533 -0.31654504 -0.08876696 0.5280925 -0.08967735 0.1257523 -0.23948835 0.12972738 -0.10398453 0.5905302 -0.1691955 0.16559969 0.13207062 -0.060482424 -0.11630779 0.112172306 -0.14470807 0.24486555 0.018233081 -0.24437949 0.03333399 -0.038985766 -0.18272135 0.31805322 0.45605472 0.104963586 -0.05514509 -0.038729988 0.24483973 0.36012775 0.30410004 -0.048588764 0.15407842 -0.110658586 0.21293712 0.45276383 0.31639537 0.057238583 0.059260696 -0.017839728 0.2606482 -0.22131751 -0.11225006 0.4273773 -0.30310705 -0.1063681 0.4417953 0.23203552 -0.17426273 -0.20333171 -0.02202805 -0.03764751 -0.038400333 -0.1818301 -0.05554481
472 0.0819473 -0.14011848 0.25201318 -0.156671 -0.021632656 -0.05964121 -0.18290162 0.055966903 -0.38427508 -0.10661409 0.16835375 -0.23125765 0.13642173 -0.011774992 -0.012045568 0.09616327 0.015366692 -0.2706493 0.20414774 0.018072717 0.034776326 0.0778991 0.11647308 0.20390153 -0.16423105 0.061612967 -0.050359566 0.016174788 0.16676128 0.050212715 -0.021551855 0.046540894 -0.05958697 0.13018301 -0.029404411 0.22059017 -0.2086243 -0.03216912 0.038572453 0.08199675 0.05080632 -0.07222612 -0.06013055 -0.06907473 -0.009373218 0.09640655 -0.12468236 0.15305501 0.16790311 -0.06935503 0.008157086 0.14492062 0.2194009 -0.01910223 -0.103103004 0.205293 -0.24589372 -0.23064402 0.048262473 0.18401286 0.073018685 0.10135782 -0.03223465 -0.17657448 0.25330815 0.0983677 -0.025381291 0.05711525 -0.14410955 -0.16352627 -0.07791779 0.12548415 0.08975999 0.28264636 -0.16777916 0.062003862 0.14092734 -0.010827003 0.10933564 -0.03226321 -0.12696391 0.17355713 -0.107734896 -0.047319066 -0.07613548 -0.12327555 0.02506039 0.053108033 0.072288185 0.15377559 -0.07908984 0.049217593 -0.047688592 0.12865129 -0.05673113 -9.440671e-05 0.024261417 -0.18742612 0.09283783 0.035346586 -0.008557224 -0.011976721 -0.040190637 0.17879093 -0.08376793 -0.12874228 0.010458153 0.039082613 0.051149733 0.19344868 0.122067824 0.023589015 -0.037202056 -0.009933492 -0.17145407 -0.26735035 -0.25430712 -0.033975743 0.07502516 -0.102482356 0.28699416 0.0011776293 0.16141227 0.10664598 0.1554778 -0.014864552 0.06525695 0.119008884 -0.0029175675 -0.27892825 -0.16287325 -0.014932091 -0.074152395 -0.09062968 -0.10582076 0.02259301 0.022299832 0.094579555 0.17123444 0.034361128 -0.18818387 -0.2528474 -0.18498144 0.06210657 -0.20010468 -0.14862336 -0.22267154 0.3910165 -0.10318265 -0.056299057 -0.1887185 -0.069055416 0.26054016 -0.36965048 -0.061284352 -0.116138354 -0.09984545 -0.3117368 0.2086174 -0.15185666 -0.031530533 -0.08702549 0.087369554 -0.15827635 -0.0041483976 -0.33667323 -0.13024035 -0.15421452 0.11316653 -0.19802961 -0.26408505 -0.10838554 0.15009338 0.05713141 -0.14449564 -0.123129256 0.06551369 -0.17584912 0.13661036 0.079423815 -0.17826444 0.019780187 0.06348758 0.110321954 0.025425024 -0.118793055 -0.09603882 -0.09178557 -0.33650059 0.09486487 -0.0033363583 -0.19341692 0.22431768 -0.18540366 -0.032395504 0.051184896 -0.1051745 0.11256323 -0.09811387 -0.124409236 -0.04375017 -0.07541789 -0.28363544 -0.07959229 0.599991 0.070042 0.16734676 -0.1890358 0.15926757 -0.10460436 0.42773682 -0.14911413 0.19169673 0.019770533 -0.05117549 -0.20810926 0.029096346 -0.19853853 0.23582225 0.009861829 -0.30480075 0.116658054 -0.07899266 -0.0052041947 0.27424544 0.5080585 0.089877225 0.061320458 -0.07519762 0.1831915 0.39733773 0.28026173 0.047325075 0.2023095 -0.22968972 0.33100253 0.38781825 0.27644357 0.031369872 -0.057510927 0.15419497 0.22500712 -0.269864 -0.055895083 0.3057012 -0.2186433 -0.114736885 0.44650835 0.101724036 -0.035054933 -0.12083888 0.084269844 -0.034138836 0.059334062 -0.2968715 0.0066905287
124 0.018259095 -0.1416852 0.22064221 -0.20406488 0.0997898 -0.057524614 -0.13284373 0.035744816 -0.37168977 -0.0030181138 0.18806756 -0.23736511 0.091213994 0.05687131 0.0338237 0.078453995 -0.012671761 -0.2616181 0.18977508 0.049569443 0.09048126 0.10332489 0.19877966 0.16794038 -0.20935863 0.13891996 -0.008283815 -0.06692493 0.20370696 0.030401124 0.027158363 0.027169295 -0.06760904 0.060616646 0.013624699 0.25914028 -0.24148458 0.035775956 -0.036986988 0.08794593 0.0066863983 -0.07632218 -0.008983188 -0.039536063 -0.09139227 0.12352425 -0.099193186 0.12679702 0.23432936 -0.024225194 0.047357146 0.08657682 0.21038833 0.047018994 -0.111567155 0.20763096 -0.257551 -0.14770956 0.009552006 0.19755073 0.016830184 0.005245301 -0.07944001 -0.20447375 0.23097242 0.068617016 -0.060454283 0.046837237 -0.17338637 -0.18511426 -0.046738584 0.057251696 0.086064965 0.30424997 -0.119111724 0.08898799 0.06456454 0.08249061 0.17585294 -0.03220306 -0.03200104 0.11292261 -0.1118328 -0.064034075 -0.05848227 -0.13799088 -0.03593023 0.07431726 0.034780648 0.09782481 -0.07823518 0.09347778 -0.06977532 0.12945274 -0.045643497 -0.015482046 0.04133753 -0.18336509 0.021265043 0.0065769157 0.016827364 -0.019068414 -0.083578505 0.13536249 0.011857035 -0.13225208 0.061850682 0.0345621 0.015754813 0.16807073 0.090262175 0.016881367 -0.09261803 0.029706355 -0.17891584 -0.23948793 -0.2838287 -0.07598925 0.07154167 -0.13448669 0.2656463 -0.02478846 0.1950245 -0.008559999 0.11526239 -0.020747041 0.109423116 0.12681387 -0.04299581 -0.34020215 -0.24125198 0.024768151 0.016598208 -0.16469446 -0.07889674 -0.032016702 0.012056107 0.07267057 0.14474472 0.10905088 -0.15537159 -0.2358199 -0.24122176 0.066948146 -0.18311672 -0.19275798 -0.24732566 0.47784016 -0.13342178 -0.062709324 -0.15778819 -0.0204159 0.22146028 -0.3245165 -0.08949154 -0.034607794 -0.09606093 -0.31848785 0.17594463 -0.15304008 -0.115574665 -0.123861045 0.09039279 -0.15594855 0.071095005 -0.3228167 -0.1338132 -0.09748806 0.06147137 -0.1885589 -0.2418625 -0.04369158 0.11205976 0.06010368 -0.06424138 -0.093765594 0.06888148 -0.22142322 0.05455483 0.03704593 -0.16687612 0.0282691 0.06387832 0.119526654 -0.018520707 -0.1767882 -0.051779218 -0.072147645 -0.37887055 0.07635024 -0.013297735 -0.24817236 0.21593146 -0.13895217 -0.0091756005 0.07920911 -0.1065067 0.12131768 -0.041414745 -0.17555612 -0.07317141 -0.05748212 -0.24828415 -0.01990658 0.50467145 0.008525595 0.09485915 -0.21131858 0.20023453 -0.154234 0.3842797 -0.11253584 0.19619273 0.023958374 -0.05203316 -0.2856369 0.02064346 -0.11917626 0.17836043 -0.025005404 -0.27709582 0.1580599 -0.07172983 -0.10460352 0.30203986 0.48130393 0.06918441 0.039630346 -0.07576389 0.18494295 0.48738915 0.23978171 -0.0020377068 0.19416645 -0.18978325 0.2903381 0.37160334 0.24087398 0.07591264 -0.054627366 0.1929389 0.25166243 -0.28134528 -0.10211256 0.32961622 -0.3304872 -0.1019002 0.55045897 0.15983734 -0.12952454 -0.11287184 0.061495665 -0.09810193 0.051550526 -0.30846816 0.031715404
653 -0.031836066 -0.017824246 0.09137719 -0.19637601 -0.29771048 -0.27716628 0.100590155 0.121308334 -0.052859362 -0.013792376 0.25499284 -0.22019884 0.117766656 -0.050249808 0.11738513 0.19506319 0.038594034 -0.18662193 -0.020973032 0.27262774 -0.074432 0.18467917 0.18864825 -0.055502187 0.12739567 0.032908868 0.18696778 0.050212532 0.15518935 0.06615594 0.05942471 -0.006973122 0.026544122 0.1178 0.010506124 0.030715745 -0.20416196 -0.08617761 -0.2185865 -0.12111826 0.29755175 -0.24576773 0.11340398 -0.0070682345 0.18860379 -0.012569225 -0.21427076 0.12555528 0.0027600613 -0.0025316624 -0.34006247 0.09477322 0.049232516 -0.30367517 -0.14613032 0.21675296 0.078740604 -0.1294429 -0.093368724 0.2718789 -0.18942979 -0.058538467 -0.07874501 0.007987348 0.19057429 0.041446075 -0.12278316 -0.036663342 0.041932598 -0.009436265 0.17944254 0.07092647 0.18934745 0.09475987 0.16113363 -0.18083876 0.06435569 -0.055268794 0.09255522 -0.23732181 -0.12809436 -0.073866114 -0.17033345 -0.0069922614 -0.01802277 -0.17303964 0.04912923 0.080645986 -0.025154067 -0.09630668 -0.096580446 0.0055444525 -0.11801795 -0.1103924 -0.011985742 0.03143925 0.042259842 -0.15084036 0.0045348676 0.07904595 0.23245469 -0.1657513 -0.014544777 -0.12238024 -0.092409045 -0.22685297 0.05886431 0.15999779 -0.02746782 0.0055034305 -0.06526669 0.16330214 -0.07289704 -0.14264706 0.2034823 -0.0002733929 -0.2532454 0.087716125 -0.037753236 0.24797821 0.37687272 -0.17852767 0.13249117 0.1687489 -0.1182626 -0.03232568 0.29985043 0.05066187 -0.1908624 0.09089191 0.24216492 0.050217856 0.029786356 -0.073313236 -0.13768332 -0.1376267 -0.17531398 0.029053716 0.15414813 -0.0040280446 -0.010216703 -0.13683857 -0.046250913 0.0755802 -0.06949043 0.0545971 -0.334402 0.13532312 -0.09463805 0.11315216 0.19036396 0.26132146 0.121187426 -0.040661324 -0.18250686 0.08358699 0.14051977 0.041745055 -0.09280879 -0.13397023 0.004765786 -0.23940893 -0.11648116 -0.10511321 0.11724793 -0.23878075 -0.13547969 -0.08825877 -0.2462597 0.019766629 0.026189124 0.12201696 0.13781185 -0.092174366 0.1592151 -0.15334134 -0.05679017 -0.013850825 0.094199546 -0.29343933 -0.27335796 0.05965951 0.12886457 -0.107950196 0.16671063 0.36826625 -0.22668293 0.124326386 0.06863587 0.036970343 -0.34159386 -0.18567371 -0.18610762 0.063211195 -0.17570356 -0.04286202 0.1269958 0.2529682 0.024022346 -0.0857007 0.13700645 -0.010519047 -0.09483904 -0.022086432 0.25901482 -0.09798961 0.11235618 -0.19278283 0.26410422 0.01931673 -0.14593661 -0.12012811 0.5051479 0.03157596 -0.11916365 0.14436382 0.009124249 -0.2330897 0.004081726 -0.05954634 -0.030146142 0.011505061 -0.20810474 -0.38417026 0.31983188 0.10154363 -0.08156044 0.47186297 0.14689443 -0.40636027 0.079622425 -0.045646 -0.19379179 0.03767587 -0.43652576 0.039808474 0.46474475 0.46932507 -0.033043213 -0.02570326 0.037867118 -0.10691715 -0.098921016 -0.31380877 0.3445966 -0.13093106 0.020201465 0.22424711 -0.033160564 -0.26156574 0.08894972 -0.16285808 0.025297416 -0.048750628 -0.118331484 -0.08708093
677 0.022756783 -0.07358431 0.17094612 -0.11892222 -0.04681533 -0.12233452 -0.08509318 0.05125032 -0.30023307 -0.22219247 0.10934721 -0.14050798 0.020434236 0.07907592 0.029523969 0.0597391 -0.021189097 -0.23753773 0.117842175 -0.057479948 -0.033422086 -0.0017639218 0.22130428 0.19728556 -0.12311294 0.11407591 -0.021294868 0.12210045 0.2342941 0.023579028 -0.0029351877 0.04102784 -0.019586323 0.056085452 -0.025124125 0.21430254 -0.29545426 0.06965597 0.027852802 0.010304515 -0.031631265 0.005565946 -0.060624145 -0.058350723 -0.035906885 0.11488337 -0.19776551 0.03432651 0.24905469 -0.08498589 -0.088949576 0.065102585 0.24088366 0.044840973 -0.02959781 0.18681899 -0.23004965 -0.19164018 0.011595449 0.10335252 -0.008183925 0.14788008 -0.080740854 -0.11601115 0.12781638 0.030881539 -0.20076871 0.052716043 -0.21283105 -0.16340788 -0.00060700334 0.051941596 0.25981843 0.2214555 -0.061787993 0.055119008 0.18625306 0.061341256 0.16551353 -0.0051974985 -0.17173909 0.14462397 -0.044279456 -0.053579856 -0.12595674 -0.08448108 -0.026413452 -0.02900333 0.11486863 0.093559794 0.010504945 0.036835574 -0.05484297 0.05659298 0.02441582 -0.042614438 0.011071146 -0.16538545 0.11002006 -0.0050339536 0.05492723 0.026371827 0.0824006 0.055007074 0.050097216 -0.20417534 0.012124932 -0.006106856 0.003126124 0.16311428 0.1813776 0.021181563 -0.11020468 0.0031533425 -0.2918266 -0.40931344 -0.21282527 -0.15355177 0.06559965 -0.08279198 0.29308897 -0.10522089 0.14705217 -0.057547916 0.18303396 -0.115050316 0.0471859 0.13743444 -0.118270256 -0.13803299 -0.1517786 -0.14532904 -0.0030799492 0.11320619 -0.09598733 0.0044803675 0.14035575 0.110535376 0.11538835 0.049719144 -0.21250194 -0.25883296 -0.25362802 -0.11241355 -0.11522005 -0.24105312 -0.20007713 0.37528235 -0.14011101 -0.107558966 -0.029075537 -0.20066954 0.25665128 -0.35751137 -0.13675182 -0.094926685 -0.06921536 -0.30987155 0.26666966 -0.056944188 -0.043709096 -0.03148499 0.27097753 -0.16102795 -0.042256694 -0.24515414 -0.09577684 -0.15360239 0.018672511 -0.15309834 -0.28670105 -0.06314632 0.04918098 0.06863434 -0.1806725 -0.14649539 0.064916186 -0.25150263 0.061130755 -0.021284493 -0.23482905 0.0030642434 -0.02203428 0.13801381 0.02816199 -0.024093913 -0.15806873 -0.14450346 -0.25237542 0.08019298 -0.037736125 -0.12928884 0.2754903 -0.10151666 -0.08112685 0.05540308 -0.12876996 0.22559135 -0.21853085 -0.0075742323 0.06535691 0.049752824 -0.27544594 -0.01982768 0.61122197 -0.057522293 0.049361054 -0.29099908 0.28603294 -0.10366508 0.47939023 -0.14508434 0.26232412 0.08020745 -0.08265737 -0.25706595 0.09270029 -0.13439332 0.14569043 -0.123590186 -0.29361847 0.07699869 -0.09549551 -0.14632097 0.2384651 0.46594292 0.058031738 0.008004375 -0.02583623 0.32034716 0.4210791 0.33096004 -0.04624717 0.19695708 -0.17232943 0.2669984 0.39155695 0.3333028 0.10369764 0.02652976 0.08507119 0.22213918 -0.06594059 -0.08589079 0.2507557 -0.24253564 -0.120004274 0.4422474 0.1901749 -0.090636574 -0.15740691 0.026695734 -0.0704842 -0.050234027 -0.21082303 -0.13529082
837 -0.12733229 -0.082973264 0.22295219 -0.1424797 0.084012985 -0.17023373 -0.06976476 0.079948924 -0.3583644 -0.20906846 0.007951015 -0.12309221 0.07307005 0.0030752257 -0.031421117 0.15374213 0.02094134 -0.1438723 0.20417574 -0.09219368 0.036669277 0.022082306 0.10890457 0.16646087 -0.080718115 0.21395543 0.14697108 0.09114335 0.19371435 -0.07143881 0.018370636 0.06599454 -0.08533775 0.015964696 -0.016398791 0.16886313 -0.22206889 0.08582715 0.08817571 -0.021865034 -0.021968108 -0.056984417 -0.0140597345 0.01780416 -0.023002293 0.06975991 -0.0913339 0.15725069 0.25611416 -0.05564635 0.08490827 0.08130478 0.30522284 0.07011322 -0.050354782 0.21516979 -0.2379736 -0.16549803 0.082044855 0.1900578 -0.067745544 0.10888836 -0.015311835 -0.20396094 0.22474691 0.038443558 -0.034418743 0.092451856 -0.07693984 -0.1657092 -0.14749274 0.036756493 0.12569334 0.1855949 -0.13455935 0.087396815 0.12133568 -0.01841154 0.053255346 -0.08193065 -0.095437124 0.28250498 -0.18839946 -0.1330499 -0.08026776 -0.101547256 0.10720184 0.11112267 0.20147559 0.103909805 -0.15442377 0.009967656 -0.058647964 0.068066135 0.04967964 -0.004029035 -0.02189957 -0.2409256 0.06537523 0.028348848 0.0065725255 -0.014845422 0.006845961 0.124952585 -0.13315235 -0.17066038 0.06812849 0.072620675 0.05068424 0.1446563 0.039044484 0.045147285 -0.028574618 -0.03258474 -0.2794389 -0.21040389 -0.17548645 -0.041084323 0.007593812 -0.08503653 0.33356133 -0.028572755 0.193311 0.14805314 0.18381292 -0.13632034 0.042752553 0.2848219 -0.02446368 -0.23644465 -0.15069306 -0.06963518 -0.004650345 -0.09661827 -0.10392983 -0.096675344 0.0738034 0.089778915 0.11641674 -0.02800101 -0.18252969 -0.33109683 -0.30868462 0.02156011 -0.18669347 -0.1929787 -0.15254664 0.41435584 -0.12545006 -0.14980222 -0.05054331 -0.028587334 0.16658081 -0.51361734 -0.1587342 -0.06486342 -0.013348832 -0.3177447 0.14766066 -0.14696918 0.020097923 -0.10254287 0.11951202 -0.08361884 -0.0052240645 -0.32276428 -0.031857565 -0.1786258 -0.039632745 -0.22272228 -0.30586025 -0.1639986 0.14917885 -0.013954692 -0.108317845 -0.13480386 0.038353667 -0.28377068 -0.015345304 0.09344802 -0.15681352 -0.05231873 -0.026291901 0.14990643 0.02942105 -0.06301596 -0.15265158 -0.076452486 -0.17114966 0.01035323 0.026420815 -0.16644768 0.31212154 -0.0059627476 -0.02962453 -0.03981981 -0.09413648 0.03548912 -0.12452653 -0.109232746 0.020219764 0.13714749 -0.31753543 -0.06970612 0.6163932 -0.084090695 0.113005616 -0.31606334 0.21372154 -0.039422583 0.4844123 -0.19379795 0.18589468 0.16238491 -0.053841677 -0.14541389 0.117679946 -0.116505675 0.13506393 -0.13162711 -0.30025125 0.12317459 -0.0873662 -0.08302227 0.2925939 0.40026036 0.18848081 0.010936039 -0.10380982 0.21941027 0.4141699 0.25688508 0.019770272 0.2070353 -0.23105684 0.29487807 0.4049544 0.30905783 0.1942861 0.010530047 0.21433382 0.19884147 -0.25454324 -0.19024941 0.25724003 -0.24086721 -0.107235655 0.3659516 0.13380115 -0.15280694 -0.18727146 -0.010672544 -0.019387761 -0.011747768 -0.29423866 0.04516172
90 -0.009046189 0.004321482 0.06284122 -0.21929014 -0.31405562 -0.34103596 0.10853512 0.19473404 -0.103623375 -0.027176198 0.20258936 -0.16567485 0.11743881 -0.07089702 0.1441873 0.17549159 0.033639222 -0.11271403 -0.008189143 0.26023403 -0.044049203 0.17524216 0.12081345 -0.015354975 0.14601873 -0.0053789224 0.20038158 0.01648631 0.13889313 0.08028039 0.05195707 -0.0054095453 0.0968795 0.16131358 0.0076095825 -0.023053737 -0.20131055 -0.111518644 -0.1473906 -0.12610984 0.2603091 -0.3455866 0.11615827 -0.008931982 0.13906863 -0.023403663 -0.18621391 0.20595281 0.0011267377 -0.009820705 -0.3490572 0.07179175 0.09672109 -0.30412102 -0.0784837 0.20212695 0.14757691 -0.16747881 -0.07191483 0.26305223 -0.161195 0.011627822 -0.11426538 0.06583124 0.12832408 0.013095521 -0.093335286 -0.03598911 -0.01720597 -0.005206125 0.16029383 0.097180635 0.20996386 0.12256739 0.13741317 -0.21918255 0.06113825 -0.044187974 0.10582217 -0.2964956 -0.11961775 -0.113996886 -0.14537135 -0.053813435 -0.063023314 -0.16710281 0.04523778 0.038539093 0.0023820084 -0.03374975 -0.1073087 0.07349342 -0.13756676 -0.07975749 -0.0881471 0.03534361 0.08136924 -0.20193116 -0.017295314 0.039046474 0.20370083 -0.12926765 0.001608769 -0.1494602 -0.034928225 -0.17913027 -0.020629909 0.2216437 -0.092195615 -0.09863477 -0.06935518 0.20499109 -0.11138631 -0.13965286 0.23106939 -0.060474798 -0.2109947 0.015942656 -0.06341185 0.24437279 0.34476054 -0.16777359 0.14393443 0.16387093 -0.122915946 -0.006729298 0.31307712 0.15462108 -0.1551546 0.1405922 0.19462194 0.005563088 -0.026125772 -0.053095855 -0.007929569 -0.0584047 -0.120433375 0.061966114 0.15887947 -0.070577115 0.0080142105 -0.102152266 -0.057227608 -0.06358031 -0.02865369 0.08181978 -0.36274657 0.121962644 -0.023446577 0.06462701 0.21873572 0.25874454 0.14338781 -0.05366694 -0.13822778 0.09959965 0.13391875 0.09713294 -0.10076457 -0.14275359 -0.014907726 -0.2470571 -0.10163024 -0.048799384 0.17718638 -0.27642107 -0.100967884 -0.009942303 -0.27193654 -0.006506693 0.04521747 0.12498591 0.12540723 -0.0076341615 0.15448579 -0.107813925 -0.031757124 -0.05160348 0.08656189 -0.29079854 -0.24085179 0.06110981 0.09424616 -0.033365756 0.19858325 0.3260209 -0.21829535 0.109289795 0.10274164 0.058936898 -0.31078386 -0.1622207 -0.17041606 0.03909107 -0.07737794 -0.020494664 0.108569965 0.33629644 0.012046502 -0.12008829 0.17836669 0.0057092924 -0.12731263 -0.013257723 0.28674358 -0.114961214 0.11906589 -0.10135594 0.3091981 0.019975565 -0.13163425 -0.10946894 0.4984562 0.067785814 -0.090397574 0.12783293 -0.060593408 -0.22706531 0.023066416 -0.001567163 -0.008470484 0.017233822 -0.1425818 -0.36409596 0.27204725 0.15225498 -0.087147474 0.5086451 0.1632598 -0.36172456 0.04958461 0.03743583 -0.20651455 0.0774375 -0.4538375 0.025803084 0.48443294 0.41805282 -0.056269333 -0.035829876 0.061550304 -0.1319571 -0.05175706 -0.30132303 0.34271756 -0.14995393 0.0028328893 0.24633558 0.011585761 -0.28765896 0.08335924 -0.13634366 0.044115197 -0.054777775 -0.15495749 -0.15106775
486 0.13647196 -0.03695897 0.23030369 -0.17145711 0.12505311 -0.116691925 -0.14554581 0.05975726 -0.3359769 -0.007446645 0.1794937 -0.21978298 0.15550801 0.14651193 0.009039573 0.1810069 -0.0071678516 -0.25646076 0.23074368 -0.010491217 0.10062312 0.10262786 0.18038005 0.12768364 -0.16055511 0.2024181 -0.027440164 -0.014124902 0.18253353 0.01405914 -0.0062120305 0.02617378 -0.11359371 0.055290986 0.000783011 0.28024855 -0.2673356 -0.055030733 0.0077680587 0.057895686 0.0066348794 0.007680205 -0.010480001 -0.027844496 -0.0664747 0.13050766 -0.10592512 0.11683566 0.20893194 0.025004901 0.035080917 0.08385249 0.1646043 0.07226871 -0.09555452 0.24426588 -0.23453759 -0.16121939 0.057383277 0.21201405 0.04468703 0.056019094 -0.02637568 -0.23976746 0.21644655 0.02223034 -0.054416936 0.010868212 -0.1619392 -0.22161497 -0.06258293 0.04189152 0.13696873 0.27255297 -0.08262448 0.018062918 0.06987186 0.12380829 0.105629325 -0.015951844 -0.06639574 0.046336662 -0.14801678 -0.04130587 -0.09172446 -0.12284007 -0.035774358 0.07105207 0.07170677 0.07677444 -0.09497494 0.056588516 -0.03873969 0.13451748 -0.057404116 -0.0034596366 -0.012781046 -0.19810894 0.13065474 0.0083936155 0.042757496 -0.025363863 -0.034167815 0.15091926 -0.027895892 -0.17504993 -0.01830376 0.04153307 -0.003044771 0.20805866 0.0050529186 0.045798883 -0.067350596 0.027832747 -0.14857824 -0.28312343 -0.19495507 -0.064581595 0.08298432 -0.13890915 0.23825248 -0.013797329 0.17009158 0.03183345 0.101169534 -0.052294865 0.045183156 0.12505549 -0.03227714 -0.27670375 -0.28780475 -0.058563184 0.12674929 -0.15755646 -0.09734044 -0.037164308 -0.0395276 0.099131115 0.1587931 0.14452487 -0.081636935 -0.30231887 -0.26037988 0.0981857 -0.13247152 -0.17586261 -0.13730566 0.39032865 -0.122956604 -0.019674903 -0.2215638 -0.0054468703 0.23343274 -0.30695948 -0.10404757 -0.09569966 -0.13092609 -0.29707655 0.18939564 -0.124449566 -0.1181789 -0.1549184 0.057416085 -0.10013453 -0.026963828 -0.28069142 -0.17531921 -0.122634046 0.017916761 -0.14741261 -0.26897332 -0.13251063 0.11916237 0.058743104 -0.1520832 -0.0960136 -0.032657553 -0.22008921 0.080938436 0.040458996 -0.20469908 0.08516899 0.045302782 0.012238658 0.0593168 -0.16964023 -0.1297712 -0.101813294 -0.33602002 0.06377279 -0.009965065 -0.22306648 0.24486682 -0.15933315 -0.088202044 0.09258378 -0.07748058 0.15117018 -0.05115233 -0.18070349 -0.048395753 -0.094657555 -0.32000414 -0.017386412 0.54016817 -0.005308438 0.1240528 -0.2795299 0.19659212 -0.13153774 0.44089487 -0.16384734 0.19520457 0.002340635 -0.06119095 -0.289155 0.008015502 -0.14969918 0.18959393 -0.017108817 -0.23564593 0.15412202 -0.03411536 0.001977669 0.24282146 0.42910546 0.08989258 0.013904851 -0.03798224 0.14314164 0.4926437 0.24338274 0.013020875 0.21917912 -0.1701379 0.2897186 0.45270303 0.25800356 0.0946197 -0.120143324 0.2431483 0.19830324 -0.27644962 -0.07129811 0.3771484 -0.28482246 -0.124104016 0.5228087 0.16611451 -0.12226027 -0.04400644 0.024488403 -0.04456478 0.09285551 -0.37122437 0.0027708884
780 -0.012702938 0.049164172 0.19552256 -0.042837996 0.10868749 -0.17963472 -0.11774302 0.014711246 -0.32661828 -0.13307215 0.20725548 -0.31032062 0.10929272 0.23881236 -0.027887775 0.16793333 0.028995028 -0.18746662 0.11591555 0.016968006 -0.118006766 0.16402319 0.12611316 0.20151272 -0.08653929 0.26207587 0.08789465 -0.022072881 0.05747521 0.0466245 0.021251477 0.03342902 -0.045699373 -0.105946854 0.09587702 0.38042012 -0.26543084 0.023406545 0.039611116 -0.01235688 -0.056382228 -0.08360741 -0.0653284 -0.13935357 0.05405136 0.015983481 -0.16647929 0.05801262 0.21993013 0.018967481 0.07429889 0.10518375 0.15802015 0.10543677 -0.032100156 0.1126659 -0.21437123 -0.13859443 0.10373723 0.15828845 0.048728257 0.12220502 -0.07967258 -0.21829243 0.122697994 -0.042339664 -0.008810931 0.03306926 -0.12217929 -0.21412295 -0.07848095 0.10799943 0.28834915 0.2192652 -0.1382547 0.08719519 0.10113116 -0.034973267 0.18044177 0.04256882 -0.13720015 0.032906216 -0.10161807 -0.27270785 -0.21592131 -0.115442075 -0.12504975 0.09328045 0.18473628 0.22755678 -0.21074367 -0.021505188 -0.034740023 0.18890703 -0.009573579 0.090230025 0.00794561 -0.22743036 0.12515971 -0.061583575 0.117772624 -0.05435675 -0.019436168 0.023285858 0.027313894 -0.02433343 0.039497916 -0.054962847 0.029213125 0.2537662 0.11478313 -0.05517351 -0.038227174 -0.0489682 -0.23917839 -0.286618 -0.06417339 -0.17405057 -0.012586238 -0.04717278 0.2720364 -0.026356202 0.1781214 0.03665735 0.040305905 -0.019558096 0.027655253 0.1916565 -0.026570283 -0.3087352 -0.18811211 -0.06543963 0.099884816 0.09583696 -0.09517605 -0.20651297 -0.015275317 0.1428416 0.0007100184 0.14772227 -0.1077425 -0.17562445 -0.21967097 0.031941283 -0.12556598 -0.107407235 -0.26029146 0.41082835 -0.051970758 -0.084302306 0.031702206 -0.2393277 0.2563403 -0.27073732 -0.13802662 -0.04162726 -0.22715597 -0.39348024 0.1317248 0.022468159 -0.061750844 -0.05724323 0.18557458 -0.10768197 0.017211268 -0.38789603 -0.07436961 -0.17874217 0.12510729 -0.23415723 -0.29489806 -0.17729504 0.11817619 0.052260228 -0.30037737 -0.18100405 0.19010341 -0.086766884 0.006819004 0.014061442 -0.12897179 0.10921247 -0.048865497 0.17668496 0.033557687 -0.11200139 -0.046556894 -0.05729594 -0.23003629 -0.0261285 -0.056598116 -0.17247051 0.29198 -0.13758272 -0.039165493 0.049816333 -0.21526125 0.27216348 -0.21001609 -0.17428882 0.054890517 0.054763716 -0.348757 -0.012037642 0.43044254 0.16260886 0.07911464 -0.22584379 0.29119533 -0.09168902 0.46407267 -0.22487944 0.30808803 0.090092726 -0.06951898 -0.19440031 0.020949125 -0.08213669 0.25924486 -0.037556738 -0.22529015 0.20881584 -0.012389686 -0.13713522 0.24741156 0.38929 0.11063412 -0.05135886 -0.031320658 0.17088369 0.46191898 0.33421987 -0.057904106 0.21139723 -0.24494742 0.21514837 0.37078184 0.49114683 0.06790379 -0.01056688 0.1028479 0.3205822 -0.165638 -0.023546755 0.29422805 -0.20039813 -0.10521118 0.48563516 0.061871096 0.10949779 -0.11042898 0.0617895 -0.032790955 0.12608877 -0.2026441 -0.057887115
512 0.039495345 -0.10419937 0.19380945 -0.18766093 0.080862485 -0.11149516 -0.10370929 0.04675025 -0.37120184 -0.1166659 0.07420527 -0.2524352 0.021148743 0.11171947 0.0057676206 0.114890665 -0.014798987 -0.23351225 0.2012924 -0.08876753 0.080237135 0.12083378 0.13161877 0.1566711 -0.03687734 0.19548683 0.040881064 0.089639075 0.16688898 0.016831547 0.01479791 0.024915455 -0.091787666 0.0067928107 -0.019837549 0.24862142 -0.3101111 0.028792229 -0.004809882 -0.02184092 -0.053854983 -0.045285977 0.014158869 -0.013213183 -0.059333727 0.08334067 -0.056629747 0.1553006 0.26660708 -0.04168208 -0.015247123 0.06074065 0.21570551 0.09701444 0.029160438 0.22236101 -0.25019488 -0.19221793 -0.049136546 0.10356943 0.035595767 0.04074439 -0.045154925 -0.23149025 0.253723 -0.017963866 -0.09124287 -0.037704427 -0.13715447 -0.17559366 -0.03993046 0.10014818 0.11271399 0.19715567 -0.20267203 0.14360276 0.018183459 0.07499611 0.19462265 -0.07630759 -0.07606882 0.061510846 -0.11725699 -0.06066154 -0.10506303 -0.10382677 -0.078565374 -0.001528321 0.07669187 0.1637625 -0.18758449 -0.039434087 -0.00903922 0.06977726 -0.04259565 0.011127691 -0.028469635 -0.20899265 0.12406356 -0.0024771686 0.06510372 0.00823759 0.009604561 0.082880765 -0.082491525 -0.08376568 0.039504323 -0.0521296 -0.056027427 0.12964194 0.16204329 0.041333307 -0.09962619 -0.0038086772 -0.19899029 -0.23986933 -0.15518098 -0.13858704 0.11742163 -0.047105316 0.2803234 -0.07286065 0.22656608 0.036856983 0.008714255 -0.050992373 0.08418887 0.15949754 -0.07249163 -0.2687759 -0.23165555 -0.013865092 0.06275572 -0.13129185 -0.08886085 -0.07839309 0.054779593 0.11464554 0.21141474 0.023807181 -0.10533994 -0.2597477 -0.2623683 0.026427139 -0.1357507 -0.15565886 -0.17071407 0.43706983 -0.06214057 -0.07893963 -0.06691378 -0.08115269 0.25001916 -0.24670725 -0.12770995 -0.035851955 -0.14939958 -0.4253578 0.12217246 -0.05063315 -0.1656334 -0.11971657 0.16027236 -0.1515391 0.0008932544 -0.2924365 -0.11050053 -0.16159122 0.0023881271 -0.17600696 -0.23093605 -0.13549511 0.1199844 0.05352244 -0.14447366 -0.13936794 0.032976836 -0.15504812 0.041197762 0.11594855 -0.13337871 0.0072070668 0.08867411 0.16697468 0.020632198 -0.14713459 -0.098552 -0.08740548 -0.31242564 0.039748095 0.021819085 -0.14288647 0.27790713 -0.13039516 -0.102228776 0.08865238 -0.0835122 0.119031 -0.10272379 -0.14714186 -0.017092308 0.025604341 -0.29369238 -0.097717844 0.45896238 0.030825127 0.1872386 -0.29041502 0.276965 -0.031659327 0.39038733 -0.10441385 0.26595005 0.023165084 -0.055527274 -0.27201667 0.031669606 -0.08620993 0.1858264 -0.09335069 -0.22195658 0.2004727 -0.057060715 -0.12861152 0.32267755 0.5017233 0.0990034 0.021234272 -0.093385786 0.22656888 0.43565783 0.29920593 -0.09575227 0.22441317 -0.12419228 0.28917378 0.4948663 0.34468994 0.113334395 -0.056203667 0.0850083 0.20519336 -0.17619716 -0.12158898 0.29678795 -0.27184305 -0.10573388 0.5322567 0.20767453 -0.06512666 -0.0946469 0.034882076 -0.094890155 -0.0072325766 -0.24286936 -0.0029714536
709 -0.055773374 -0.101843864 0.2091044 -0.12616286 -0.050182022 -0.14524965 -0.115996785 0.013501743 -0.25279203 -0.1483298 0.01640839 -0.2231795 0.11703838 0.072905175 0.09933706 0.057365842 0.041472524 -0.19528522 0.043471325 -0.064848565 -0.06545282 0.04770382 0.10465734 0.0688187 -0.15037704 0.17527266 -0.0055919937 0.113902725 0.2612249 -0.042549912 0.10947692 0.019575372 -0.010274828 0.020977508 -0.011577211 0.2166268 -0.27835584 0.065398514 0.0867218 0.022314634 -0.081916176 -0.007170116 -0.04347674 -0.075840704 0.0046392744 0.15681139 -0.1360487 0.024608124 0.21136302 -0.121163495 -0.009664617 0.0825084 0.24481025 -0.02788728 -0.016241534 0.16756807 -0.20515455 -0.21163797 0.0056273555 0.16239549 0.07319874 0.113648966 -0.12688819 -0.17173839 0.14682429 0.071304254 -0.15604286 0.076621436 -0.16299412 -0.07726697 -0.048372358 0.031769883 0.13564298 0.18381567 -0.09865842 0.111559786 0.13334283 0.012325008 0.11349306 -0.05883591 -0.14610538 0.14078724 -0.07916058 -0.077027895 -0.16613491 -0.07100603 -0.06848362 0.04664446 0.16705073 0.15607162 -0.07052121 -0.011999582 -0.049262073 0.053473994 -0.087510355 -0.15673701 0.0069253175 -0.15460613 0.08635127 0.0755201 0.092031606 -0.067821726 0.05316066 0.14015618 -0.08230758 -0.14843658 -0.029353695 0.04242753 -0.016333837 0.1902114 0.1242818 -0.04629777 -0.08600538 -0.033593003 -0.20817871 -0.20647717 -0.2584995 -0.027999556 0.06925144 -0.12388489 0.35083354 0.0151725765 0.20344275 0.0599558 0.12654951 -0.042595074 0.102001674 0.1618829 -0.043472335 -0.17740054 -0.18117113 -0.035087645 -0.113458596 -0.066051625 -0.032271214 -0.02332926 0.1258284 0.032062907 0.1449567 -0.015938442 -0.13376693 -0.19072615 -0.23336373 0.04395219 -0.20043391 -0.18211049 -0.18490398 0.48653427 -0.17011277 -0.13332473 -0.08533845 -0.07346809 0.19178939 -0.4121451 -0.1240418 -0.103343025 -0.06113667 -0.31298727 0.1960272 -0.117802106 -0.13296412 -0.07110077 0.21394657 -0.1695874 0.06022535 -0.23390669 -0.21957192 -0.13858515 0.06523503 -0.2117814 -0.2697336 -0.11454996 0.14107789 0.052282788 -0.16080377 -0.22870019 0.0595241 -0.15769906 0.05068079 0.1791454 -0.16815771 -0.1481904 0.11546914 0.11606306 -0.023353707 -0.10273719 -0.2262827 -0.13775106 -0.21000978 0.15397678 0.05604566 -0.1411087 0.26561293 -0.122589014 -0.03467946 0.07102208 -0.09866118 0.11293996 -0.062451467 -0.04270186 0.04100441 0.0671492 -0.31079063 -0.11520877 0.52159655 0.05872153 0.14012085 -0.35671082 0.17314428 -0.080302335 0.44826168 -0.1547108 0.17778328 0.110696726 -0.1799879 -0.21469295 0.003221633 -0.20766357 0.1367304 -0.10483338 -0.26560295 0.22888163 -0.085095055 -0.11541792 0.27899402 0.56070757 0.10388704 0.04082185 -0.18003632 0.24565071 0.4015917 0.3136266 -0.059073366 0.18845172 -0.2151367 0.24398227 0.40096298 0.31468534 0.08686427 0.03860986 0.20205322 0.3027463 -0.24568999 -0.088342875 0.2846612 -0.23119903 -0.110230945 0.410146 0.21810405 -0.111891106 -0.15320772 0.07293135 -0.12413258 -0.062665656 -0.25291818 -0.02680219
81 -0.26029527 0.25038546 0.0372822 -0.18467644 -0.31710094 -0.16845132 0.13142332 0.079855874 -0.2500774 -0.11961342 -0.066451825 -0.121775314 0.33895686 0.22905013 0.05248324 0.13046183 -0.14867103 -0.018647164 -0.10842539 0.05650964 0.251517 0.12138252 0.32777527 0.11437643 0.07906275 -0.0046684467 0.22018191 -0.14307134 0.06419455 -0.01686113 0.034483418 -0.19113557 -0.047763847 0.10937918 -0.03265032 -0.06610618 -0.116581246 -0.24726841 -0.04613931 0.056630492 -0.0918413 -0.14878105 -0.11448386 -0.016132828 -0.041113 -0.124298744 0.058219373 0.00931958 -0.03091856 -0.10607342 0.038556255 -0.138704 0.28595737 -0.17775221 -0.030150343 -0.039629515 -0.038578507 -0.08780289 -0.26906595 0.21495475 0.0034391219 -0.2187231 -0.222783 -0.15489493 0.19662121 0.16969895 -0.1043325 -0.033377364 -0.25582916 -0.012284881 0.13170324 -0.040408887 0.2336891 0.13239604 0.105205946 -0.10370706 0.21925202 0.009221248 0.009698933 -0.22117685 -0.16215289 0.40449443 -0.21880467 0.2042885 -0.17833841 -0.13445267 -0.08815192 0.168493 -0.20013313 0.017352475 -0.33223334 0.07288146 -0.04579141 0.15801276 0.16890329 -0.14643146 0.08578615 -0.07268978 0.18663697 -0.0371864 0.07514184 -0.29163966 -0.026974006 0.020364225 -0.009273812 -0.18850213 0.1449824 0.2624154 0.238107 0.010347087 -0.049148798 -0.06594436 0.004672001 -0.25625566 0.12849824 0.04853858 -0.09917375 0.25822824 0.24639435 0.27180433 0.22118914 -0.105693236 0.14466919 -0.19014783 -0.17947221 -0.00088803616 0.10926004 -0.0745459 -0.105427615 0.06221963 -0.33605364 -0.21408728 0.09068252 0.032079276 -0.19836013 -0.18663307 -0.011645768 0.012121818 0.25108036 0.36675465 -0.094616555 -0.26021636 0.028429568 -0.05743381 -0.17931595 0.157282 -0.39772576 0.113718405 -0.007408289 -0.019765133 0.032803338 -0.12124263 -0.022816714 0.09707731 -0.09401799 0.14478336 0.02276901 0.060017254 0.03232157 0.10736938 -0.024098245 -0.28135118 -0.030213501 -0.09952656 0.13700178 -0.19413398 -0.3111035 -0.037793785 -0.23173267 0.023835272 -0.012632526 -0.09999252 0.34248286 0.27882993 -0.0027685263 0.18075618 -0.13115753 -0.06303723 0.21041475 -0.096951894 -0.22625436 0.047621693 -0.04099219 0.04201288 0.061947033 -0.01856282 -0.023814375 0.061657216 0.028078943 -0.010861635 -0.22393338 -0.07649166 0.0109863775 -0.019685727 -0.17689444 0.16231084 0.019994015 -0.0718485 0.16683184 -0.18525845 0.12290915 0.13060819 -0.02000935 0.06842779 0.01638597 -0.1278692 0.17192629 -0.09800581 0.24869396 0.08724856 -0.32861122 0.14153928 0.40422234 0.07538942 0.1448469 0.17146488 0.03761299 -0.100376524 -0.11659589 -0.030744495 0.12627582 -0.008129961 -0.012238604 -0.019578438 0.20672694 0.009572573 0.045226745 0.25637183 0.13189122 -0.10105691 -0.0045951754 -0.28938872 -0.24359848 0.06533506 -0.3456034 0.0680106 0.18636307 0.04135044 -0.16956036 0.0617759 0.06776145 -0.025414625 0.062011316 -0.048373148 -0.10153921 -0.0233982 -0.12734216 0.2644642 -0.0016390503 -0.04103726 -0.16266413 0.1336624 -0.018223653 -0.19300947 -0.104314454 -0.1147332
50 -0.11238934 0.002919429 0.28755444 -0.1198099 0.08719926 -0.16646147 -0.01714078 0.033223983 -0.37860695 -0.11868505 0.08504546 -0.24191391 0.10344602 0.076899864 0.056474503 0.14447886 -0.11337764 -0.20324941 0.059254635 0.00033058034 -0.037802193 0.10113537 0.20031188 0.11130805 0.033992562 0.18769383 -0.020327384 -0.022812512 0.18909666 0.1683582 0.058770757 -0.014705065 -0.082991935 -0.078647345 0.012767567 0.27966404 -0.30682436 0.063586414 0.03719932 0.13104784 0.020765742 -0.0043290714 -0.17031337 -0.08740985 -0.15533534 0.14656739 -0.07540859 0.047346245 0.16205734 -0.0048100105 0.057392616 0.00012847519 0.20704134 -0.011810622 0.036689654 0.19687364 -0.32597938 -0.1347171 -0.083046064 0.0073418035 0.03914703 0.009862466 -0.07529517 -0.12446309 0.3185382 0.041387457 -0.08777648 0.05468399 -0.13861413 -0.12354044 0.042488486 0.011496432 0.16939607 0.2079055 -0.29855448 0.05274572 0.085645184 -0.018255543 0.2215497 -0.090078875 -0.19845366 0.07122015 -0.041642196 -0.13928376 -0.19605918 -0.1004004 -0.03959389 0.0433547 0.018302903 0.15045764 -0.21801385 0.12825793 -0.121253476 0.12906379 0.031744547 0.14962792 -0.02749466 -0.2033332 0.1590044 0.043782935 -0.024313645 -0.08722118 -0.08546505 0.0661511 -0.0066394135 -0.21220411 -0.003121902 0.15421265 -0.10361167 0.07698207 0.1072004 -0.061437607 -0.20997226 0.0041034454 -0.20472951 -0.2404985 -0.2033677 -0.17322591 0.131669 -0.030294959 0.17289516 -0.036297392 0.27002135 0.0114355935 0.11207272 0.0346477 -0.04009101 0.16084313 -0.019692177 -0.20350675 -0.18585373 -0.003695588 -0.062051747 -0.054038454 -0.09360085 0.060674153 -0.063896775 0.060076434 0.14017953 -0.025475737 -0.05105678 -0.32649967 -0.24735355 -0.016395291 -0.13780794 -0.1944585 -0.019294294 0.41183773 -0.09330501 -0.10594273 -0.16206554 -0.056821853 0.16603535 -0.26234758 -0.07090598 0.0777839 -0.10961834 -0.5466028 0.16852541 -0.19580817 -0.108646944 0.019714225 0.14777169 -0.2437138 -0.05299364 -0.38328475 0.0016366997 -0.11782919 0.08258222 -0.14854196 -0.23700416 -0.083092034 0.09620582 -0.07078506 -0.10465965 -0.16756156 0.052249145 -0.1447168 0.018387156 -0.013941155 -0.10447288 0.091984496 0.026013514 0.07586398 -0.054349057 -0.15688199 -0.06809102 -0.110256165 -0.30225682 0.092740245 -0.01617389 -0.15146355 0.24083844 -0.18802682 -0.056035653 0.0854193 -0.06181537 0.058426395 -0.2381912 -0.21436302 -0.14117989 -0.079506435 -0.2705463 -0.011389066 0.48733458 0.12675299 0.06826181 -0.29440454 0.24351257 -0.022168545 0.24800704 -0.06294355 0.086722285 0.05247072 -0.116812244 -0.27107745 -0.047183447 -0.099354796 0.23376483 -0.106689036 -0.14484826 0.16184905 0.009853111 -0.06910543 0.13981779 0.57970136 0.1443032 0.006170697 -0.17661917 0.3090876 0.4660272 0.32613066 -0.06812575 0.21629456 -0.072146 0.25283632 0.47967193 0.27670676 0.050432615 0.0009356333 0.18401979 0.27193177 -0.17010032 -0.20534867 0.39499524 -0.24525584 -0.16868891 0.4223532 0.16933075 -0.225755 -0.16195406 -0.018173553 -0.106794976 -0.037567507 -0.2887377 0.04063504
