1000 128
144 0.24648845 -0.10760546 0.00049409224 -0.3278115 -0.34524494 -0.15803361 0.03362887 -0.110706024 0.19612648 0.0037386825 0.1990999 -0.2889017 -0.027658507 -0.05301272 -0.0057804054 -0.07526442 -0.0064686965 -0.16133937 0.054714058 0.048408873 -0.2695051 0.06336473 -0.031167122 0.28795102 -0.15609036 0.055883955 -0.1799684 -0.16170624 -0.0709886 0.05144836 -0.15919548 0.15428181 0.05710933 -0.16124263 0.09059042 -0.02036974 -0.09060756 -0.09339366 0.10582772 0.40038544 0.1257548 0.15961604 -0.029710641 -0.271184 -0.21109022 -0.14227551 -0.006002194 -0.025591109 -0.07000086 0.117509186 0.20742752 -0.16511422 -0.089373074 -0.09453265 -0.18889403 0.30396715 -0.23156795 0.27989396 -0.009163496 -0.46148983 0.0061684996 -0.38017398 -0.17589433 0.005732584 0.11308528 -0.4203429 -0.16086887 0.1107984 -0.050439883 -0.036311887 -0.3943614 -0.53093225 0.30234495 -0.04637667 0.12597516 -0.029598149 -0.30764598 -0.097098395 0.09682938 0.18895397 0.06657324 -0.0007113622 0.06317366 0.21031728 0.09490566 -0.094680116 -0.04324422 -0.08936629 0.0071663996 0.15686819 0.090110175 0.08687491 0.01870971 0.054324042 -0.033829764 0.09467994 -0.0012390694 -0.07062726 0.2582032 0.19059291 -0.12587203 -0.14446035 0.14861502 0.114065625 -0.27185625 -0.04849723 -0.19798212 0.027006308 -0.13392504 -0.17219304 0.097536385 0.14558622 0.06763833 -0.2962015 0.15694286 -0.1722515 -0.14105542 0.09680599 0.010750772 0.109173894 -0.19422287 -0.18627071 -0.061118275 -0.024746189 0.09924567 0.066009566 -0.15016021 0.11742263
933 0.099202834 -0.28962913 0.14469935 -0.34191802 -0.29700556 0.02785669 0.09657297 -0.27200845 -0.026630707 0.018394036 0.06042069 -0.21872267 -0.057791717 0.012847755 0.009915951 0.046788372 -0.117115095 -0.13055621 -0.019435521 0.07084288 -0.15838397 0.15062171 -0.0012844753 0.09120843 -0.038443904 -0.086677805 -0.08453202 -0.11837257 -0.044522256 0.25380102 -0.030595936 0.23827802 0.11777153 -0.17174612 0.009030442 0.11772212 -0.0020373738 -0.073160015 0.037616286 0.22893043 0.22862254 0.10249496 0.22157247 -0.30223355 -0.1832336 -0.20043868 0.11914405 0.10873181 -0.106381856 -0.12599202 0.04432794 -0.05656626 0.12588596 -0.1710829 -0.08748633 0.15684827 -0.020621918 0.23106673 -0.19298258 -0.20819865 -0.06402202 -0.3063336 -0.12135412 0.35147947 -0.087209694 -0.12666039 -0.109179355 -0.079471365 -0.09426493 -0.11502263 -0.46204954 -0.3797521 0.42459294 0.020788021 0.22128545 0.09246434 -0.42020455 0.0075961105 0.063155286 0.22840072 0.16788107 0.15285426 0.10925284 0.1664984 -0.0061873985 -0.14761533 -0.10089754 0.0017115646 -0.07033053 0.01092137 -0.17726314 0.21869683 -0.08359996 0.1207671 0.10070856 -0.067360386 -0.16018969 0.039530985 0.34832317 0.18977033 -0.08253747 -0.28442156 0.11378062 0.104147054 -0.17581248 0.024266401 -0.15129803 0.007139574 -0.14533143 0.012131615 0.08662657 -0.052213136 0.26625627 -0.3528177 -0.034499682 -0.2130802 -0.06672302 0.0148463715 -0.09240679 -0.06873432 -0.113995135 0.014288683 -0.15864478 -0.18404572 0.058471948 0.002531907 -0.16951394 0.0757888
545 0.16114213 -0.08732771 -0.021282908 -0.17654559 -0.20015836 -0.02653939 0.23137908 -0.15324111 -0.009318908 -0.092049606 0.0524954 -0.1917281 -0.20397237 0.05640837 -0.06398115 -0.009429398 0.07694197 -0.06947822 -0.11948585 0.058231417 -0.27627096 0.1919828 -0.123945236 0.05194288 0.09944463 -0.1300693 -0.3325253 -0.01906824 -0.15071383 0.006130043 -0.13546827 0.16757628 0.0010878023 -0.1515775 -0.06394647 -0.1491268 0.10241365 -0.26977292 -0.07611512 0.123346865 0.44755337 0.055277713 0.015892603 -0.33480293 -0.051930167 -0.06943946 0.1090987 -0.04725992 -0.12680759 -0.14259058 0.16253664 -0.1957963 -0.013695056 -0.0071132844 -0.35956225 0.06920212 -0.13375576 0.12100786 -0.041782968 -0.5348383 -0.18823016 -0.19781062 -0.009704244 0.13644935 -0.1541429 -0.2358949 -0.06914567 0.24125098 0.14804466 0.0060822004 -0.45069537 -0.3651647 0.31789988 0.019059697 -0.07126637 0.1181143 -0.42155054 -0.12226534 0.009968623 0.28849995 0.21366683 0.22769362 0.18083991 0.103975154 -0.12050078 -0.22988302 -0.11269288 0.1740923 -0.1020017 0.16226389 -0.114690706 -0.05407913 -0.15492931 0.10536695 0.079602495 0.01913284 -0.11402196 -0.03115707 0.1950795 0.19953951 0.004543279 -0.47958466 0.22705017 0.17775215 -0.07805087 -0.1921002 -0.3459283 -0.07403753 -0.24594396 0.036647208 0.006898125 0.008074185 0.09641133 -0.23867413 0.10858834 -0.058203224 0.08239993 0.049231123 -0.1479826 0.099361785 -0.1833239 0.0041468283 -0.014423532 0.13208629 0.12803335 0.11010985 -0.08025882 -0.10775423
838 0.2777639 -0.2905945 -0.002477235 -0.24071589 -0.30951336 -0.054613847 0.057704575 -0.118581645 0.07897686 -0.053944502 0.036211826 -0.18002602 -0.04567964 0.002194418 -0.13514476 -0.0035759707 -0.024638453 -0.21107559 -0.029855931 0.091980375 -0.30763713 0.10852329 -0.15441412 -0.08211475 -0.020940693 -0.077232964 -0.1589684 -0.19355285 -0.13617961 0.11270902 -0.09821204 0.10954977 0.04873096 -0.31273872 -0.037423562 0.03219973 -0.015014129 -0.11175523 0.05207955 0.17549598 0.020780213 0.11247671 0.22735684 -0.23328154 -0.031663988 -0.12859067 0.26043966 -0.17006989 -0.13535525 -0.20438027 0.099039525 -0.1820313 0.01892575 -0.0039634765 -0.17609498 0.2017588 -0.02883535 0.3012481 -0.2770956 -0.42416307 -0.10790028 -0.026825938 -0.1366461 0.210937 -0.023005847 -0.25690186 -0.04002104 -0.023063105 -0.13700321 0.10843567 -0.539864 -0.47915238 0.4087782 -0.104859024 0.011829198 -0.037986208 -0.3956248 0.02297198 0.29915738 0.3111604 0.24073957 0.09176853 0.21920066 0.27576873 -0.0011776711 -0.12884161 -0.18393436 -0.15582697 -0.10033347 0.050307445 0.04046725 0.042010378 0.07677543 0.025607103 0.14592265 -0.091491625 0.090660095 -0.16177775 0.3757935 0.12985694 -0.035004236 -0.21023174 0.000390101 0.25016832 -0.0501623 0.08156202 -0.1871972 -0.20042919 -0.19790782 -0.038100313 0.16369036 0.033680707 0.11424118 -0.32498157 -0.0024338397 -0.02519739 0.03943003 0.25733453 -0.18318655 -0.006689024 -0.14763048 -0.0847805 -0.22860648 -0.021438658 0.21455275 0.14937292 -0.02985982 0.070142575
600 0.010658856 -0.044965185 0.116483256 -0.22227338 -0.22191611 -0.119152814 0.054077975 -0.44184983 -0.07581092 -0.022642694 0.010910194 -0.19098446 -0.11146968 -0.12350326 -0.16790147 -0.06244753 -0.1675191 -0.03766626 0.060218077 0.1928025 0.03957951 -0.054211557 -0.18918191 -0.030798716 0.01690752 -0.056974612 0.031110343 -0.14951146 0.0077041346 -0.1204251 -0.20511669 0.063537955 0.27406248 0.17851937 0.1726148 0.2667298 0.08576702 0.013571041 -0.06038793 0.18561706 0.3660412 0.032022543 0.180028 -0.121751815 -0.10727877 -0.2814028 0.15517153 0.095856376 -0.11362085 0.066909075 -0.030936738 -0.008084017 0.102642976 -0.15996012 -0.33125144 0.31275067 -0.30324548 0.09664663 -0.04727687 -0.09227765 -0.24530895 -0.23561841 0.023372827 0.15850864 -0.0074039637 -0.4186193 -0.076682724 -0.11604331 -0.20012468 0.042026166 -0.30476305 -0.42929816 0.5515126 0.08719333 0.178789 0.0675271 -0.38173825 -0.08883109 0.102707125 0.26677245 0.37363544 -0.23256806 0.04664146 0.115305744 0.032009352 -0.36318958 -0.29039717 0.113352336 0.1565775 -0.081892416 0.007527908 0.04054611 -0.2174348 0.1613982 0.15542379 0.06521634 -0.0697545 -0.035623584 0.24854007 0.29919982 -0.012750797 -0.12834638 0.039581437 0.13187303 -0.44743004 -0.12333502 -0.024038244 0.14862944 -0.37407222 -0.29844722 0.22022003 -0.18274675 0.09632952 -0.2318061 0.28684735 -0.12339947 -0.15198402 0.14969273 0.10967461 -0.20407829 -0.022554249 -0.24121578 0.04965702 -0.0489955 0.24761605 0.37044293 -0.023152173 0.07706391
476 0.15534166 -0.02682674 -0.0023234314 -0.04636888 -0.4312443 0.15697587 -0.2924889 -0.099592686 0.3719095 -0.08820655 0.11122147 -0.26549044 0.049999397 -0.035926484 -0.04081483 0.027858969 0.1186805 -0.2135061 -0.10312258 0.25099352 -0.028931536 0.07505601 -0.06127367 0.14513291 0.14489633 0.044730105 -0.25345573 -0.12620908 -0.05672835 0.2925809 -0.047118183 -0.07949973 0.3597954 -0.24396247 0.106074 -0.38828653 -0.13255017 -0.13989879 -0.04929611 -0.04334456 0.31281525 -0.07329751 0.13008375 -0.30033594 -0.114986174 -0.2499153 0.01158982 -0.19192542 -0.20554756 0.005581953 -0.017175462 -0.3102782 0.076178424 -0.239523 -0.054392755 0.16101743 -0.32827067 0.28592938 0.09113463 -0.31181276 0.00012461627 -0.15067801 -0.25841624 0.2632382 -0.05499869 -0.12874757 -0.049546935 0.015327457 -0.109165095 0.016033186 -0.19230297 -0.50214916 0.48701817 -0.06922014 -0.07502017 -0.052596457 -0.52502245 -0.27273762 0.14044501 0.07286335 0.10607732 0.14592747 0.05267536 0.060288046 -0.007418128 -0.14052698 -0.37094843 0.035501778 -0.102899425 0.100594245 0.04405397 0.0050931545 -0.15527211 -0.08811674 0.17982677 -0.16431502 -0.21811728 0.03948073 -0.011081387 0.15336631 -0.11090108 -0.35763115 -0.1930308 0.19068615 -0.13792746 -0.22573492 0.059294805 -0.06440613 -0.10808681 -0.2801528 0.024136985 0.079782926 0.13661748 -0.16408141 0.092866726 -0.09524835 0.04225792 -0.28153056 -0.17116515 0.21981482 0.06198708 0.07448124 -0.54649025 0.09333157 -0.048414387 -0.18733683 0.0017251853 0.001918003
238 -0.058407243 -0.31340516 0.18405001 -0.07390572 -0.22761771 0.009158168 -0.06731315 -0.21578018 0.028294934 -0.016655078 -0.053207185 -0.19139259 -0.05107013 -0.08112286 -0.038334567 -0.041895904 -0.062350716 0.08814704 0.10521815 0.063271515 -0.10634465 0.116830006 0.035867922 0.16608778 -0.10779295 -0.078337215 -0.03506236 -0.15558767 0.17526183 -0.03486815 -0.041880332 0.08636056 0.28583494 -0.07559053 0.09625677 0.032831885 -0.04395378 -0.0860196 -0.004161016 0.30184862 0.24206388 0.13264383 0.010954124 -0.14222807 -0.25405678 -0.2515325 0.12522168 0.2623967 -0.0016530642 0.045814533 0.098610386 0.03834386 -0.01736695 -0.24021661 -0.20206821 0.4017774 -0.09958184 0.11958407 0.04152633 0.052169148 -0.2352412 -0.39311165 0.07640797 0.23261677 -0.039373357 -0.2543953 -0.09159804 0.05187982 -0.19806117 -0.11533406 -0.4041035 -0.3618457 0.3877798 -0.19434766 0.18921828 0.13275741 -0.44032493 -0.15308332 0.01837223 0.24007127 0.27342314 -0.06594533 0.13585502 0.12857206 0.1265126 -0.021927048 -0.16059978 -0.15165353 0.082290865 -0.115324594 0.034505345 0.22914408 -0.09032076 0.356018 0.050377347 0.12880984 -0.092863776 -0.08372276 0.1807807 0.31314352 0.0487427 -0.21451941 0.016762778 0.08243547 -0.4986116 0.037318483 -0.19538803 0.09055358 -0.4532834 -0.16848469 0.2870529 0.02060317 0.15146977 -0.301528 0.26661962 -0.2827507 -0.12559496 0.15148342 0.10533797 -0.1043406 -0.31185853 -0.08351444 -0.08169308 -0.15617974 0.13988797 0.12970972 -0.34358886 0.07343552
328 0.0074898195 -0.25569436 0.18949477 -0.021047844 -0.22907639 -0.034039117 0.022832615 -0.32238194 0.00421163 0.043955434 -0.025411958 -0.004266594 -0.06535265 -0.061185844 0.05955487 -0.10988984 -0.13579297 0.12025062 0.1511207 -0.051652648 -0.07875299 0.23601733 0.06797134 0.2401115 -0.13127513 -0.0042769182 -0.011062999 -0.047710802 0.12906274 0.08772633 -0.17816783 0.20467533 0.20469579 -0.16913903 0.23938847 0.03331372 0.09145289 -0.16106074 -0.01839875 0.18443675 0.16911854 0.1030915 0.14461213 -0.11854341 -0.23648345 -0.26030585 0.049631294 0.11883737 0.0152313635 0.09051933 0.09478781 0.065183684 -0.028982008 -0.14706682 -0.13812564 0.5229102 -0.21361566 0.08860033 0.063268475 -0.11539887 -0.16337812 -0.32900643 0.10275406 0.11120046 -0.19021522 -0.28972486 -0.13282546 0.038962334 -0.25892824 -0.15444396 -0.3801853 -0.44528618 0.34854132 -0.32888198 0.2937548 0.13643576 -0.5435992 -0.15038562 0.11431776 0.25984937 0.27253082 -0.14490499 0.08678474 0.10190312 0.14051008 0.04123749 -0.21868011 -0.19273646 0.11276986 -0.14262934 0.0143214 0.19182993 0.023773855 0.29891625 0.07946877 0.1322997 -0.10914324 -0.13120759 0.34912694 0.317991 0.050269347 -0.14975923 -0.04441378 0.053373642 -0.38745224 0.037068617 -0.23593073 0.028837323 -0.5363798 -0.1507332 0.12081736 0.02434577 0.21416987 -0.3540067 0.3732839 -0.16419941 -0.18132037 0.28710887 0.0075951465 -0.12029348 -0.32254308 -0.03659602 -0.03023743 -0.08815204 0.059266437 0.08895699 -0.2334891 0.13240194
767 0.03902943 -0.2962821 0.16602375 -0.11335991 -0.2950915 0.009772152 0.016161798 -0.30616948 0.037797026 0.0032746873 0.067817315 -0.113954686 -0.040953252 -0.14559402 -0.018268 -0.01716839 -0.18015523 0.114681005 0.10819592 -0.014540723 -0.047099225 0.15211023 0.07341536 0.19125617 -0.15404524 0.015390655 -0.041575823 -0.17144683 0.15678905 0.010733137 -0.06404932 0.15352651 0.2303676 -0.08408676 0.15741153 0.09006026 0.060327098 -0.13750432 0.08186257 0.22686124 0.24074796 0.16113415 0.0579396 -0.20076984 -0.24427685 -0.24728464 0.08380896 0.26670694 -0.011719304 0.07400148 0.0608551 0.016421955 -0.042544894 -0.29511124 -0.16020721 0.3903769 -0.16819897 0.14189777 0.026026804 0.013071572 -0.15044056 -0.33799407 0.116218105 0.1055715 -0.13456792 -0.22259274 -0.17797734 0.01980205 -0.16378707 -0.054169085 -0.3355192 -0.33632612 0.45283675 -0.2221618 0.24120711 0.100233555 -0.42158365 -0.12060409 0.13869336 0.24200849 0.3591138 -0.22092788 0.11729196 0.13359599 0.07701489 -0.040908236 -0.24086504 -0.23486036 0.12047517 -0.19694678 -0.008366663 0.25151935 -0.113415815 0.2920428 0.12601215 0.13278344 -0.20089819 -0.0008013388 0.22591643 0.31293455 0.03337686 -0.21429807 0.015668007 0.03569635 -0.46464673 0.072100334 -0.13025437 0.07057957 -0.45766532 -0.22066712 0.1857733 0.013560466 0.14339736 -0.33664155 0.30404007 -0.2969381 -0.050135557 0.20351999 0.047056306 -0.06201884 -0.28274325 -0.08029857 -0.034701485 -0.15481764 0.074116156 0.07051479 -0.32408527 0.062222682
164 -0.04461325 -0.32643408 0.17250022 -0.13697104 -0.2110715 0.035007685 -0.007324631 -0.27581105 0.07503399 -0.0029842714 0.032707512 -0.09462686 -0.04394068 -0.09973395 0.008079211 -0.07511702 -0.09460633 0.12466436 0.0903429 0.021782497 -0.09682598 0.08311929 0.08375052 0.18334621 -0.17377007 0.012211541 0.0053500556 -0.14360541 0.17850725 -0.008295647 -0.06849609 0.09744952 0.1959351 -0.079957 0.13426551 0.08803264 0.0027192873 -0.117868125 0.048348714 0.19952238 0.22992216 0.17784657 0.06740564 -0.21695907 -0.337286 -0.1986506 0.11700034 0.19786184 -0.06864896 0.06651509 0.05000732 0.02730079 0.050284073 -0.2961324 -0.1518444 0.420592 -0.14619572 0.14228182 0.028398024 0.009428592 -0.16258499 -0.3700262 0.07706999 0.18964353 -0.13005023 -0.24745905 -0.1450771 0.09128616 -0.19698192 -0.1458519 -0.399779 -0.33637077 0.39762095 -0.21861497 0.2629029 0.08697725 -0.4516733 -0.1618324 0.08406756 0.28129318 0.32908812 -0.17552195 0.14377971 0.16013876 0.024659006 0.026098566 -0.2233971 -0.21150978 0.12793915 -0.1940052 -0.050808284 0.2515777 -0.09407313 0.27344033 0.106141366 0.123041786 -0.17378284 -0.019766336 0.25034824 0.3816317 0.022447119 -0.23969494 0.04325541 0.0707319 -0.41924456 0.019748628 -0.1471235 0.05890885 -0.42816305 -0.29495922 0.14125355 0.0262909 0.09457829 -0.27869892 0.34528825 -0.27694294 -0.13149858 0.2002468 0.0534444 -0.08226299 -0.30273154 -0.03644465 0.019802257 -0.15665413 0.09711103 0.14020954 -0.30020228 0.042786434
128 -0.028172778 -0.30489555 0.17644143 -0.14634115 -0.2075579 -0.004648446 -0.05845796 -0.22453149 0.037715238 0.06991727 0.020438252 -0.07270115 -0.0891848 -0.109604426 0.014719689 -0.06883531 -0.05976053 0.12652759 0.1063828 0.019281138 0.0027955745 0.20388195 0.08579094 0.24322878 -0.16876099 -0.027293898 0.06524159 -0.15675846 0.08645075 0.0056855506 -0.18136998 0.20463432 0.19970755 -0.06393027 0.23481435 0.08078281 -0.0042871567 -0.15528576 0.008877641 0.24068101 0.18861805 0.18488356 0.07187932 -0.23024778 -0.27414504 -0.19783683 0.04874839 0.2813921 -0.013936512 0.076154225 0.042313583 0.11329667 0.007734601 -0.26773068 -0.12640394 0.41726652 -0.1738392 0.12789741 0.02596401 0.014874193 -0.18967259 -0.40234214 0.07303467 0.14845695 -0.13766973 -0.2989487 -0.072639614 0.06848837 -0.16704254 -0.17828448 -0.3499546 -0.33913603 0.41042736 -0.18884231 0.31629595 0.11030242 -0.4208129 -0.10982714 0.010317884 0.25420272 0.3636604 -0.1472455 0.13009378 0.16175576 0.038478028 -0.009627862 -0.20250833 -0.21928883 0.119218566 -0.086136065 -0.026232613 0.2664324 -0.11451594 0.34684268 0.06940959 0.1312678 -0.18175218 -0.013212742 0.22873423 0.41587397 -0.037081867 -0.29823864 0.08039051 0.010371409 -0.462268 0.04128704 -0.13088633 0.045814715 -0.4540835 -0.19753508 0.18233056 -0.026789915 0.15565024 -0.3028725 0.32415542 -0.3012794 -0.13743924 0.16577673 0.048498455 -0.040586207 -0.27202886 -0.06754434 -0.11212363 -0.15943336 0.16027384 0.15414071 -0.23483552 0.098612145
851 -0.002620057 -0.34344578 0.18516715 -0.17614935 -0.16836216 0.014990702 0.007978495 -0.23830345 0.037827693 -0.015925692 0.078857444 -0.14278147 -0.025001252 -0.13581154 -0.03123243 -0.085522965 -0.11071823 0.112201236 0.10457834 -0.09604893 -0.04968426 0.15558644 0.08553927 0.18707009 -0.09070555 -0.036666486 0.016413588 -0.23824903 0.16332269 0.051134564 -0.07307972 0.20968398 0.21951672 -0.090417065 0.18334979 0.07182576 0.07954122 -0.16017891 0.0022727363 0.24652806 0.16654801 0.18960528 0.07527267 -0.22227967 -0.33978754 -0.21440981 0.045023687 0.2677883 -0.054910958 0.047361106 0.011192009 0.031677414 -0.07249149 -0.29067975 -0.11377254 0.40731087 -0.1883848 0.12199671 0.046564233 -0.01672051 -0.18598808 -0.32734892 0.056963768 0.18826734 -0.20352982 -0.20559226 -0.19954368 0.08136011 -0.18516685 -0.12763412 -0.2770742 -0.33218884 0.36201465 -0.23358458 0.24550752 0.14009087 -0.5113286 -0.19815883 0.08754563 0.18193221 0.29676086 -0.09253896 0.11637448 0.17352413 0.05933835 -0.035387706 -0.22689092 -0.14770384 0.08319977 -0.16836524 -0.016885532 0.2397327 -0.1398416 0.33485508 0.1135096 0.14417526 -0.22084543 -0.039378006 0.26414093 0.31810948 0.041055907 -0.18124208 -0.0010107502 0.062658675 -0.47960085 0.08985256 -0.13444541 0.09461605 -0.44735625 -0.20763925 0.2332645 0.042942658 0.15585116 -0.3641277 0.30000144 -0.26021013 -0.076932624 0.19441481 0.1011415 -0.103343315 -0.26386103 -0.059150245 -0.030132126 -0.14213511 0.08063721 0.1536227 -0.26831478 0.06432666
287 0.007932877 -0.31786314 0.21131049 -0.097978786 -0.18857871 0.03430828 -0.0016799953 -0.26138234 0.05077405 0.06967836 0.04676538 -0.10453737 -0.016936697 -0.11458448 -0.026337001 -0.12701087 -0.11875466 0.122375555 0.14542289 -0.03679134 -0.04581528 0.2255274 0.104025684 0.23699893 -0.08419853 -0.03277358 0.035991974 -0.17526491 0.15258233 0.026234034 -0.10178431 0.12862965 0.17587204 -0.038081862 0.2001586 0.08013964 0.06423144 -0.13968529 0.056468245 0.18656471 0.26217717 0.09118117 0.03951335 -0.19963914 -0.33566943 -0.23785833 0.077347524 0.27330467 -0.024648396 0.07597479 0.059664186 0.031456385 -0.023056664 -0.32796004 -0.07011965 0.42851117 -0.15371926 0.19682102 -0.02761374 0.004739849 -0.17958316 -0.33327088 0.06504378 0.18813232 -0.16111948 -0.29813385 -0.14482428 0.11303623 -0.14937757 -0.1117881 -0.33992752 -0.33289376 0.38435888 -0.18787026 0.2681738 0.22071229 -0.4641008 -0.16025388 0.09140595 0.24410944 0.2775991 -0.14016421 0.0606465 0.13983405 0.011646106 -0.020420738 -0.19430764 -0.14167766 0.06288925 -0.08831943 0.054345254 0.28546792 -0.023605987 0.34911206 0.11677628 0.15102343 -0.18219109 -0.025748324 0.3121099 0.35968894 0.00635498 -0.28430185 -0.014677085 0.08552329 -0.46547452 0.033318162 -0.18923035 -0.0031103517 -0.37848866 -0.19460876 0.13881262 -0.042192772 0.1319839 -0.25529405 0.32281274 -0.3035274 -0.14112814 0.17123786 0.1127899 -0.12767376 -0.2710308 -0.10348465 -0.022344863 -0.18090883 0.12877183 0.13465549 -0.3020271 0.12510733
319 -0.07670022 -0.17983004 -0.2550454 -0.25886223 -0.30884928 0.123661585 0.04005187 -0.12613143 0.14904428 0.047758225 0.18428168 -0.37522638 -0.22197485 -0.118017666 -0.22055489 0.15991563 -0.13995796 -0.055016674 0.06471721 -0.15876767 -0.39386106 -0.12099346 -0.36473748 -0.08874728 0.23265581 -0.18483274 -0.26707995 0.07226706 -0.24420242 0.13587058 -0.32322755 0.19550785 0.06450324 0.12623715 -0.06925112 -0.16538443 0.32525992 0.03071948 0.04000939 0.19423898 0.035383373 0.16699724 0.27883488 -0.41905224 0.04317249 0.06183553 0.19678739 0.15081851 0.08284 -0.08338541 0.32207295 -0.1858029 -0.11897138 -0.45844173 -0.36101723 0.27671045 -0.35686323 0.2310914 0.12863846 -0.5196052 -0.23745535 -0.2387941 0.18233816 0.16909824 -0.16641313 -0.20397338 -0.17368002 -0.14764716 0.10779747 -0.09375596 -0.5759196 -0.3434318 0.44950143 -0.043267626 0.28950328 -0.07873606 -0.35189566 -0.20149899 0.055037864 0.052862342 -0.009252407 0.19046158 0.056962155 0.14153767 0.3617593 -0.1371229 -0.099668674 0.21780595 -0.13642398 -0.030292105 -0.15936038 0.20668623 -0.15006214 0.36233678 -0.04963152 -0.23100884 -0.18734398 -0.25472993 -0.08080224 0.24688827 -0.18319984 -0.16443424 0.06535005 0.408988 0.039372284 0.16012561 -0.15189183 0.0683016 -0.108324625 0.3926964 0.01528913 -0.06077502 0.24226789 -0.14235476 0.23031506 -0.2096873 0.09347645 0.2930054 0.09389281 -0.060363855 0.056408867 0.1959509 -0.15060657 0.1427999 0.098167285 0.06608154 0.034838133 0.053544525
917 0.19202322 0.053251814 -0.10451928 -0.2203324 -0.342538 -0.15133575 0.05024109 -0.14482164 0.18058965 0.26327047 0.16761899 -0.26620683 -0.018620329 -0.13210596 0.15434574 0.015657151 -0.06739925 -0.16399798 0.19875553 0.311313 -0.0148004275 -0.08897963 -0.043103147 -0.020500148 0.115318276 0.06520671 0.16466773 -0.26835623 0.0989954 -0.08764779 -0.2575156 -0.0055173878 0.5226504 0.028999148 -0.07207953 0.07625644 0.22467883 -0.09609666 0.014212868 0.09974058 0.16823664 -0.025156582 0.2533641 -0.3187518 -0.019961398 -0.0028005196 0.1749544 0.01761565 -0.28588632 -0.15439889 -0.06147078 -0.027578149 0.0962637 0.123732924 -0.2783156 0.05129464 -0.51627606 0.1027703 -0.056296907 0.081503876 -0.053079717 -0.12978609 -0.10397218 0.35294324 -0.0155687 -0.4300498 -0.09330058 0.07980674 -0.05139211 0.047853146 -0.64752525 -0.24296454 0.25695458 0.004307451 0.13872516 0.37519175 -0.18260479 0.046829782 -0.02933739 0.05799955 0.12559146 0.1892079 0.12587221 0.39625022 -0.05327434 -0.5540554 -0.34494352 0.13931584 0.21185935 0.20186606 0.17806269 0.22466579 -0.082519196 0.14589624 0.5519234 0.03900847 0.11695656 -0.10340019 0.042121936 0.23704068 -0.09079653 -0.19143932 -0.0044812905 0.15595044 -0.24194877 -0.0444105 0.10585052 -0.03515688 -0.45325702 -0.52193034 0.2543334 -0.15564443 -0.05550373 -0.42353618 0.34807453 -0.08996849 -0.1302435 -0.013988076 -0.066088274 -0.2700708 -0.09435943 -0.03198554 0.04310379 0.2023578 0.28374556 0.22095443 0.028093526 0.010819787
801 0.34758106 0.054607287 -0.12222778 -0.3078807 -0.18087935 -0.08868105 0.121542126 -0.21831036 0.034507345 0.23140666 -0.035116777 -0.2609234 -0.14247045 -0.13825224 0.03765552 0.065468684 -0.12402641 -0.13196622 0.14990014 0.014474019 0.17561927 -0.00876393 -0.117924854 -0.00089173624 0.09907823 0.08847198 -0.116541184 -0.22809012 0.08373694 0.10304116 -0.17737113 -0.011456649 0.5087668 0.13296862 0.10118588 0.09635561 0.19884872 -0.08665779 -0.044267725 -0.0013137909 0.50460964 0.14763685 0.0705214 -0.2650098 0.0026785803 -0.16843924 -0.041547023 0.17280166 -0.24428484 -0.2163339 -0.09599756 -0.05719733 0.19681622 -0.016937496 -0.24435002 -0.16544738 -0.43507057 0.12059954 0.0033394885 -0.13075346 -0.0038206787 -0.051807657 -0.5152448 0.013415409 -0.17468391 -0.3488447 -0.24938427 -0.09684038 -0.20934248 -0.1030129 -0.7972702 -0.37341225 0.28159317 0.06158903 0.0004311499 0.1574643 -0.322404 -0.114252195 0.034705777 -0.086975 0.034961034 0.019526538 0.21355274 0.27042532 -0.07203063 -0.42745632 -0.23781867 -0.16366898 0.11459066 0.022348907 0.14661136 0.060370475 -0.06264619 0.2401 0.53725076 0.021763317 0.15889177 -0.1389615 0.21469302 0.3353519 0.031218424 0.0214521 -0.12188215 0.2839311 -0.23267804 -0.17080642 -0.007020425 0.098144546 -0.33383337 -0.18778703 0.16470511 -0.0024912686 -0.052082032 -0.20210673 0.03282907 0.12027893 -0.3379817 0.038171273 -0.011598747 -0.10354844 -0.081100285 0.04712314 -0.03093562 0.11432124 0.32996804 -0.10738294 -0.07864989 0.042247176
720 0.021372464 0.32663852 0.16269568 -0.074577935 -0.5457162 -0.09684753 -0.053486668 -0.17647673 0.15362611 0.14879109 0.20075215 0.2429798 0.26880124 -0.20309204 -0.20353454 0.09970282 0.0069513246 -0.007059308 0.2320452 -0.0076043974 -0.08239799 0.18492913 0.18062931 -0.23142013 -0.21051005 -0.055450592 0.0725462 0.05563068 0.11902794 -0.08712083 -0.010264857 -0.18499126 0.2006641 -0.24529883 -0.23402996 -0.1861829 -0.21053696 -0.085858315 -0.17697886 0.083369106 0.012778417 -0.32482094 0.15800491 -0.43648738 -0.24803254 -0.030513551 -0.21102569 0.025356766 -0.4567846 0.0076891915 -0.10013503 0.12823759 -0.071886055 -0.16650268 0.07238915 -0.042031843 0.0736323 -0.267295 -0.35233793 0.0218143 -0.62917596 -0.16993704 0.01851219 -0.14838898 -0.18194681 0.08507014 0.23865896 0.013683934 -0.19960532 -0.061762925 -0.25505325 -0.26650465 -0.12911326 0.41644767 0.4397339 -0.4176603 -0.43198547 0.3914102 0.021029629 0.20725493 -0.11052857 -0.00536802 0.38151088 0.5395034 -0.20850202 -0.32906944 -0.22393571 0.024438744 0.038695034 0.05148543 0.16808747 0.017310089 0.22218725 0.08947139 0.090954214 -0.40591443 -0.37889037 0.10385312 -0.55078155 0.69145674 -0.14287095 0.09517942 -0.15217015 0.10085668 -0.23591998 0.14863683 -0.48498008 0.046961274 -0.3410203 -0.11679788 -0.14168617 -0.00994244 -0.07402966 -0.18079655 -0.007967202 -0.23651376 -0.13419051 0.64320034 0.34593654 -0.20980458 -0.24178176 -0.044685554 0.12786475 -0.0191215 -0.04991393 -0.24237539 -0.20960464 0.36407045
653 0.20679542 0.048186067 -0.11868715 -0.20737848 -0.38521683 -0.006426041 0.031727437 -0.2848221 0.07903476 0.21630313 0.1826091 -0.24699481 -0.11939954 -0.14193654 0.032506913 0.007194699 -0.094383225 -0.12627059 0.16229653 0.2614366 -0.12632659 -0.13054606 -0.04971263 -0.12213471 0.17668301 0.13083836 0.21088615 -0.37193707 0.060998157 -0.10833715 -0.35647815 0.09238291 0.4853193 0.13600093 0.034351 0.1106651 0.23313288 -0.0092849145 -0.106457725 0.053299095 0.22812603 0.054369472 0.28899008 -0.36031204 -0.08899194 -0.032690126 0.18613532 0.14124021 -0.14795999 -0.14342654 -0.15323575 0.020086931 0.1201678 0.08342825 -0.27634963 -0.059562735 -0.5684578 -0.0059425933 -0.024060706 -0.014412353 -0.15709187 -0.12552702 -0.27956262 0.3063784 -0.07619467 -0.5307058 -0.11465849 0.11223425 -0.22378626 0.03851828 -0.5965706 -0.29408383 0.30455732 0.07766369 0.25755796 0.3729597 -0.23278502 0.060589407 0.046917785 -0.019560726 0.15897477 0.07628483 0.29665977 0.35340258 -0.12152362 -0.431638 -0.28692925 0.074842334 0.3704212 0.09013439 0.16519868 0.17458029 -0.021429831 0.09866674 0.509786 0.03608118 -0.015953744 -0.12603562 0.09780616 0.23503903 0.00068725785 -0.105526075 0.029103125 0.2089064 -0.24127814 -0.11782541 0.1322628 -0.006850252 -0.5068696 -0.41727388 0.28335172 -0.16247834 -0.06997711 -0.31526214 0.21564132 0.018448269 -0.22600082 0.06392416 -0.002971499 -0.26006782 -0.09546476 0.051834077 -0.056619316 0.12758276 0.34802493 0.27986136 0.068941996 0.05393443
90 0.18567108 0.1775484 -0.07969254 -0.1552688 -0.32359293 -0.008586384 -0.03323301 -0.34222734 0.08986926 0.25710002 0.16918021 -0.29875863 -0.057970945 -0.15853176 0.057807177 -0.05802787 -0.066656046 -0.1728751 0.2316911 0.30457184 -0.0952184 -0.0852987 -0.057249244 -0.106923394 0.14891776 0.1452311 0.20307235 -0.29698732 0.096095905 -0.10810782 -0.28155556 0.095964536 0.45010298 0.13981485 -0.0076743173 0.14003526 0.20789798 -0.031752754 -0.07419733 0.042379584 0.26626167 0.031127568 0.2559931 -0.38284835 -0.01711518 -0.023423502 0.121366136 0.13688347 -0.15232474 -0.13640863 -0.12525156 -0.08764694 0.13437723 0.11526394 -0.2427577 -0.06705055 -0.5601564 0.04945045 -0.034186054 -0.015477734 -0.09244767 -0.10253602 -0.26460826 0.3369388 -0.037282214 -0.46914548 -0.08787884 0.13961443 -0.21028617 0.020649955 -0.55546105 -0.24111465 0.30909267 0.026630344 0.27494988 0.3820242 -0.27467397 0.023456287 -0.051494416 0.013648683 0.20120876 0.07634331 0.30638507 0.36465082 -0.09981688 -0.4726035 -0.3942335 0.005326956 0.29349455 0.067927696 0.14789903 0.10618819 -0.06407017 0.12427125 0.51986694 0.06769234 0.029716585 -0.15580328 0.08628589 0.24933816 -0.02664066 -0.17343338 0.06804073 0.22134809 -0.2645616 -0.101190045 0.1259522 -0.0073875342 -0.48260367 -0.446962 0.24478117 -0.11928696 -0.05336385 -0.385389 0.2979877 -0.13889208 -0.2553072 -0.007872105 0.062165767 -0.26336154 -0.08729075 0.044067804 -0.00032835262 0.15747958 0.3786593 0.26055565 0.08959449 0.11119585
843 0.032304436 0.43303528 0.15452696 -0.09531507 -0.40453213 -0.054161716 -0.023196634 -0.10424353 0.16780983 0.1719666 0.1744739 0.12320851 0.23908931 -0.1614719 -0.01122258 0.19945765 0.11557878 -0.0036371702 0.3387278 -0.09007444 -0.05127388 0.014292566 0.24118577 -0.32258075 -0.28255057 -0.083794825 -0.012310919 0.057924148 0.13539405 -0.052735746 -0.14718753 -0.14186071 0.19626585 -0.17309296 -0.33394736 -0.12226189 -0.18972829 -0.17805026 -0.16430889 -0.0067980797 0.077443 -0.21176298 0.24119782 -0.4554996 -0.22772832 0.023015736 -0.23153934 0.11493525 -0.46231386 0.105697684 -0.055519193 0.13938054 -0.09921652 -0.22441816 -0.07255672 -0.04876158 0.05508529 -0.316178 -0.36330172 -0.092820734 -0.59715277 -0.15097617 0.12908244 -0.10949815 -0.084793955 0.21199962 0.15782912 0.042083412 -0.13190067 -0.06923909 -0.2142485 -0.3724848 -0.11295684 0.4808443 0.4269049 -0.34807137 -0.40509862 0.25462335 -0.14451586 0.16477306 -0.04058837 -0.10674749 0.43657377 0.45124236 -0.20356257 -0.2424651 -0.20865966 0.10776011 -0.0076207495 0.030544093 0.28452697 -0.10054323 0.02460329 0.15441662 0.0791817 -0.33647957 -0.46349308 0.07027772 -0.38180456 0.654372 -0.09988207 0.14364158 -0.046329133 0.06953941 -0.28793818 0.19326617 -0.37470874 0.12610036 -0.42579308 -0.09014407 -0.13797894 -0.055541776 -0.1841457 -0.24745125 0.064104185 -0.12460779 -0.12143412 0.706159 0.54348254 -0.060470145 -0.21464671 -0.026012236 0.0005565407 0.019710528 -0.1555006 -0.26004702 -0.22728387 0.4487422
807 0.04650868 0.42688608 0.0998505 -0.07821622 -0.31914368 -0.1116577 -0.06494866 -0.17586535 0.12162086 0.1643686 0.2239448 0.2066225 0.27393234 -0.13438872 -0.071339555 0.16459806 0.06559588 0.0022555278 0.22592258 -0.009786693 -0.10832773 0.12489181 0.18892618 -0.37796 -0.27178395 -0.0879122 -0.0008699169 0.015215425 0.085671745 -0.06921089 -0.13744992 -0.26178688 0.31899247 -0.09760371 -0.37426266 -0.12516885 -0.15527545 -0.12581687 -0.14131126 -0.042772084 0.05595455 -0.24073169 0.26065525 -0.4469739 -0.14506762 -0.008881666 -0.27865174 0.14869843 -0.5115938 0.096918106 -0.1766584 0.2244571 -0.041470118 -0.2530865 0.025467895 0.021041816 0.075988285 -0.34146503 -0.301525 -0.064557515 -0.5448014 -0.2998083 0.17570736 -0.106106356 -0.15777268 0.18821824 0.17672604 0.12204529 -0.10311674 -0.036641505 -0.2911807 -0.35445443 -0.044792473 0.45232743 0.45580032 -0.40546215 -0.37319416 0.22657657 -0.13235976 0.27280584 -0.04770582 -0.08804829 0.38236666 0.51222473 -0.169726 -0.19891898 -0.20396575 0.06494628 -0.028971298 0.087961905 0.309076 -0.07126204 -0.044091146 0.14143427 0.055083826 -0.37818122 -0.44071394 0.07223838 -0.247209 0.5075065 -0.26963082 0.013241056 -0.14404398 0.106208704 -0.24378726 0.1754556 -0.38121402 0.059583936 -0.4124835 -0.1337291 -0.1467022 0.01696255 -0.13958314 -0.16793437 0.019844767 -0.12194553 -0.105134964 0.7763722 0.45993167 -0.080129795 -0.31330496 0.04466066 0.07489268 -0.016968824 -0.3166713 -0.32140684 -0.25543907 0.35083532
766 -0.08343704 0.53197265 0.2236472 0.09767481 -0.3451161 -0.1722296 -0.07830809 -0.022249477 0.24365349 0.045027956 0.2634353 0.10751784 0.35450765 -0.29619527 0.037652396 0.093820855 -0.04881208 -0.09017742 0.17885767 -0.0061163325 0.065088555 0.027674079 0.10619344 -0.13417532 -0.25463116 -0.20837668 0.124255694 0.18389913 0.0061819404 0.12877083 -0.18010767 -0.25915548 0.25931916 -0.16524313 -0.3779978 -0.116067596 -0.27541766 -0.08355873 -0.21641882 0.01567341 -0.005373075 -0.32948357 0.17617768 -0.5195665 -0.12770689 -0.0373216 -0.0737855 0.03266058 -0.3499327 0.13893226 -0.15179838 0.08683192 -0.14174937 -0.23111068 0.12117414 -0.089067794 0.26198047 -0.39142963 -0.4314817 -0.02330383 -0.5685365 -0.17381147 0.061971 -0.08078813 -0.2262813 0.14879502 0.13263445 -0.0133025525 -0.16422984 -0.06417218 -0.19538696 -0.48970836 -0.046681274 0.24820548 0.25821298 -0.31010056 -0.56356776 0.4577647 -0.10570968 0.1758544 -0.09930039 -0.024468986 0.39778715 0.5129335 -0.1324647 -0.3562768 -0.19109881 0.018379772 0.053035006 0.030750858 0.2785895 0.05977811 0.0726538 0.25570297 0.07661278 -0.3369952 -0.43906674 0.047716867 -0.23901 0.5826255 -0.22669433 0.17510383 -0.14161797 0.09396911 -0.24445873 -0.016821306 -0.35009474 0.088308245 -0.21322706 -0.231688 -0.20942877 0.016543925 -0.22795294 -0.19823223 -0.12876269 -0.15795013 -0.05019575 0.69048023 0.5073737 0.050392643 -0.2170966 0.029816283 0.14082411 0.09477543 -0.085911214 -0.20860934 -0.24086471 0.5099185
81 0.19211435 -0.23612472 -0.3028664 -0.32931542 -0.30242246 -0.1898529 0.09173194 -0.2602544 0.051354997 -0.08474052 0.17736305 -0.20110753 0.023522597 -0.03137638 0.12124681 -0.0926919 0.21344134 0.041156277 0.03517554 0.013728755 0.21927197 0.13330016 -0.0027556054 -0.1165549 -0.062064346 -0.004007932 -0.09882848 -0.10625578 -0.092566766 0.364623 -0.036341622 0.15470901 0.37718767 0.113792375 -0.17888892 -0.33673432 0.15797739 -0.15113705 0.039299432 0.021889517 0.364334 0.20329916 -0.04631046 -0.10272408 -0.060566723 -0.084417574 0.12270069 -0.08022414 -0.16358218 0.009845885 0.3229189 -0.4103378 0.09105729 -0.042555436 -0.15413961 -0.11877418 -0.09497085 0.25046217 -0.03363569 -0.35211787 -0.07652504 0.03771152 -0.32168087 0.3941857 -0.15982033 -0.19443855 -0.15964615 0.17929257 -0.27159914 -0.009344344 -0.3162673 -0.48084536 0.27629894 0.12056611 0.0024447832 0.27687708 -0.2841232 -0.10073314 0.41526708 -0.04268847 -0.010224144 0.2878518 0.25630957 0.19910659 0.19592243 -0.21034741 -0.50895953 -0.15656032 0.018506223 0.013362528 0.27253717 -0.006153433 -0.14658767 -0.014174597 0.24566971 -0.1293993 -0.20940894 -0.07903764 0.38810778 0.32970914 0.044244584 -0.43371525 -0.16316162 0.032143325 -0.24701534 -0.05792045 -0.13813116 -0.059565175 -0.12898624 -0.20804945 -0.100449175 0.28003925 -0.004594121 -0.29988396 0.20175865 -0.21172163 -0.006988196 -0.058444314 0.17428753 -0.008372452 -0.006543772 0.09737782 -0.27096444 0.017543694 0.19515926 -0.19152194 0.039016444 -0.1515203
73 0.12435698 0.34669456 0.10925127 -0.10790575 -0.3249978 -0.049467288 -0.02175231 -0.15584269 0.15295014 0.16864839 0.13963215 0.16741504 0.14383797 -0.06684854 -0.14780143 0.20113727 0.2185033 -0.008581997 0.20685181 -0.027478026 -0.03861992 0.098593615 0.09064097 -0.35568973 -0.2294825 -0.11035443 0.055908658 0.03159343 0.13042179 -0.09415403 -0.09318033 -0.16429581 0.26406828 -0.27822447 -0.39146712 -0.1356913 -0.26268408 -0.11280208 -0.18576974 0.044258237 0.016373223 -0.3429846 0.25050634 -0.373422 -0.2916883 -0.14179857 -0.24674097 0.011673348 -0.43952325 0.024802146 -0.1971919 0.12986907 -0.07458377 -0.25100052 0.05034444 -0.10782591 0.011971156 -0.28201643 -0.26451167 -0.25223804 -0.53426266 -0.32562155 0.110046014 -0.019586433 -0.11188659 0.23694055 0.17999016 -0.0074242516 -0.19292182 -0.103797905 -0.25029713 -0.3174599 -0.17213435 0.40060443 0.37095124 -0.32489607 -0.32713333 0.17141274 -0.10901795 0.24363668 -0.0014720932 -0.09324186 0.33807585 0.57014257 -0.17875884 -0.31433386 -0.30417264 0.08027367 -0.0021513058 -0.052668158 0.40453562 -0.16776769 -0.0172981 0.20581692 0.13566951 -0.36092287 -0.45957616 0.17171729 -0.48020265 0.66040057 -0.23269941 0.09079393 -0.09492349 0.11065044 -0.1950591 0.053179044 -0.40202984 -0.0006026547 -0.39032763 -0.2259822 -0.26972336 -0.05892883 -0.25857222 -0.16820996 -0.028843166 -0.1738126 -0.049111236 0.6942098 0.629544 -0.034504376 -0.31620225 0.08333209 -0.024786374 0.022614704 -0.1698857 -0.19883695 -0.28188083 0.42714757
472 0.022313768 0.2658345 0.048968952 -0.115725584 -0.44038415 -0.011847816 0.04164272 -0.10625218 0.25344974 0.20293099 0.22357205 0.23433617 0.195777 -0.14320713 -0.11152594 0.13908327 0.065298475 -0.08822883 0.3071696 0.053077467 -0.06952389 0.06556275 0.019948151 -0.21161032 -0.08588001 -0.07809613 -0.03292392 0.1333795 0.17779559 -0.083603576 -0.16281691 -0.33165938 0.283413 -0.054778498 -0.30841807 -0.075635225 -0.3187883 -0.07082309 -0.12098467 0.08433093 0.15590057 -0.2593673 0.14963295 -0.37112567 -0.054338336 0.06942705 -0.116232276 0.08042587 -0.4731517 -0.008164851 -0.18600312 0.21445207 -0.052012082 -0.2800464 0.13666438 -0.08419457 0.100207075 -0.25326377 -0.30969995 -0.08606968 -0.6465212 -0.15087213 0.12238174 -0.18842007 -0.16346273 0.10040557 0.16892846 0.09374552 -0.081401944 -0.044485584 -0.13572252 -0.48020986 -0.111976236 0.45638305 0.364094 -0.42285913 -0.3686085 0.43283322 0.0883019 0.17089117 -0.060805157 -0.083192304 0.39725757 0.30238357 -0.2511694 -0.23751274 -0.15282989 -0.012847373 0.03032383 0.03404563 0.11661763 0.10400539 0.145549 0.22591974 0.03705343 -0.33781374 -0.40358943 0.12159375 -0.4389308 0.70450985 -0.10860876 0.19403993 -0.070695534 0.016142529 -0.23812267 0.094500385 -0.48162416 0.12943065 -0.41985252 -0.2440961 -0.22655389 0.018477395 -0.11599166 -0.17003521 0.12605156 -0.17933273 -0.029298665 0.7158703 0.49881434 -0.15703054 -0.33360165 0.019922912 -0.0057444754 0.20953049 -0.11159873 -0.21921898 -0.29320312 0.3993813
124 0.06455351 0.2785045 0.05597997 -0.13796854 -0.4512815 -0.08596744 -0.056377836 -0.11143759 0.25135714 0.20459613 0.28469822 0.2442132 0.19632334 -0.14608124 -0.08136942 0.064130515 0.03149533 -0.11782236 0.3990936 -0.023171116 -0.119856015 0.035005953 0.08301347 -0.26205742 -0.15695739 -0.09081627 -0.008091396 0.21350136 0.2348293 -0.014478915 -0.14531578 -0.32605398 0.3206494 -0.06376099 -0.3741539 -0.0880108 -0.22265428 -0.15673012 -0.19331631 -0.048777454 0.107321665 -0.2528594 0.14280134 -0.34547555 0.014999443 0.039460246 -0.15152383 0.10294053 -0.43609956 -0.0102113215 -0.1303156 0.16468944 -0.10668431 -0.26768595 -0.02255217 -0.1422229 0.061623137 -0.2662358 -0.24148576 -0.014787355 -0.6425489 -0.13642316 0.06537549 -0.18548205 -0.22926502 0.100685254 0.13988528 0.16229817 -0.089268796 -0.054763574 -0.22598256 -0.45095733 -0.16836256 0.43041974 0.31556076 -0.3368597 -0.40411425 0.38398987 0.02007934 0.26786664 -0.02799775 -0.13373367 0.3506548 0.4112744 -0.22673683 -0.1797127 -0.119642355 0.0037527464 0.014134083 -0.013682382 0.15519473 0.003963059 0.05342267 0.18684398 -0.014728532 -0.16244489 -0.48041382 0.19782206 -0.4388139 0.64163256 -0.0631246 0.16729376 -0.0021483623 0.06535498 -0.22997408 0.12740293 -0.4646207 0.09333405 -0.41748685 -0.15717527 -0.20975922 0.06773322 -0.13325407 -0.09793112 0.16195837 -0.13753653 -0.107290715 0.7636057 0.49004072 -0.09822849 -0.21408328 -0.0328668 -0.06265582 0.23735586 -0.12436485 -0.27655444 -0.22004585 0.39630657
837 0.022796173 0.4611094 0.06698771 -0.056630973 -0.49889976 -0.08055163 -0.19269674 -0.18710539 0.21317418 0.060107812 0.20654047 0.19544397 0.11112709 -0.25072294 -0.14868179 0.18801624 0.13023007 0.050670307 0.26749748 -0.08151801 -0.0774868 0.17273869 0.05685192 -0.2648478 -0.12668535 -0.15243617 0.023198308 0.13893852 0.1247497 -0.014240376 0.0064596673 -0.2570505 0.26919997 -0.09570549 -0.3453725 -0.07979027 -0.25766164 -0.17018454 -0.17980936 -0.020087741 0.06880211 -0.33721668 0.20398997 -0.41185737 0.00022378798 0.0434079 -0.13175482 0.050844986 -0.5586489 -0.012278626 -0.109480225 0.22957188 -0.11670273 -0.25282454 0.17480074 -0.17654617 0.005308221 -0.25321203 -0.31070727 -0.13874024 -0.6093645 -0.24746688 0.07298111 -0.14997019 -0.0692814 0.058635864 0.26650584 -0.05772776 -0.17949224 -0.16162466 -0.07704672 -0.40740255 -0.015972624 0.43240145 0.41560325 -0.3044452 -0.33038113 0.3417335 0.034620017 0.1976985 -0.09026557 -0.20953096 0.26473725 0.5056515 -0.2998863 -0.25606933 -0.29292765 0.13825089 0.04200273 0.13392225 0.025537973 -0.08657841 0.0753095 0.115124464 0.16346657 -0.109637275 -0.35175252 0.02758162 -0.40689355 0.7628725 -0.052191444 0.2424293 -0.04731322 0.08205192 -0.2506054 0.039915435 -0.5259466 0.047342826 -0.30091363 -0.06102483 -0.11214289 -0.0165698 -0.07751235 -0.011254604 0.012639346 -0.15519385 -0.100580744 0.71096694 0.37176463 -0.17962469 -0.4385798 0.109454356 -0.07319113 0.12295059 -0.03956125 -0.06838519 -0.3435359 0.4489428
677 0.046578895 0.40167576 0.1668216 -0.0022347798 -0.39938498 -0.108999655 -0.06594367 -0.23135789 0.24517773 0.14853485 0.27533534 0.17612442 0.16457741 -0.27718434 -0.22022279 0.10546752 -0.020495068 0.010355906 0.34069103 -0.16917348 -0.23699142 0.16037406 0.12630856 -0.24762644 -0.11739176 -0.09658982 0.12640055 0.13925985 0.08333485 -0.044798926 0.041965786 -0.4472535 0.38611686 -0.15347463 -0.466766 -0.12021034 -0.10937185 -0.10650318 -0.2985844 0.13799436 0.10296465 -0.30657858 0.17232752 -0.46041426 -0.03133494 0.04305557 -0.12085515 0.14132571 -0.529844 -0.058289878 -0.19352189 0.20582649 -0.04013623 -0.33490688 0.1947978 0.027875867 0.09502949 -0.12700576 -0.35418138 -0.010577269 -0.5689105 -0.29366887 0.14007221 -0.15782349 -0.1334459 0.16060682 0.09557722 0.0073020114 -0.11792015 -0.021860277 -0.14304084 -0.33957684 -0.017992593 0.3754711 0.4080942 -0.45108727 -0.35435036 0.39444122 -0.1593144 0.2727931 -0.05965839 0.042537693 0.42983666 0.30563274 -0.29485315 -0.12015081 -0.19551083 -0.034481544 -0.017024204 0.090146534 0.12535396 -0.09663139 0.058735147 0.1930358 0.20585085 -0.27576154 -0.43428192 0.016377121 -0.25413182 0.5556653 -0.15428676 0.21920331 -0.22615857 0.09616928 -0.24701557 0.11514972 -0.376246 -0.022577755 -0.5346224 -0.16094989 -0.15156306 0.0016836247 -0.12980935 -0.049836986 -0.022072745 -0.14958523 -0.011221158 0.7339135 0.4874291 -0.22523752 -0.38698688 0.12223229 -0.067647554 0.12691581 -0.089820474 -0.17321762 -0.16222602 0.25921717
486 0.006504728 0.29627165 0.03505751 -0.055947244 -0.3676035 0.026957978 -0.026027221 -0.07198698 0.2752816 0.20166838 0.26263535 0.23775025 0.13797416 -0.105488606 -0.10152042 0.1914818 0.08721898 -0.17598185 0.3737111 -0.116966695 -0.1814268 0.057755183 0.07156746 -0.27286386 -0.18108131 -0.06905111 -0.036112685 0.167723 0.26409426 -0.065142505 -0.008557495 -0.3848784 0.34888834 -0.12426604 -0.30388856 -0.13466479 -0.23108219 -0.14948748 -0.17338893 0.0511285 0.07715464 -0.12361466 0.1740043 -0.40489852 -0.003934781 0.018249309 -0.11940221 0.12795228 -0.46830213 0.069160715 -0.16077432 0.17865607 -0.13674763 -0.29964194 0.016212575 -0.21026045 0.11234007 -0.29767525 -0.28948346 -0.07090724 -0.58011657 -0.13797402 0.11375946 -0.14819571 -0.14729175 0.10399816 0.19692351 0.12991653 -0.069151826 -0.011137279 -0.2524144 -0.40778103 -0.1114967 0.42045504 0.30466586 -0.37234092 -0.46898985 0.38341746 0.0429497 0.2657356 0.030867716 -0.14935188 0.41964087 0.3542575 -0.28622246 -0.21251565 -0.19852929 -0.04574547 -0.014899737 0.02020551 0.1638011 0.07383631 0.061188687 0.15515967 0.022677664 -0.23454894 -0.41809598 0.2393759 -0.39396098 0.5605637 -0.11952906 0.18634348 -0.031591184 0.080104925 -0.30598256 0.101794556 -0.4798529 0.14542286 -0.409234 -0.14205202 -0.27198294 0.06525768 -0.18639885 -0.16234866 0.17069441 -0.13082099 -0.19376433 0.74777836 0.41064757 -0.098990574 -0.30609986 0.07704183 0.060839467 0.21125872 -0.023077164 -0.3596553 -0.18603797 0.343736
740 0.18840766 0.3809262 0.22273815 0.03906484 -0.38821307 -0.23692971 0.082849085 0.24370362 0.34052208 0.09161501 0.29653344 -0.1910179 0.1065976 -0.4613396 -0.32866248 -0.14486244 0.02740085 0.15384333 0.3544985 -0.07361355 0.013644491 0.28042358 0.06626532 -0.009855559 0.03872861 0.61218894 0.14886321 -0.0010381656 -0.04505974 0.1749606 0.06958995 -0.18586566 -0.09012127 -0.22648333 -0.079631865 0.25053978 -0.07469017 0.18903385 0.064024314 0.27776846 0.23113213 -0.14906682 -0.10241448 0.0117509235 -0.45508796 -0.63761705 0.108197734 -0.055853136 -0.3672386 -0.1470826 0.12630853 -0.14485705 -0.3656549 -0.19115844 0.10061187 0.23015292 -0.02119732 -0.1999589 -0.20908082 -0.34086442 -0.063956015 -0.06774482 -0.030402433 -0.3688234 -0.2196303 -0.14661029 0.35889485 -0.127874 -0.023120325 -0.37089548 -0.24803764 -0.38770956 0.1897196 0.5119222 0.14511374 -0.11113376 -0.57908785 -0.012964474 0.16085386 -0.31796494 0.12318293 0.2872633 0.39935938 0.19831619 -0.12507892 -0.5647824 0.0792915 0.07872405 -0.5167725 0.38462558 0.16490373 0.11946444 0.2787146 0.28306618 -0.14451227 0.19353966 -0.49756816 -0.4950899 0.055901133 0.19490336 -0.06694123 -0.33532372 0.02395493 -0.20703295 -0.38547853 -0.08403524 -0.2430713 0.06084759 -0.19063118 0.32794583 -0.109023616 0.3664906 0.3499118 0.0053436635 0.37951118 -0.33774292 0.027787212 0.32926273 0.09884784 -0.05145317 -0.3487733 0.041232523 -0.02648487 0.3759921 0.08406524 0.37662804 -0.17200333 -0.20773394
14 0.27927858 0.062169164 -0.12711522 -0.1747105 -0.26102063 -0.11206518 0.062330008 -0.29372066 0.017547423 0.24887823 0.19265014 -0.19886056 -0.07642203 -0.16336495 0.12750004 0.109549485 -0.108414985 -0.24468277 0.07667565 0.005386796 0.089361906 0.06993755 -0.0865692 -0.1618123 0.14117737 0.10623012 0.14662552 -0.40344477 0.10231864 -0.1554789 -0.32517478 -0.028335711 0.3398 0.17666264 0.11591217 0.075750485 0.048563812 -0.06142374 0.016285606 0.033931427 0.39018095 0.07619099 0.24279647 -0.29025587 0.06699409 0.0160475 0.14446034 0.14888443 -0.169615 -0.13761657 -0.18792191 -0.07211326 0.14113075 -0.16566287 -0.24266885 -0.03918025 -0.60030705 -0.036813047 -0.09866091 -0.05770393 -0.030637786 -0.022928858 -0.36705357 0.12628001 -0.07411974 -0.4333012 -0.1272496 0.004628866 -0.23888071 -0.0820444 -0.7036129 -0.35370836 0.43051124 0.13470294 0.12511398 0.3095462 -0.38420883 -0.09220237 -0.0008137658 -0.088344984 0.22005717 0.12838332 0.25170588 0.35252497 -0.012804771 -0.5084342 -0.12552655 -0.09572506 0.28821483 0.03052779 0.17544004 0.11521393 -0.15270667 0.21733457 0.4215781 0.119611375 0.02031871 -0.07555063 0.103303984 0.23069036 -0.025265018 0.038851846 9.1864305e-05 0.1607365 -0.1819747 -0.13733032 -0.008106103 0.06958235 -0.48568174 -0.2554762 0.15072404 -0.0024802652 0.11900148 -0.46157074 0.09321304 0.087963305 -0.2848988 -0.03730151 -0.12355666 -0.21657412 -0.08502903 0.046396345 -0.002731151 0.18316284 0.38038957 0.206571 -0.059968006 0.05059015
870 0.22120745 0.24188969 -0.13395673 -0.33776778 -0.42870513 0.05503133 0.04011667 -0.18616785 0.045455832 0.30570287 0.05420566 -0.23223835 -0.02749974 -0.16801669 0.08681917 0.072059914 -0.08745633 -0.23980962 0.07540401 0.025707413 0.03478162 0.03333017 0.038521968 -0.18679139 0.00046689124 0.057615243 0.044826116 -0.4180987 0.0725145 -0.20218633 -0.40659684 -0.0120893475 0.36712962 0.05892732 0.081903845 0.07941685 0.21701986 0.014296219 -0.070823416 -0.032826617 0.29044858 0.045662776 0.19589652 -0.3956656 0.04227683 -0.011144351 0.17133738 0.22253427 -0.0636988 -0.09273889 -0.14362198 -0.059984326 0.1545204 -0.114410244 -0.19606212 0.006263401 -0.46027997 -0.004856314 -0.1428974 -0.15234217 -0.11033461 0.042560812 -0.3160128 0.13093886 -0.123212285 -0.31326792 -0.2903891 -0.01715107 -0.21566375 -0.027439965 -0.70063484 -0.2131577 0.5295886 0.07739733 0.08600821 0.20645642 -0.40551683 -0.050577175 -0.06940074 0.037879094 0.15539706 0.20523436 0.22408462 0.39036015 -0.034469716 -0.55196005 -0.18226098 -0.06678623 0.48011595 0.048987277 0.09821263 0.19138177 -0.15496026 0.16502276 0.41070956 0.30662343 0.0919435 -0.17934026 0.12825853 0.1541537 -0.053652417 -0.0064667175 0.15033911 0.16407074 -0.19600792 -0.22221099 0.017920846 0.04417588 -0.5125003 -0.3679619 0.1306826 -0.06448599 0.065195195 -0.32536355 0.20598817 0.13708724 -0.2904349 -0.077945255 -0.06583316 -0.2039533 -0.13996845 0.08405104 -0.023071738 0.010138707 0.42569107 0.066898726 -0.051288877 0.12165586
512 -0.0036793845 0.40273696 0.014643211 -0.12823464 -0.40448165 -0.098816395 0.046166815 -0.17287926 0.20333363 0.19637123 0.25046548 0.15451804 0.12672275 -0.112784274 -0.074642815 0.17420004 0.06807498 -0.13969561 0.41041866 -0.045828167 -0.082454234 0.07385794 0.07787402 -0.33548772 -0.15264362 -0.13861966 0.049060363 0.18922786 0.18901046 -0.008896327 -0.108343594 -0.30288935 0.32904193 -0.13628998 -0.32164073 -0.021623354 -0.21636021 -0.14755593 -0.07039573 -0.074503645 0.063246764 -0.26820603 0.22399117 -0.37202838 0.13931812 0.08183762 -0.17154089 0.054018945 -0.4640176 -0.024166934 -0.15243794 0.20460142 -0.05315781 -0.33315066 -0.0090297265 -0.039718956 0.07333683 -0.33204246 -0.2312642 -0.061018277 -0.67463756 -0.33712846 0.1203989 -0.08135368 -0.100278996 0.17240968 0.10939516 0.06538776 -0.032708187 0.06446631 -0.115928724 -0.4840821 -0.06617232 0.37280446 0.33284017 -0.30498263 -0.43411496 0.24584234 -0.030647684 0.16625527 0.039125226 -0.18219604 0.36865538 0.390563 -0.24172242 -0.0981628 -0.22083057 -0.005688598 0.13561104 0.045307167 0.23867713 -0.13186486 0.01555182 0.1569467 0.07328774 -0.2806132 -0.5104141 0.11769979 -0.3228203 0.561675 -0.15431371 0.11159656 -0.06929975 0.09732264 -0.25243616 0.18191348 -0.41770327 0.06706095 -0.34162787 -0.07738341 -0.24238764 0.09059431 -0.18186131 -0.12851588 0.114529245 -0.13695282 -0.07828165 0.79829496 0.49312657 -0.14489615 -0.4972609 0.09428036 0.012137294 0.11568126 -0.19250755 -0.17626964 -0.23846357 0.40707868
780 -0.07283549 0.32754058 -0.0029461987 -0.12156803 -0.5242838 0.003498003 0.011691299 -0.114060335 0.06772723 0.080601245 0.22290981 -0.05999988 0.16907443 -0.30118406 -0.16100569 0.2941913 0.045073617 -0.25148934 0.31181055 -0.15070024 -0.188956 0.20774142 -0.011767459 -0.36982113 -0.24647501 -0.29723057 0.074598506 0.24676281 0.21503189 0.19867156 -0.2350258 -0.32410562 0.20534837 -0.12841737 -0.43154493 -0.10330081 -0.23170537 -0.25715637 -0.10594307 0.00868675 -0.04962983 -0.18157408 0.35632506 -0.2548699 -0.010555066 -0.025009194 -0.029248245 0.13030614 -0.4867931 0.039035063 -0.08922752 0.21759778 -0.04451484 -0.25752294 0.03691011 -0.06678602 0.2300126 -0.26489913 -0.16740164 -0.239417 -0.44649735 -0.09733764 0.18641292 -0.20698667 -0.0515436 0.25450823 0.18586098 0.1671357 -0.07754609 -0.050584238 -0.2186667 -0.41027418 -0.18212469 0.3657748 0.26727206 -0.37110624 -0.35131857 0.40287367 -0.14961812 0.17075871 0.12395275 -0.15997735 0.48548797 0.39480978 -0.16697319 -0.31086707 -0.3250295 0.08011459 0.13067216 0.02111899 0.044796627 -0.03910239 -0.12735778 0.32810593 -0.0076902523 -0.19188638 -0.40475488 0.11719405 -0.29329103 0.581925 -0.0903399 0.24030472 -0.12195151 0.2592774 -0.19420607 0.16103773 -0.40642765 -0.017127916 -0.42804658 0.012506359 -0.18614091 -0.020535123 -0.22898124 -0.1023136 0.047939673 -0.2067168 0.0042632204 0.77748513 0.45783 -0.19816393 -0.3400476 0.12328133 -0.1501253 0.19223443 -0.12506613 -0.26550376 -0.07308587 0.29021752
624 0.131158 -0.16697034 0.036067896 -0.10806996 -0.36717948 -0.22007222 0.025832834 0.073814385 0.2432789 -0.05980996 0.12192119 -0.5478188 -0.018956076 0.08113067 -0.047502276 -0.09790082 -0.0072736987 0.005287971 0.12146805 -0.13484749 0.057674173 0.0703579 -0.10825456 0.03123572 0.30673468 0.0827217 -0.38187072 -0.055767134 0.038766347 -0.02148476 -0.02103764 0.11647475 0.3774548 -0.051292982 -0.009254134 0.14483157 -0.16391708 -0.24748279 -0.18102255 0.2420486 0.29504463 0.23301077 0.116010524 -0.33820373 -0.12437731 0.015212941 0.27901065 0.093683995 -0.023264525 -0.55859727 0.26941973 -0.27460966 0.030308157 -0.033386465 -0.15835853 0.13831265 -0.016342737 0.068121605 -0.028761502 -0.31380263 -0.033570364 -0.14187047 -0.314483 0.3891918 -0.027119348 -0.30250737 -0.103812665 -0.15998252 -0.10252849 0.17734587 -0.5833393 -0.24256556 -0.116629526 0.12350009 -0.25189865 0.0781532 -0.46819967 -0.14234135 0.025120527 0.26322663 0.1430208 0.11199669 0.39467397 0.116278335 -0.13319463 -0.13360764 -0.07660398 -0.15848148 0.021361804 -0.18693124 -0.020164726 0.006508245 -0.41282663 0.093165584 0.029884337 -0.27056488 -0.12625246 -0.22442412 0.3804763 0.19956963 0.097674035 -0.053606264 -0.24421829 0.33735663 -0.25295553 -9.1154085e-05 -0.2619205 0.11501445 -0.0958442 0.01328331 0.09719062 0.25928742 -0.08960802 -0.21599546 0.24070483 -0.11701031 0.07037843 -0.022514835 -0.03566362 0.080919854 -0.1385072 -0.049104393 -0.19674596 -0.19832599 -0.070500225 -0.09618605 -0.25609598 0.11017522
753 0.29175717 0.121165305 -0.07885215 -0.31788573 -0.28850174 0.000310593 0.09087355 -0.27759486 0.04977593 0.3052337 0.12647526 -0.1632954 -0.06231104 -0.10362441 0.12135266 0.062755644 -0.17507724 -0.26187852 0.14765719 0.12223479 0.0142683275 -0.006725684 -0.039741278 -0.11269584 0.12213598 0.070619695 0.10077283 -0.40213785 0.08138133 -0.07447554 -0.3340618 -0.06479364 0.26783675 0.15963212 0.062722236 0.09247706 0.19234976 -0.014042312 -0.06010346 0.05409188 0.3602162 -0.0125734145 0.20976265 -0.30693212 0.11196193 -0.021384116 0.09048426 0.21303238 -0.1725673 -0.13054526 -0.16508858 -0.028674295 0.21930248 -0.14257184 -0.27866045 -0.07370103 -0.5939723 -0.070873626 -0.030426653 -0.074826844 -0.121654175 -0.042177994 -0.35304874 0.17878422 -0.033050817 -0.34779382 -0.19906864 -0.1107554 -0.230295 -0.028752385 -0.7293723 -0.30816478 0.42858344 0.006337224 0.097970285 0.19937412 -0.37924865 -0.11495015 0.008302804 -0.029762162 0.16853218 0.10875912 0.25302178 0.28466886 0.061770912 -0.49696338 -0.16569363 -0.06898734 0.33554575 0.019583525 0.16928616 0.19424705 -0.08373184 0.16968465 0.4839183 0.10445464 0.003396404 -0.011248872 0.14843033 0.21699664 -0.03997731 -0.02356453 0.08432191 0.2041449 -0.16523914 -0.10522832 0.016332747 0.13526626 -0.49026024 -0.3041563 0.16022399 -0.065339886 0.12123319 -0.37765595 0.12682043 0.055472195 -0.24736121 -0.020993905 -0.014779551 -0.13029471 -0.12392571 -0.015627919 -0.024498975 0.17613682 0.39505407 0.10641799 0.054724287 0.08645093
34 0.013753805 -0.20288089 0.02479946 -0.1594279 -0.277218 -0.33097333 0.062183663 0.09073966 0.19361891 -0.15958418 -0.067666024 -0.41161138 0.10547016 0.086389996 0.31218046 -0.15322374 0.03389776 -0.25430483 -0.006141729 0.16994943 0.03848794 0.12280737 -0.09960111 0.03285368 0.12283442 -0.13442157 -0.25459757 0.014210696 -0.12653509 0.059455648 0.04871946 -0.057932124 0.3560973 -0.21931815 0.12940903 -0.03936106 0.19443804 0.025950825 -0.059372857 0.09764203 0.27464724 0.15147413 0.09649694 -0.09677804 -0.23153841 -0.1851888 0.005438296 0.057715014 0.09504204 -0.227626 0.31350803 -0.2989082 -0.102319874 -0.13619167 -0.042234473 0.079060264 -0.1451874 0.12366213 -0.13884777 -0.26433623 -0.23596825 -0.16228999 -0.2000336 0.3015162 3.7220034e-05 -0.4079475 -0.06763568 -0.07739844 -0.16439898 0.09594984 -0.5815618 -0.35328907 0.1896286 0.26370236 0.021203913 0.14935243 -0.4347027 -0.18119153 0.08830204 0.050715107 0.19677319 -0.022151168 0.35855502 0.42702663 0.028925031 0.025979713 -0.048785158 -0.15643616 0.12638657 0.116759695 -0.051878776 -0.06565344 -0.13023436 0.33556482 0.35571957 -0.18757588 0.030574616 -0.20370856 0.25266886 0.20861922 -0.15438153 -0.22165646 -0.030602267 0.28720102 -0.18390602 -0.102591194 -0.25645098 0.11253862 -0.15565427 -0.00294187 0.07344105 0.087825425 -0.12893516 0.024370901 0.09684513 -0.06299886 0.1022148 -0.0094776405 0.026883822 -0.01224289 -0.09119104 0.010221172 -0.5166635 0.006239426 0.21783188 -0.23605047 -0.14634357 -0.06657255
50 0.10401489 0.3862457 -0.014066759 -0.17800137 -0.46965012 -0.03395297 -0.111659646 -0.11214171 0.14657407 0.19664472 0.23193498 0.15961803 0.17099342 -0.11537224 -0.0055335737 0.256729 -0.15211694 -0.15742117 0.31791604 0.016685197 -0.16313964 0.15286362 0.01364351 -0.3487815 -0.09160642 -0.23938496 -0.030894391 0.22435193 0.21070147 -0.20293818 -0.16995358 -0.37294567 0.2724042 -0.13140878 -0.41598845 -0.13905303 -0.047785446 -0.1390942 -0.17696013 -0.009800251 0.23240606 -0.21016295 0.28105396 -0.38733816 0.06598921 0.06308449 -0.13887319 0.010932856 -0.43041378 0.03030395 -0.09177552 0.29947144 -0.11164811 -0.37019622 -0.058770962 -0.13632397 0.13270871 -0.33141625 -0.22067876 -0.20884688 -0.5909869 -0.33479622 0.19350477 -0.043596156 -0.17702685 0.13288616 0.12492279 0.009024473 -0.13282299 -0.14031164 -0.13628094 -0.40695596 -0.11374901 0.3358252 0.27662382 -0.3219809 -0.437521 0.28225377 -0.034838844 0.17188534 -0.09719235 -0.008572187 0.34275424 0.24160853 -0.20363922 -0.24715371 -0.27773058 0.09624019 -0.10674841 0.007816343 0.08324425 -0.15005945 -0.045452215 0.3620181 0.06796504 -0.19937377 -0.5167465 0.11945316 -0.42937556 0.53339434 -0.056699105 0.0015673026 0.027084319 0.014304928 -0.11986771 0.07454403 -0.51077086 0.19908302 -0.3557604 -0.07170295 -0.41460142 0.020694766 -0.074128605 -0.04289368 -0.1550942 -0.038264338 -0.10003466 0.75791943 0.402361 -0.052046116 -0.25829598 0.099593 0.03398957 0.123285286 -0.22263134 -0.17910893 -0.26467964 0.36214483
709 -0.022917977 0.32423025 0.17626636 -0.19164139 -0.37723 -0.13424177 -0.1395271 -0.18177012 0.3013945 0.13154365 0.15057951 0.17484763 0.112339966 -0.21336983 -0.23066972 0.08883439 0.002589171 -0.12287751 0.39270732 -0.040558502 -0.015311039 0.17170241 0.07687832 -0.24891606 -0.08590886 -0.099774405 0.08517499 0.10764497 0.170303 -0.02912744 0.04260747 -0.26724762 0.34848267 -0.077717215 -0.43401432 -0.058238875 -0.22794262 -0.08744389 -0.1521452 0.029562857 0.054259587 -0.3439848 0.22207403 -0.41969326 0.0069547063 0.01370402 -0.17620037 0.07285865 -0.504529 0.041356035 -0.10815702 0.19986707 -0.006980754 -0.18783063 0.07195273 -0.09484509 -0.012555033 -0.24224027 -0.29317027 -0.023670947 -0.58197415 -0.24875763 0.10977999 -0.13335928 -0.17037101 0.10142134 0.13950782 -0.018677743 -0.06568814 -0.08017937 -0.080428176 -0.53901833 -0.21872897 0.42806655 0.4587288 -0.325434 -0.35919008 0.42719066 -0.0281052 0.2291069 -0.04577383 -0.07830737 0.28799716 0.38647956 -0.19649398 -0.14759858 -0.20654526 0.110580765 -0.024397055 0.015930982 0.119293556 -0.19375476 0.03575667 0.19553636 0.04569018 -0.2675029 -0.35005364 -0.05597533 -0.36801884 0.6374237 -0.2076644 0.19804476 -0.14463212 0.021660414 -0.25513786 0.0072562564 -0.36320728 -0.06306761 -0.4932748 -0.22198448 -0.1802641 0.03192337 -0.116291046 -0.13645454 -0.018453483 -0.07247697 -0.028233511 0.7468288 0.555721 -0.09897379 -0.44354457 0.00032288476 -0.113148406 0.24436125 -0.0551998 -0.063303545 -0.22383504 0.40703574
928 -0.029953476 0.251262 0.07597806 -0.1571846 -0.37882033 -0.02082853 0.013172406 -0.15893248 0.24747014 0.07898156 0.30943426 0.22988407 0.10941571 -0.17613204 -0.19464351 0.14149942 0.021555623 -0.09123701 0.40305385 -0.13186462 -0.19431327 0.040813975 0.007281563 -0.18369873 -0.21073793 -0.12733474 0.058470327 0.24253629 0.14718445 -0.070037045 0.010667094 -0.3551797 0.23783557 -0.18304609 -0.31933534 -0.06372109 -0.18506576 -0.09942139 -0.20152204 0.062659524 0.09406858 -0.22732416 0.18978249 -0.49404308 0.002918048 0.11016979 -0.05608572 -0.019536227 -0.45592543 0.0011317224 -0.20783092 0.119629286 -0.104448736 -0.30168322 0.10137974 -0.20385736 0.027581142 -0.23414148 -0.29577148 0.001670831 -0.47817266 -0.26530355 0.052760534 -0.18595809 -0.06380862 0.095617875 0.09817607 0.14026706 -0.1148855 -0.00550177 -0.22768022 -0.31770557 -0.1405731 0.47280014 0.36364064 -0.32899377 -0.4854527 0.43476266 -0.074978344 0.24840963 -0.054956783 -0.16739823 0.46355557 0.33184403 -0.19642337 -0.33540383 -0.21605861 -0.013914702 -0.04936401 0.031916585 0.24061278 -0.062278904 0.1265246 0.11291271 0.029221885 -0.17708267 -0.48046133 0.13007352 -0.40075597 0.66411215 -0.09722656 0.22267307 -0.09961253 0.001640182 -0.31333664 0.18551531 -0.4938918 0.056167908 -0.46555164 -0.2851579 -0.27867174 0.026513938 -0.21858184 -0.100713015 0.084696956 -0.17861433 -0.17689732 0.7172373 0.42535406 -0.13356578 -0.24059649 0.07050344 -0.054453112 0.015071081 0.012267323 -0.24569212 -0.22205807 0.28991953
770 -0.01982209 0.348266 0.103548184 -0.115238324 -0.34050992 -0.04709771 -0.096361965 -0.13366312 0.21772432 0.22020021 0.17573895 0.18960294 0.14027831 -0.08560989 -0.15531984 0.23132646 -0.0013153132 -0.18273272 0.40087113 -0.08111517 -0.15640393 0.14423305 0.114482984 -0.38341245 -0.10221044 -0.13950333 0.08448441 0.13655055 0.20847808 -0.07721438 -8.056656e-05 -0.28422755 0.3127327 -0.14468113 -0.4270854 -0.055383522 -0.24030085 -0.19793853 -0.12062256 0.05462924 0.11325474 -0.2640157 0.266341 -0.31759334 0.052185375 0.01467797 -0.123945616 0.0073701222 -0.497312 0.07226663 -0.15220584 0.13211076 -0.10533867 -0.2497676 0.10314228 -0.10833411 0.10364002 -0.2470599 -0.17636375 -0.06762123 -0.5684108 -0.25790912 0.12347925 -0.11960621 -0.106726445 0.12137058 0.18972014 0.07484088 -0.122733496 -0.0041607684 -0.20426717 -0.38621858 -0.13409682 0.45255694 0.3786486 -0.33622104 -0.3697245 0.27150592 -0.019393865 0.22719157 -0.08726513 -0.0777232 0.25266835 0.46864197 -0.3388367 -0.18841583 -0.26857328 0.060216356 0.051214088 0.05151646 0.1969647 -0.08834972 0.027227744 0.19803128 0.050414536 -0.2132024 -0.4519616 0.021183595 -0.33156097 0.6395262 -0.15552408 0.17599158 -0.078103796 0.025693417 -0.22247379 0.11532419 -0.41765878 0.040656455 -0.44482777 -0.26594707 -0.18021972 0.061770227 -0.12647322 -0.15230605 -0.020686237 -0.13857912 -0.05930569 0.80301017 0.4452111 -0.031184733 -0.4048777 0.023425698 -0.092440926 0.09092413 -0.1336881 -0.17941795 -0.23029824 0.36349937
763 0.03050568 0.41800788 0.07381227 -0.12763643 -0.43890586 -0.03320159 -0.029340567 -0.1524589 0.33406642 0.21461485 0.30024785 0.24972884 0.10552937 -0.21856338 -0.24216537 0.197633 -0.14100303 -0.08901078 0.28409824 -0.1226317 -0.19214994 0.14019105 0.10625929 -0.35498512 -0.13886334 -0.16261868 0.065427415 0.07524737 0.21611826 -0.108038545 -0.10988054 -0.37349984 0.36244512 -0.17948592 -0.31689268 -0.15030272 -0.13564242 -0.1423051 -0.11061794 0.047604825 0.17358994 -0.38582084 0.25338045 -0.42092678 -0.058917724 -0.046676062 -0.19559123 -0.004872171 -0.5133942 -0.124036215 -0.18471512 0.24879907 -0.03345994 -0.30810896 0.056921836 -0.13424572 0.11129847 -0.1912297 -0.21893552 -0.052797794 -0.6354403 -0.2216653 0.044680186 -0.11230258 -0.07300856 0.14385033 0.11651965 0.13202685 -0.022667106 -0.014265545 -0.15780711 -0.31248745 -0.05809707 0.43797007 0.4075325 -0.37317842 -0.2941845 0.26329997 -0.13085715 0.22793785 0.02460665 -0.111260176 0.35194373 0.4561301 -0.20742424 -0.1594085 -0.1609424 0.01992859 0.04251934 0.090306036 0.13282298 -0.19503173 0.062060826 0.19826798 -0.042661894 -0.2748782 -0.40093794 0.08257154 -0.2358301 0.51611567 -0.07229717 0.13877435 -0.14186287 0.16673502 -0.27314496 0.054879725 -0.41936433 0.024632365 -0.49754834 -0.18881658 -0.18294439 0.085729524 -0.09558259 -0.014837164 -0.007339499 -0.06548417 -0.021994298 0.8480256 0.48349375 -0.094883665 -0.4383183 0.028826501 -0.068618976 0.024307417 -0.11037528 -0.30054957 -0.16768163 0.2865545
310 0.107835904 0.38770998 0.073568076 -0.15146813 -0.35104665 0.002662474 -0.18032835 -0.10956098 0.239008 0.13279784 0.2127582 0.25096813 0.11240957 -0.15163018 -0.19762737 0.18517545 0.07662083 -0.123750225 0.31676462 -0.0015458056 -0.18100515 0.15766016 0.020575784 -0.27764452 -0.15857895 -0.14892367 0.13084067 0.30582154 0.23306122 -0.078518875 0.021770425 -0.2690353 0.21801327 -0.058470864 -0.34597865 0.0039544897 -0.16490799 -0.1656459 -0.20439056 0.04283004 0.030568713 -0.33849254 0.20321186 -0.31349322 -0.016319634 -0.0062731644 -0.14827724 0.022269106 -0.5034543 0.09994644 -0.101352714 0.21804298 -0.13088131 -0.2747534 0.09153781 -0.29620424 0.1001303 -0.3023574 -0.10234448 -0.12315085 -0.46697047 -0.26914498 0.0741168 -0.070649624 -0.14512073 0.13307343 0.13222452 -0.0055387174 -0.19716053 -0.03697507 -0.1518674 -0.4085707 -0.09509315 0.51943314 0.40847048 -0.3291107 -0.47509876 0.26995885 -0.11013059 0.24291678 -0.08075723 -0.019935038 0.2760332 0.3193929 -0.23797694 -0.30566224 -0.1512055 0.027833879 0.023091447 0.018707097 0.20392986 -0.07090745 -0.014292969 0.27780735 0.021991616 -0.1666398 -0.5179202 0.0879659 -0.31368077 0.6274258 -0.18270963 0.100836284 -0.07311523 0.20411214 -0.2644951 0.11467719 -0.41087586 0.05780358 -0.42003646 -0.26853964 -0.33610815 0.10068763 -0.090295754 -0.08169815 -0.012467345 -0.26053634 0.02357951 0.73713815 0.3706279 -0.25218984 -0.20872562 0.123978876 -0.18474598 0.06614246 -0.13193692 -0.22624476 -0.22477394 0.4038477
594 0.11249346 0.37950316 0.069072686 -0.1240369 -0.464141 0.012888934 -0.038881794 -0.099135935 0.16722088 0.09458416 0.17862411 0.1742672 0.10931296 -0.18683039 -0.04582015 0.18395354 0.13038616 -0.1118841 0.37079078 -0.09384667 -0.15608393 0.09514851 0.023278069 -0.315576 -0.11548396 -0.16181017 0.018229026 0.16704178 0.17771563 -0.030811153 -0.13739638 -0.439819 0.31274775 -0.067812994 -0.41377792 -0.046865538 -0.2034873 -0.15729523 -0.11793651 0.028125169 0.1874748 -0.2272529 0.20731567 -0.40077782 0.038762122 0.07255888 -0.1694793 -0.00073897344 -0.44813207 -0.026092911 -0.13518459 0.2453308 -0.09573403 -0.32259032 0.014225806 -0.07824162 0.13986619 -0.3381038 -0.25279903 -0.024451612 -0.5480581 -0.18827651 0.13459963 -0.04542047 -0.19408718 0.1390694 0.22638826 0.11694817 -0.1335668 0.024802664 -0.13909255 -0.4770036 -0.1078734 0.42263362 0.42057693 -0.3783266 -0.4499723 0.21170045 -0.06857721 0.271325 0.04207045 -0.07513112 0.39196733 0.39233345 -0.29291838 -0.10632182 -0.17700742 0.007587061 0.08354264 0.06357826 0.22889544 -0.06363258 -0.027502328 0.18142383 0.030539202 -0.2565129 -0.39516553 0.08235604 -0.28950894 0.50827676 -0.10112412 0.1748428 0.03618036 0.066691525 -0.23390304 0.17398119 -0.3702618 0.14394182 -0.41295558 -0.052061133 -0.24876282 0.06893037 -0.05501248 -0.12926632 -0.009060246 -0.1891836 -0.07768243 0.7337213 0.42411622 -0.08657853 -0.4082783 0.051262446 -0.13466407 0.17983131 -0.23166263 -0.24775389 -0.3044956 0.48032752
168 0.06596829 0.35023552 0.09079914 -0.13723381 -0.3921072 -0.08952386 -0.14133143 -0.20405151 0.3526982 0.10402828 0.2452164 0.17489977 0.06655107 -0.13747406 -0.1108571 0.1915837 -0.013425391 -0.14694086 0.36888063 -0.075082816 -0.14735998 0.13434678 0.047259495 -0.34237796 -0.15015382 -0.13292284 0.15710051 0.15736376 0.18185325 -0.10686765 -0.026341679 -0.31959084 0.2589567 -0.15772137 -0.38069388 -0.06381031 -0.18633166 -0.22686166 -0.14428802 -0.039326884 0.033306975 -0.30418286 0.14694613 -0.35938728 -0.021355698 -0.0146333575 -0.1646799 0.07227819 -0.43554983 0.07670046 -0.16789205 0.1784947 -0.027975608 -0.20781566 0.12676091 -0.18686128 0.043481432 -0.2780155 -0.21137269 -0.043539397 -0.5722243 -0.20962411 0.11326934 -0.11384172 -0.07561566 0.09221171 0.09903051 0.09167059 -0.1363245 -0.017345611 -0.20186928 -0.40498888 -0.12462523 0.3964245 0.385689 -0.39225742 -0.47747 0.3198149 -0.08148118 0.19324474 -0.014498024 -0.07209046 0.27110073 0.41691846 -0.22058432 -0.21503238 -0.1969745 0.11480131 0.027053975 0.077195294 0.23347345 -0.10586933 0.030909518 0.24790713 -0.027639115 -0.20730095 -0.41067538 0.07815261 -0.29894814 0.63280064 -0.10666318 0.15630193 -0.099118754 0.083651885 -0.28437957 0.11942657 -0.41168532 0.01817962 -0.46374974 -0.17010684 -0.24533021 0.101866215 -0.16332065 -0.07627302 0.0016882354 -0.20738046 -0.057166558 0.7147401 0.40707433 -0.17451766 -0.38894904 -0.0013186857 -0.09886772 0.018918343 -0.18766181 -0.264505 -0.28200218 0.40219167
466 0.06955533 0.37188372 0.13446856 -0.1964117 -0.3209499 -0.060678326 -0.021031298 -0.13099353 0.23038088 0.19270778 0.21342188 0.15748407 0.16669962 -0.104499005 -0.20337504 0.21123643 0.030961769 -0.124006264 0.41070676 -0.06382784 -0.054280948 0.118697606 0.0637881 -0.312788 -0.13365357 -0.12365848 0.059913315 0.18144976 0.18571977 -0.052663837 -0.05730904 -0.29515392 0.2305594 -0.21436043 -0.35033572 -0.045195725 -0.2274888 -0.1567724 -0.13938828 -0.0048120003 0.030029831 -0.28341612 0.2126821 -0.35939777 -0.0076613734 0.02564786 -0.14333133 0.015639953 -0.4900011 0.06767434 -0.16601226 0.16394526 -0.12538515 -0.29162332 0.085873075 -0.20518954 0.04635572 -0.18434107 -0.27110332 -0.014232194 -0.49382573 -0.19476199 -0.0014390404 -0.05040301 -0.067420155 0.14576621 0.19883567 0.12586397 -0.10336764 0.028079374 -0.19895975 -0.3461511 -0.119179115 0.40924916 0.3731097 -0.37463933 -0.40874085 0.30477402 -0.11982006 0.2980074 -0.05477706 -0.054933883 0.3545654 0.39679968 -0.28919628 -0.14752233 -0.22822134 0.089608714 -0.015646664 0.07744853 0.11817326 -0.16540876 -0.025852839 0.24351558 0.04997398 -0.1411646 -0.47506607 0.16412991 -0.33577496 0.5665061 -0.17520818 0.10772183 -0.030575749 0.061230615 -0.20545651 0.09966475 -0.38070455 0.042155217 -0.48633027 -0.19089939 -0.25351092 0.1486188 -0.14199442 -0.27515063 -0.018864265 -0.2077348 -0.06138122 0.78185046 0.53316885 -0.12622257 -0.4128948 0.02066738 -0.0841873 0.059560828 -0.11545123 -0.20331271 -0.27581277 0.43221164
834 -0.039005622 0.35046828 0.053055447 -0.1241124 -0.4020833 -0.1678535 -0.04237262 -0.09574589 0.21842115 0.12114473 0.12302339 0.22782597 0.12760937 -0.09978187 -0.168497 0.24830715 -0.0075288676 -0.058482125 0.37036717 -0.02123768 -0.0779376 0.14173497 0.12798017 -0.3781832 -0.04455917 -0.1145817 0.08337778 0.23481779 0.24114189 -0.052557085 -0.03666939 -0.32478616 0.3015996 -0.11342307 -0.35528064 -0.059902262 -0.2579837 -0.25870723 -0.1818319 -0.009958925 0.050401706 -0.26575354 0.1774642 -0.3692065 -0.005439152 0.041243076 -0.14102165 -0.07858993 -0.55170685 -0.06975629 -0.1346976 0.13813229 -0.038179222 -0.25240323 0.06708988 -0.15893939 0.058329813 -0.25278693 -0.20165159 0.022310363 -0.5562739 -0.2700478 0.09850516 -0.068548106 -0.08910694 0.08662937 0.260192 0.08785249 -0.08415073 -0.11730142 -0.18940654 -0.52876985 -0.08053482 0.40840226 0.42061356 -0.2989099 -0.45393154 0.34051183 -0.049946208 0.21565253 0.0006868026 -0.010206871 0.32468057 0.4274977 -0.30439222 -0.13348714 -0.22311491 0.1042912 0.028178735 0.0170842 0.25635424 -0.15132357 0.018232154 0.22445036 -0.03135542 -0.25508738 -0.4410162 0.1446139 -0.3288167 0.5384135 -0.087113775 0.12285716 -0.06980086 0.07719046 -0.22993195 0.11687707 -0.39476112 0.012803327 -0.5062325 -0.10974811 -0.22145279 0.025610888 -0.18350112 -0.07217042 0.0057759923 -0.12245621 -0.11849591 0.75664675 0.48594016 -0.20574155 -0.40093347 -0.020571023 -0.068387926 0.043425404 -0.121273406 -0.20975836 -0.27009347 0.43332124
147 0.02238633 0.32133916 0.02966518 -0.14573196 -0.25968552 -0.10866367 -0.11596495 -0.11681661 0.29530448 0.03134711 0.21750124 0.009104882 0.08064815 -0.13867882 -0.15662321 0.2660685 0.06351328 -0.12586853 0.30410025 -0.11714055 -0.09661514 0.29768208 0.13363634 -0.35418049 -0.043858286 -0.23055327 0.0043101585 0.16468625 0.24988167 -0.059435062 -0.08863306 -0.33633712 0.3528517 -0.17369953 -0.2401661 -0.060205292 -0.15285434 -0.118627094 -0.18771829 -0.11785973 0.09341484 -0.3086642 0.1310719 -0.47678062 0.16461931 0.037688233 -0.28840297 0.04208149 -0.50317407 0.039097235 -0.20386565 0.04563368 -0.16820562 -0.33445963 0.14002146 -0.18664797 0.20902395 -0.36448005 -0.17956726 -0.09883494 -0.56744623 -0.15821722 -0.0855398 -0.10131798 -0.14510287 0.08802926 0.10506239 -0.0143755125 -0.026215466 0.05471743 -0.112174354 -0.38578278 -0.108917214 0.3647364 0.3730197 -0.35249677 -0.45084834 0.28851053 -0.029480318 0.25944707 -0.035220213 0.056944214 0.31183574 0.5017777 -0.264922 -0.26559272 -0.15074027 0.10208056 0.012962891 0.11589576 0.23062547 -0.08298737 0.07178126 0.17161685 -0.08229639 -0.19889286 -0.4190541 0.066733815 -0.3952608 0.68882215 -0.10650506 0.14180353 -0.011754955 0.008762571 -0.31164426 0.11710092 -0.2691979 0.036666002 -0.3892768 -0.14364143 -0.07265455 0.019351019 -0.10988314 -0.032389686 -0.07082873 -0.14313729 -0.177392 0.87875056 0.41125828 -0.12392193 -0.2801064 0.013822065 -0.11583335 0.02388772 -0.15477268 -0.19383737 -0.24166776 0.4343188
221 -0.13061 -0.21344136 -0.06987563 -0.13772656 -0.46178347 -0.05831137 -0.007167599 -0.029948916 0.3856682 -0.13353583 -0.17927572 -0.33892664 0.04481125 -0.012296854 -0.39460284 -0.0031220578 0.07570283 -0.31354985 0.10735233 0.11956028 -0.16378789 -0.07106954 -0.46835995 -0.28492194 0.027992716 -0.36734757 -0.1083925 -0.30713412 -0.13662155 0.027022839 -0.08426292 -0.12205581 0.08436731 0.2719201 -0.18452191 -0.16977273 0.01874737 -0.40299913 0.117315784 0.42978862 -0.15205543 0.4209149 0.2169577 -0.28293726 -0.0032333476 0.11564353 0.22984965 0.1869236 -0.12952164 -0.15213762 0.2778758 -0.0989036 -0.104059026 -0.2041681 -0.28866866 0.4119376 -0.0991052 0.07500529 0.14331548 -0.44148177 -0.019188141 -0.09982482 0.19019982 0.014390227 0.046981737 -0.25418547 0.18036646 0.08940083 -0.061899718 -0.23644143 -0.42836276 -0.20386182 0.38723058 -0.009524017 0.23460518 -0.063909546 -0.3493974 -0.19485502 0.27126306 0.1448622 0.031968277 0.028725024 0.29609495 0.26137954 0.082528315 0.15297171 -0.07292516 -0.029753797 -0.07663444 -0.02842284 -0.1685635 0.17486277 -0.10255322 0.20994546 0.25029424 -0.15197016 0.13515304 -0.26188505 -0.12837598 0.091233365 -0.060412463 0.06790949 0.079404116 0.23180369 -0.13518791 0.040895514 -0.17282566 0.1331937 -0.065509684 0.2475329 0.0969006 -0.099173315 0.1229713 -0.35432452 0.18569492 -0.0018988213 0.18566787 0.34055308 0.22234757 0.24508217 -0.2895174 0.10102651 -0.12621655 0.13854025 0.2667756 -0.10876654 0.07344372 0.009270414
59 0.062015165 0.35573268 0.102540605 -0.11864249 -0.41351902 -0.038061816 -0.13995214 -0.11647889 0.21445876 0.0561199 0.29227176 0.15312716 0.04243739 -0.12102989 -0.15485936 0.21901724 0.026296435 -0.12195359 0.4198282 -0.07379105 -0.019756155 0.19055326 0.044808984 -0.3482907 -0.17693835 -0.13835476 0.071222685 0.22020634 0.16008691 -0.07678843 -0.007399066 -0.33286896 0.27191463 -0.12233672 -0.3399502 -0.12165109 -0.17804289 -0.15647371 -0.14258209 0.0064207213 0.077443704 -0.3916852 0.13714255 -0.33630675 -0.07867325 0.03732737 -0.17092197 0.050909635 -0.5308536 0.0030157755 -0.18558854 0.21736127 -0.061222974 -0.2996052 0.10144929 -0.26877886 0.06634386 -0.1616249 -0.2447269 0.09241191 -0.46028554 -0.20387325 0.14888877 -0.10238146 -0.06534085 0.106931865 0.08906028 -0.04619338 -0.15718977 -0.07880603 -0.13666949 -0.44682002 -0.049967203 0.49147978 0.40503538 -0.3364553 -0.46610484 0.26316896 -0.06553561 0.23206471 -0.009798597 -0.12882897 0.31671745 0.34004503 -0.18613167 -0.19593553 -0.15934162 0.09116504 0.05653627 0.030270964 0.22971302 -0.10052358 -0.025290132 0.18050306 0.023986222 -0.24798937 -0.41225848 0.1056767 -0.3244978 0.680141 -0.11423422 0.10289846 -0.07349649 0.10162393 -0.26404282 0.1047642 -0.47634113 0.03421492 -0.48651546 -0.28105053 -0.21749234 0.08160459 -0.16338773 -0.12357359 -0.0011428368 -0.21572664 -0.058922715 0.7698256 0.42062724 -0.12019407 -0.44319925 0.023089144 -0.10982379 0.03260907 -0.1424423 -0.23562504 -0.2810495 0.47397858
369 -0.039261837 -0.26906216 -0.053493317 0.12180581 -0.2649905 -0.34023497 0.06208242 0.20464572 0.034009703 -0.13698608 0.07143794 -0.54827666 0.07126417 -0.061081037 0.15597446 -0.14130615 0.0919589 -0.19101869 -0.108614616 0.12050142 -0.19508913 0.1699498 -0.20876516 0.038527872 0.15533248 0.07482898 -0.3819691 -0.0054193265 0.17376238 0.08689858 -0.2005623 -0.025966829 0.34877494 -0.290725 0.053213894 0.101787105 0.09649871 -0.1472324 -0.3181135 0.06692066 0.27353472 0.08226595 -0.11481054 -0.18540156 -0.078805186 -0.22114773 0.20386653 0.25305486 -0.07409129 -0.11332941 0.08508305 -0.32055697 -0.06517863 -0.07407831 -0.03993387 -0.06311213 0.029639104 0.16959591 0.005330557 -0.1461717 -0.050244275 -0.3532257 -0.06005757 0.2210588 0.037473544 -0.34904313 -0.17084636 -0.1496083 -0.0003013542 -0.051442504 -0.55066293 -0.5827674 0.3536292 -0.034505796 0.0477878 -0.1181404 -0.3086289 -0.2125452 0.23820333 -0.14627227 -0.01963748 0.14145689 0.06419102 0.39847308 -0.12480184 -0.13975063 -0.31249952 -0.03675144 0.0834944 -0.16443245 -0.055578135 -0.051835973 -0.086213514 0.23836789 0.17695248 -0.17632505 0.105884284 -0.20147341 0.43528828 0.5836971 -0.114959516 -0.15872754 0.05075329 0.16460139 -0.112249926 -0.0890297 -0.1325882 -0.18985859 -0.31948844 -0.06651755 0.06542979 0.14154576 0.07942014 -0.36641756 0.04925896 0.14860283 0.0030010736 -0.10211164 0.17128718 0.2951677 0.14066856 -0.020548042 -0.30802003 0.07429498 0.21208848 -0.12816225 -0.21575761 -0.06934837
867 0.23160107 -0.04840016 -0.1172834 -0.5003548 -0.36478677 -0.14236665 0.12665369 -0.18261237 0.07378443 0.097796164 -0.045698028 -0.16106439 -0.21798274 0.10587013 0.14253469 0.10239957 0.19688365 -0.39119893 -0.16889143 0.21452712 -0.027662573 -0.16973418 0.29792938 0.0066010295 0.07460362 -0.09393282 -0.12917587 -0.027926065 0.13469504 -0.18524678 0.032189 -0.16594665 0.1588124 -0.13200513 0.20843281 -0.13008125 0.16530883 -0.093077615 -0.067080975 0.09550434 -0.032397084 0.20592111 0.17018443 -0.18248968 -0.3969614 -0.188965 0.48849618 0.18880045 -0.07404256 -0.11462356 0.22230154 0.05222282 0.010906879 -0.22914132 -0.100348905 0.20471242 -0.21145056 0.20611942 -0.11539443 -0.35111856 -0.2654607 -0.20485397 -0.01953393 0.06309607 0.029305013 -0.28687957 0.054088347 -0.2572824 0.19393931 0.34786996 -0.6768345 -0.4186393 0.32120094 -0.06703171 -0.11378876 0.15551302 -0.45605415 0.13673617 -0.20990084 0.19254181 -0.111211844 0.4185191 0.13513619 0.2605549 -0.08350163 -0.07175641 -0.46461126 0.11276844 0.005923982 0.13323627 -0.08944965 0.4515034 0.061049342 -0.13136902 0.1513182 0.2108167 0.090504244 -0.18623336 0.052089732 0.015723871 -0.09127535 -0.30226874 0.09553637 0.13859138 -0.19462089 0.017659953 -0.37665886 -0.1553938 -0.18928184 0.05600417 0.18371896 0.116405554 0.073118575 -0.38762385 0.2742521 0.10594086 -0.15029456 0.23786788 0.31758854 0.077178776 0.0015749368 -0.050869945 -0.354748 -0.18714678 0.2852406 0.347927 -0.16422665 -0.13537551
670 0.04226872 0.12539412 0.006559469 -0.031477343 -0.6481038 -0.018405572 -0.25929147 -0.34579277 0.08857915 0.05749328 0.05587035 -0.05135096 0.13128589 -0.1810321 -0.07262006 0.33155337 0.059758108 0.08544447 0.07466421 0.1525414 -0.068304636 -0.010571982 -0.036256183 0.12821175 0.2705765 -0.10869325 -0.14199492 -0.15687177 0.031140586 -0.04161205 -0.39557597 -0.027141774 -0.0026621195 -0.38744172 -0.14323728 -0.7964758 0.14502391 -0.2882744 -0.163398 0.2597923 0.41920394 -0.13150519 0.15940261 -0.4530732 -0.23205154 -0.102153756 -0.18974517 -0.040272374 0.06422975 -0.19183455 0.2613333 -0.025162634 0.005010365 -0.31889036 -0.27369237 0.07042479 -0.264649 0.2588656 0.3874506 -0.18763226 -0.038191162 -0.17955934 -0.204908 0.5648934 -0.010256282 -0.22186905 -0.22375284 0.070267014 0.16911162 0.29743865 -0.29133096 -0.16002867 0.33380428 0.22177795 0.10540477 -0.055816405 -0.64972466 -0.30976617 0.16471909 0.23599003 0.10765287 0.2788238 -0.081420965 0.07637809 0.14349096 -0.453975 -0.36715934 0.065659866 -0.4283068 -0.06003371 -0.23350833 0.17309453 0.128611 0.23518135 0.23416682 0.086881585 -0.1287732 -0.06591063 0.29421145 0.22772284 -0.31741947 -0.43050647 0.2308894 0.14720474 -0.05668621 0.14742939 0.14624253 0.097316675 -0.077912144 0.09183039 -0.24388489 -0.05538752 -0.018028025 0.048039243 0.046275996 0.087577395 0.08325379 -0.08331986 -0.029737186 0.32662848 -0.1867568 -0.16585717 -0.41390085 0.20951365 -0.22266918 -0.052581683 -0.0054423776 -0.06934045
877 -0.04327871 0.29022527 0.016597878 -0.18457861 -0.36998802 -0.107367724 0.023565665 -0.13647884 0.24118346 0.18788216 0.22729722 0.15748294 0.29067186 -0.2729259 -0.073748425 0.21001516 0.056589365 -0.2374379 0.39239222 -0.1181828 -0.008215022 0.16226655 0.18010417 -0.388427 -0.19607547 -0.15531169 -0.015476573 0.06337824 0.19516961 -0.023487626 -0.13132928 -0.28459397 0.36881876 -0.090408385 -0.32344475 0.03468373 -0.24997209 -0.14297752 -0.06687783 -0.006337607 0.04841611 -0.34978226 0.28141394 -0.37089384 0.086963974 0.09860485 -0.18433248 0.11533266 -0.42887464 0.15164515 -0.037525475 0.28619257 -0.012286146 -0.3249822 0.03410115 -0.16024989 0.05690541 -0.32763055 -0.1612157 -0.16309917 -0.5558536 -0.25770846 0.1828749 -0.14259352 -0.118979745 0.15683313 0.1865342 0.13521798 -0.14258583 0.029072141 -0.12758888 -0.47707564 0.03422494 0.39606515 0.3806655 -0.36987615 -0.5186018 0.3625515 0.055583164 0.17824402 -0.08341567 -0.15553778 0.43058735 0.428627 -0.2917156 -0.122709215 -0.20217152 0.053955413 0.035634033 0.06440259 0.29417822 -0.04404319 -0.011581862 0.2118739 0.14177676 -0.28323334 -0.38074103 0.16977903 -0.37267098 0.65684056 -0.13024372 0.071308576 -0.036055587 0.19496472 -0.23512019 0.04463003 -0.2943447 0.19646136 -0.29773653 -0.040219277 -0.2641662 -0.06431786 -0.22541283 -0.07889284 0.0020620099 -0.09319035 -0.0021649275 0.7812625 0.421564 -0.08829773 -0.3817871 -0.0607738 -0.08558946 0.15413111 -0.13824762 -0.21080747 -0.34652212 0.3952682
351 0.15766591 -0.13805224 -0.09540302 -0.20602301 -0.2890346 -0.5226732 0.011805841 -0.22331534 0.42251572 0.016050372 0.14054334 -0.5142645 -0.21704148 0.029262235 -0.18572877 0.061337907 -0.07147811 -0.2967149 0.0010064465 0.40119007 0.05335834 0.15634258 0.00795199 0.20447907 -0.00093300076 -0.09748731 -0.073874965 0.13494469 -0.07313385 0.09780162 -0.15119793 0.21978489 0.4750189 -0.3118601 0.3135035 -0.12042567 0.04629052 -0.095784985 -0.091819204 -0.039315123 0.51859814 0.0817742 -0.032533012 -0.05606912 -0.25694147 -0.048450354 -0.013685687 -0.052786153 -0.12941638 -0.08913197 0.20701568 -0.06658602 -0.0036046882 -0.11117956 -0.002287336 -0.0649968 0.06985616 0.49887922 0.1557186 -0.45440927 -0.106908046 -0.08873942 -0.41036847 0.17983489 -0.043362737 -0.26669776 -0.46463445 0.27378058 -0.39943063 -0.14961047 -0.5199943 -0.07598383 0.2947066 -0.14430162 -0.18146782 -0.08195377 -0.18570022 0.12685198 -0.15831089 -0.03217422 0.006380001 0.12774374 0.24283212 0.48864114 -0.115908176 0.070928946 -0.25930953 3.2759155e-05 -0.2370011 0.01901756 -0.016939212 -0.07512844 -0.019856326 0.011648326 0.21006878 -0.04706725 -0.2154161 -0.07924126 0.5725735 0.2811233 0.00051963335 -0.06948406 -0.091776595 0.20717883 -0.38586757 -0.08037591 -0.07497207 0.024390876 -0.16222681 0.020369526 -0.07231719 0.092163056 -0.010276923 -0.1252615 0.15647972 -0.11834933 0.112374134 0.010450872 0.093704976 -0.11751596 -0.099220075 0.25675085 -0.32726786 0.30852547 0.4505054 -0.057882138 -0.14008443 0.1778089
964 0.21378826 -0.18868886 -0.19118722 -0.272708 -0.2784473 -0.18808167 -0.0033929143 0.0007722493 -0.03798785 -0.054479353 0.120480664 -0.41620597 -0.07914104 0.041484874 0.050428275 0.08079829 0.09524766 -0.24986862 -0.11048107 0.10221502 0.0797294 0.04025233 -0.046328407 -0.1890886 0.17926422 -0.06268063 0.052212674 -0.091117285 -0.17531301 0.26807484 -0.1411821 0.27104285 0.46171188 0.09378163 0.069239534 -0.041551232 0.2621558 -0.10850023 -0.11685563 0.13031049 0.42205226 -0.0444006 -0.011775716 -0.15172341 -0.158784 0.13546264 -0.03410061 -0.12298199 -0.37115178 -0.13257217 0.05616383 -0.32279387 -0.041935187 -0.01238042 -0.20764685 0.08345244 -0.23501456 0.3514727 -0.013827211 -0.2987291 -0.077771835 -0.02470465 -0.27578318 0.318129 -0.28354117 -0.16999069 -0.24106869 -0.028021537 -0.27833644 -0.08006785 -0.40045708 -0.35161868 0.15937182 0.36651433 0.119587384 0.1800618 -0.14394283 0.16173781 0.2190458 0.13395956 0.09986252 0.16011673 0.039352685 0.22933471 0.03503819 -0.15055892 -0.38322863 -0.32821864 -0.15359043 -0.113670066 0.093803845 -0.05857448 -0.09193831 0.049592424 0.29150757 0.003263019 -0.05667733 -0.19847563 0.4487261 0.40253934 0.062693596 -0.26101482 -0.20991497 -0.047230497 -0.23852232 -0.12041465 -0.29919347 -0.14296263 -0.07368272 -0.27494988 0.07269411 0.32967427 -0.07783494 -0.15455726 0.20324081 -0.33207625 -0.05140118 -0.12458785 0.14103763 0.110340565 -0.04816744 -0.12931496 -0.31841788 0.12014359 0.156512 -0.3594381 -0.12050293 -0.25871018
273 0.19072457 -0.041421797 0.107367866 -0.30069527 -0.23409754 -0.21496154 -0.045744542 0.01602588 0.11621184 -0.1539846 -0.08759197 -0.20868346 -0.1174639 -0.006723338 -0.02411376 -0.0050423373 -0.08753527 -0.011804144 -0.41871676 0.09701814 0.051669266 0.034038343 -0.09293457 0.2225178 0.33799443 -0.20488057 -0.06964543 0.07569645 0.13976057 0.41614708 -0.08176657 -0.02591131 0.30914858 -0.18145643 0.031721365 -0.07461944 0.18481968 -0.06286532 -0.1365369 -0.047200143 -0.007702144 0.23996718 -0.03300944 -0.16955493 -0.09375094 -0.0660144 -0.16472067 -0.20596682 -0.2108456 -0.23851484 -0.06284888 -0.474037 -0.124001 -0.09236658 -0.04309875 -0.16812809 -0.14633487 0.2606242 0.08347081 -0.26853186 -0.061302174 -0.08967696 -0.33202326 0.2504384 -0.35144404 -0.21802151 -0.16239794 -0.24701388 -0.22443932 0.060940657 -0.34595618 -0.53072643 0.3087638 -0.0453005 -0.09549872 0.064013325 -0.31565657 -0.08393995 0.060872413 -0.0883814 0.047214657 0.18641037 0.1023566 0.22862372 -0.124285474 -0.11719025 -0.08616721 -0.055547345 0.18141873 -0.034059122 -0.11197641 0.016959293 0.10833143 0.0839297 0.027740316 -0.12948753 -0.38120165 -0.058554895 0.31494424 0.19669485 0.03562114 -0.2581794 -0.35716003 0.24647708 -0.388816 -0.36220208 0.044773508 0.1325829 0.009766442 -0.21770015 0.27769122 0.21884252 -0.058339607 0.041175924 0.01424596 0.028499302 -0.18969521 0.27458966 0.03444311 -0.18608613 -0.05880163 0.078816384 -0.27293715 0.09754796 -0.13752836 -0.31687996 -0.16382672 -0.09456913
672 0.029944295 -0.20735371 -0.078078076 -0.1704277 -0.21904476 -0.31742078 0.0150219025 -0.0007994508 0.040897116 -0.12592618 -0.117564805 -0.44830236 -0.07247039 -0.06140759 0.0386565 -0.09176419 0.017368931 -0.12822576 -0.015229099 0.17564617 0.080223374 0.014946153 -0.17968707 -0.011582855 0.14161535 -0.15651628 -0.29412535 0.028261254 -0.10762959 0.13312556 -0.010123222 -0.023743868 0.35289758 -0.100068584 0.13186772 -0.062410437 -0.007989999 -0.09081193 -0.10315452 0.045160014 0.30003458 0.17001906 -0.0869386 -0.18530278 -0.2818498 -0.2235619 -0.03441599 0.09316358 -0.06458807 -0.18928151 0.19685908 -0.2904015 -0.084701575 -0.058252428 -0.1406427 0.09212916 -0.21933672 0.13701072 -0.012911933 -0.2495069 -0.12479887 -0.15602882 -0.22206031 0.16944836 -0.11909505 -0.22983794 -0.11221303 -0.037446193 -0.08160896 -0.024457237 -0.65087205 -0.3689195 0.14360857 0.1565543 -0.005597478 0.03452684 -0.24386741 -0.06613535 0.0033252782 0.0305141 0.0121396305 0.14885847 0.37911993 0.35053712 -0.0008724334 -0.0464336 -0.1828394 -0.0075887963 0.042302407 0.027489558 0.019380137 0.081881925 -0.14048675 0.16821252 0.21309537 -0.109043606 0.0026797676 -0.12620509 0.41452163 0.3983833 -0.023634294 -0.18358359 -0.20925638 0.266262 -0.4000354 -0.09291651 -0.20985399 0.035967465 0.017731445 0.09984371 0.1633709 0.14712398 -0.010466382 -0.07495433 0.18234248 -0.020226814 -0.049576472 0.039612126 -0.030165091 0.10244397 0.02315509 -0.012412841 -0.3320678 -0.022699263 0.094618954 -0.2514756 -0.36253688 -0.10708351
280 0.20451753 -0.27616376 -0.18628146 -0.23978329 -0.382571 -0.18315811 0.025272552 -0.09556518 0.28152865 0.19412416 0.010188709 -0.16507825 0.021250254 0.107405365 0.059775002 -0.20324552 0.13978778 -0.21289524 0.018891135 0.071585774 0.060950145 -0.0032677974 -0.26590267 0.098504856 0.177791 0.0029652442 -0.11448588 -0.036120825 -0.09207547 0.2564434 0.06522485 0.11158805 0.24951327 -0.2745312 0.14451714 -0.1605303 0.15314408 -0.27235958 0.00531316 -0.06580927 0.33140436 0.08251891 -0.023992116 -0.29639778 -0.03177421 -0.44085994 0.037332848 0.053138714 -0.15240994 -0.18010285 0.22299322 -0.19060823 -0.023886824 -0.01971895 -0.20029679 0.1089945 -0.3437659 0.06014262 0.031180523 -0.11304861 -0.03293288 -0.29138738 -0.36545953 0.10126085 -0.2890401 -0.31566966 -0.37762868 -0.039768875 -0.14275044 -0.09299075 -0.38575757 -0.47009942 0.1355114 0.13470615 -0.13294485 -0.11528348 -0.07726177 -0.2929674 0.20299354 0.056180567 0.19838682 0.10616927 0.1610872 0.3976916 -0.31983992 -0.113806546 -0.39907756 -0.08965359 -0.15443102 -0.025535189 -0.12122951 0.040639777 -0.18221162 0.08535851 0.32815957 -0.09595291 -0.12348472 0.07209361 0.58326024 0.24044928 -0.12767355 -0.20921326 -0.18113767 0.41674286 -0.31100655 -0.16492975 -0.2559983 0.03183032 -0.03692009 -0.0690801 0.12581153 0.08586181 -0.11116853 0.00077341264 0.25579256 -0.085185975 -0.10315926 0.02567397 -0.03214139 -0.031457637 0.11812718 0.17691095 -0.11883858 0.1437794 0.00891179 -0.35506308 -0.28953385 -0.037192274
341 0.046061713 -0.079944365 -0.20818047 -0.29058498 -0.33476484 -0.29003957 0.117970005 -0.14718881 0.076719835 -0.0015100308 0.04980744 -0.25783244 -0.078547895 -0.06681386 -0.02142146 -0.039574012 -0.1087079 -0.08215535 0.033253517 0.13112669 0.21272951 0.14883849 -0.107209645 0.06258317 0.19991843 0.055990253 -0.22753038 -0.046505507 -0.24204364 0.3358782 -0.11570935 0.10684322 0.41452655 -0.12824227 -0.062086437 -0.049899787 0.053806864 -0.017750073 -0.10946544 -0.059310056 0.26808357 0.28238437 0.050681673 -0.2833986 -0.27811253 -0.21897377 -0.001411002 0.014695287 -0.23502651 -0.19035207 0.0046304893 -0.2354622 -0.12294309 -0.06809437 -0.13205169 -0.02883081 -0.3435979 0.20028998 0.06452579 -0.18539892 0.06864652 -0.15599681 -0.18224409 0.18947159 -0.15559585 -0.32010162 -0.22505915 0.04790729 -0.22501212 0.007962304 -0.69643307 -0.34699777 0.11696861 0.062367115 -0.043655436 0.04235818 -0.19414502 -0.067290165 0.07522053 0.015402201 0.018765446 0.13390362 0.19697912 0.2895772 -0.24328873 -0.12371612 -0.25093406 -0.061830055 -0.06831091 0.077433266 0.03464812 0.08312545 -0.033064403 0.12573326 0.29677865 -0.09441087 0.019735811 -0.055178892 0.47419327 0.20617917 0.0713042 -0.28290153 0.0822992 0.23458636 -0.22476047 0.009585872 -0.20521435 0.082891464 -0.2161647 -0.08646482 0.34627986 0.086459756 -0.34604704 -0.22751412 0.15753245 -0.1783673 0.017536327 0.075711526 0.011980572 -0.06292572 0.040290438 -0.0723934 -0.36930484 -0.014222694 0.13918522 -0.24857025 0.036941167 -0.046103835
337 0.31513324 -0.38945988 -0.18005258 -0.113221005 -0.4223821 0.081391245 0.39726695 0.0065082475 0.03228092 -0.4024341 0.27343616 0.08166017 -0.18243667 -0.21270368 -0.026758226 0.54161847 -0.20015667 -0.12603179 0.3156485 0.11871385 -0.31893516 -0.078637816 0.40967497 0.04634065 -0.15668003 0.17431124 0.0064477134 0.12899378 -0.13788311 -0.0011883412 -0.15808386 -0.29497868 -0.0012773048 -0.5444436 -0.55125165 -0.27961734 -0.20772818 -0.30999184 -0.2834975 -0.12872456 0.40385002 -0.15982252 0.08794059 0.019688092 0.0663741 0.15524594 0.17858647 0.27455425 -0.3243389 -0.16936393 0.0044501536 -0.17912972 -0.62790984 -0.43477243 -0.022547321 0.043072563 -0.038204916 -0.044993974 0.048238494 -0.27083045 -0.13583109 -0.38531837 0.17256767 0.28078085 -0.31355894 -0.43300495 0.006005714 0.30062574 0.08704472 -0.017845685 -0.32556462 -0.13974 0.14395697 0.4242626 -0.16793583 0.15249069 -0.60929585 0.07804248 0.31992978 0.02342503 0.41777506 0.44346452 0.28317833 0.40697485 -0.30773163 -0.74355906 -0.43073565 0.37467098 -0.3218942 -0.07633044 0.0880013 -0.1812591 0.13852134 0.16578664 0.08391013 0.18654425 -0.02200489 -0.2423172 0.18428788 0.08476111 -0.5321642 -0.24902652 -0.11549453 0.030032821 -0.1383249 -0.45949256 -0.32555416 0.31693652 -0.36125773 0.42399633 -0.08899839 0.033579692 0.4000206 0.31248698 0.13935362 -0.114461765 0.24467833 0.13580465 0.18504111 0.23078476 -0.22997302 -0.023701295 -0.020974314 0.11817516 -0.3431246 0.11029556 -0.038571 0.09659259
398 0.17381194 -0.17479677 0.022354325 -0.3277088 -0.21730225 -0.40102503 0.08590286 -0.002577013 0.17153752 0.025605135 0.082673416 -0.19635095 -0.09922708 -0.07181052 0.0776573 -0.10188011 0.020813486 -0.2033529 -0.0014256379 0.1539927 0.092643835 0.10322071 -0.26130646 0.13672172 0.13662247 0.057227854 -0.19678088 -0.0074455948 -0.15491198 0.27445763 -0.07786512 0.111658365 0.3148866 -0.1585888 0.107505016 -0.11917086 0.08069975 -0.16719608 -0.15596652 -0.086669385 0.2980803 0.1232596 -0.0699374 -0.2346663 -0.24872229 -0.15940017 -0.05566069 0.055307154 -0.14147186 -0.2824196 0.19440052 -0.1800321 0.008180632 -0.087802775 -0.12817878 -0.010763975 -0.21471354 0.06273687 0.06032194 -0.20359984 -0.10659856 -0.12417904 -0.29924548 0.15423535 -0.14108384 -0.31830496 -0.3621569 -0.10220574 -0.1897338 -0.027533207 -0.5373469 -0.32408163 0.19879761 0.056375004 0.018084373 0.09628491 -0.14566469 -0.028714731 0.09584577 0.022227617 0.07493452 0.16757244 0.24561378 0.19486098 -0.079819605 -0.2731754 -0.1813662 -0.19658442 0.034064934 0.021598166 -0.16627993 -0.03411758 -0.17329417 0.12971322 0.32242444 -0.10269521 -0.09066089 -0.05227896 0.44026846 0.3296079 0.03862843 -0.18912204 -0.057748552 0.34589756 -0.24846126 -0.12999338 -0.17369187 0.0076445974 -0.105108365 -0.05658523 0.0055455673 0.10361419 -0.19327737 -0.081187025 0.26937675 -0.054244787 -0.044899024 0.062169872 -0.06416298 0.11761977 -0.1326755 0.07010196 -0.21933912 -0.0042226734 0.15401772 -0.4240978 -0.09316031 -0.04516814
669 0.16578273 -0.109796345 -0.09885463 -0.14765096 -0.18415946 -0.42254934 -0.023311911 0.04099704 0.089244924 0.10423479 0.016622609 -0.19792694 -0.15780023 0.011133283 0.082751274 -0.022040721 -0.054131154 -0.22212723 0.01706044 0.20283724 0.013528769 0.16054484 -0.1467513 0.07238927 -0.029112054 0.06683648 -0.25096342 0.03051561 -0.06584663 0.38789213 -0.044839013 0.20650816 0.36574075 -0.074013576 0.12191751 -0.21918976 -0.048627038 -0.17350101 -0.33438274 0.106612206 0.24160193 0.0803401 -0.20288439 -0.059233874 -0.2734564 -0.046356197 0.052713994 0.13690688 -0.09984751 -0.34572688 0.082791395 -0.28989697 -0.03463091 -0.0099685155 -0.17227773 0.019606164 -0.077484444 0.074856274 -0.027208256 -0.110674165 -0.03226533 -0.09207444 -0.26213884 0.18049687 -0.15209284 -0.3962834 -0.32345504 -0.056961633 -0.06511793 0.06738508 -0.5869834 -0.65706307 0.29064497 0.044614717 0.043365188 -0.06755875 -0.092856236 -0.09154505 0.23259333 0.018597228 0.12032875 0.109352395 0.12819043 0.1489457 -0.07504553 -0.1002469 -0.1690783 -0.1313922 -0.16178346 -0.030319309 -0.15376484 -0.04471265 -0.0634921 0.16762197 0.2614912 -0.0704772 -0.14853576 0.013773089 0.4392442 0.43831772 0.028361892 -0.21088178 -0.13886277 0.34554863 -0.3040834 -0.0868054 -0.15729666 -0.1021444 -0.22646177 0.03769158 -0.014440514 0.07332908 -0.07354245 -0.08832454 0.29878914 -0.052480634 -0.13184433 0.03848105 -0.017798562 0.19164278 -0.025952635 0.06435863 -0.28658193 -0.057746246 -0.029308895 -0.27331325 0.07237065 0.061347976
38 0.13738358 -0.2062909 -0.11207415 -0.28389803 -0.3128614 -0.36342075 0.08789611 -0.055762183 0.078212574 0.027628396 -0.042869985 -0.32070902 -0.09588809 -0.03204959 0.007302168 0.014058768 0.03433832 -0.07295275 -0.03910975 0.17966561 0.12503663 0.07773236 -0.0146569 0.08185782 0.11505605 -0.029084345 -0.34756112 -0.085483074 -0.16508989 0.24857512 -0.052617714 0.12593661 0.4037074 -0.16264004 0.1644788 -0.13271222 0.06564008 -0.11671684 -0.05367045 -0.0029929525 0.2614796 0.08675983 -0.029685134 -0.16677189 -0.17054608 -0.12153787 -0.063732125 0.093432106 -0.19900821 -0.20886931 0.2065554 -0.2705434 -0.08707356 0.0481119 -0.13411292 0.02931323 -0.23383185 0.22908092 0.04798313 -0.16710587 0.040562056 -0.10268748 -0.2790506 0.1452207 -0.28517044 -0.33998224 -0.2219376 0.034037627 -0.13332766 -0.020272458 -0.608286 -0.468998 0.18490402 0.14495184 0.03123725 0.01523071 -0.19706236 -0.1168366 0.13695619 -0.01710063 0.13863559 0.065151535 0.27693468 0.23987728 -0.20415974 -0.031422436 -0.29213843 -0.15689531 -0.105930015 0.057931054 -0.05677358 -0.03671703 -0.02628358 0.15641966 0.30535823 -0.16487765 -0.17259763 -0.031366933 0.470664 0.21431898 0.009505457 -0.1589526 -0.18131995 0.30583763 -0.18433926 0.010005557 -0.26026762 0.060261205 -0.04860613 -0.056187764 0.14942445 0.09717754 -0.040588208 -0.070455246 0.1155847 -0.13960975 -0.08677174 0.05038212 0.07121823 0.07856993 -0.0808375 0.038060647 -0.27479273 0.08323222 0.10610966 -0.24779859 -0.16794766 0.03951803
53 0.40805855 -0.31588677 -0.14191821 -0.20745516 -0.4541955 0.1609016 0.43293628 0.06493073 0.054191146 -0.30683017 0.20876592 0.096722685 -0.13825276 -0.31399152 -0.14410241 0.5416234 -0.32299232 -0.1298699 0.3340712 0.09812574 -0.2318018 -0.05605542 0.2918135 -0.017391084 -0.2684069 0.0474273 -0.0398968 0.1449005 -0.116824046 -0.0037447952 -0.16490479 -0.3893816 -0.13436295 -0.50683546 -0.5472449 -0.09737112 -0.27184117 -0.22131705 -0.36772597 -0.22850071 0.46085402 -0.20883887 -0.0289292 -0.09234339 -0.008265727 0.14035083 0.18622895 0.2601478 -0.3820837 -0.15696514 0.08358231 -0.18145229 -0.5701056 -0.5303808 -0.010879312 0.06664167 -0.024696935 -0.087921284 0.065787986 -0.40901014 -0.08874343 -0.31613648 0.27665016 0.2745432 -0.27007523 -0.4684456 -0.084797285 0.3785621 0.07858263 -0.060028546 -0.30301493 -0.23808113 0.10489531 0.45306468 -0.1765875 0.20988531 -0.6980329 0.17546687 0.3526277 0.012903243 0.29480675 0.49903002 0.25794774 0.52095014 -0.23367827 -0.81187415 -0.42209414 0.3737225 -0.53581667 -0.023810282 0.07365541 -0.19230482 0.31612545 0.2499525 0.05268944 0.106189825 -0.20053084 -0.35826978 0.20228289 0.18028831 -0.36881635 -0.34740132 -0.21867931 -0.0046805823 -0.11779996 -0.5674725 -0.31597984 0.48802394 -0.56802267 0.442001 -0.03896712 0.11245314 0.514227 0.3460534 0.13197327 -0.15472698 0.21469335 0.2777134 0.14920193 0.31033581 -0.253422 0.02498531 -0.050885428 0.184208 -0.52695566 0.22499377 -0.15208712 0.042002738
921 0.5449044 -0.26276827 0.04207774 -0.039220873 -0.69308543 -0.033848923 0.5337859 0.35188708 0.036602937 0.08068735 0.4945514 0.060624745 0.18285881 -0.6129576 -0.30850068 0.20266366 -0.19230132 0.056922045 0.5154181 0.15462884 -0.37206367 0.27187273 0.172427 -0.109304346 -0.22083637 0.101667255 0.11897638 0.106492676 -0.27909687 -0.14092492 0.1445757 -0.16542126 0.110036336 -0.6548609 -0.3909458 0.15241553 -0.21882296 0.023809852 -0.03595328 0.0075494116 0.32121742 -0.059873953 0.063108094 -0.113320515 -0.10817827 -0.31122544 -0.03728937 0.11855485 -0.43972564 -0.04175559 0.0035407105 -0.04893 -0.55873954 -0.44748247 -0.15619576 0.07086856 -0.16532637 -0.3866401 -0.016663093 -0.40699947 -0.09785423 -0.18068436 -0.056698047 -0.03170118 -0.48318535 -0.62303805 0.023904437 0.07648864 0.06961109 -0.12201619 -0.15502186 -0.2934427 -0.015558756 0.5358412 -0.01956864 0.050174322 -0.8137702 0.482548 0.33852485 -0.21496776 0.35896078 0.6830821 0.29075533 0.47003743 -0.29870412 -0.9059358 -0.23587488 0.28090066 -0.6956911 0.04728163 0.23040816 -0.01702674 0.27038848 0.32146576 -0.0036328174 0.41516465 -0.4570314 -0.657465 0.30030584 0.3133083 -0.347518 -0.5131185 -0.085251026 -0.026100885 -0.38616168 -0.45796388 -0.3206003 0.16344097 -0.29131502 0.4517014 -0.22643365 0.28577936 0.37430885 0.26616472 0.45316565 -0.07580049 0.3300869 0.29265398 0.29760566 0.28804022 -0.2627969 -0.11932851 0.12204677 0.3386549 -0.28721192 0.3375334 -0.11476389 -0.003028155
