1000 128
144 0.1615346 0.12627299 -0.19918698 -0.10960137 -0.11122044 0.053142093 -0.06924806 -0.14511256 0.2460068 0.026828147 -0.0034562277 0.20881991 -0.19858721 0.08244536 0.053271767 0.26736426 0.18398064 -0.38884228 0.2440184 0.10711825 0.06882945 0.1046275 0.1416895 -0.12679747 0.16581316 -0.13627928 -0.08132464 0.21140027 0.105751574 -0.22307865 -0.119773395 0.07298291 -0.13347486 0.034499247 0.17035435 0.43017533 0.020806167 0.040476363 -0.0749326 0.06849424 -0.022307731 0.106453896 -0.14683229 -0.0747461 0.18868794 0.0198457 -0.03975374 0.07888689 -0.13275033 -0.07443349 0.04376092 -0.03168693 0.1051005 0.18796055 -0.30691633 -0.38219887 0.051932212 0.0064643375 -0.051868655 0.014722676 0.012094999 -0.12059623 0.13768676 0.14863946 -0.1413918 -0.26318362 0.18552144 -0.052152067 -0.13330904 -0.10108215 -0.29154757 -0.006055597 -0.16309096 -0.18640989 -0.004180088 0.1242126 -0.0036111774 -0.00760901 -0.15712462 -0.02008835 -0.06470452 -0.14143291 -0.11145202 0.14441322 -0.08209156 0.03995469 -0.22513974 -0.2834281 -0.3168805 -0.18646426 -0.05914646 -0.22841214 -0.45884037 0.028242668 -0.0055879927 0.40468207 -0.03887741 0.29364204 -0.22938976 -0.005206578 -0.03566308 -0.272809 -0.32388192 -0.16012228 0.003021437 -0.1192627 -0.19873504 -0.018837467 0.049676444 -0.15389788 0.25475615 0.18307555 0.15168917 0.121113874 0.26110438 0.117454164 0.13576256 -0.070839554 0.24824628 -0.36205834 -0.49147537 0.104504526 -0.2473565 0.0195898 0.097997755 -0.048582934 -0.036385916 -0.0071429843
933 0.08213438 0.076695435 0.059203047 -0.1622477 -0.029837653 -0.02182246 0.04572457 -0.20765318 0.17757677 0.0017073001 0.05117234 0.14759226 -0.26136726 0.07275962 0.06768999 0.19486523 0.10635158 -0.16405827 0.058891658 0.08229196 -0.18134438 -0.033062354 0.031499766 0.108352125 0.10729405 -0.16464284 -0.18648914 0.19056423 -0.09539244 -0.24498637 -0.07563479 0.2155391 -0.0067580584 -0.0974464 0.09685078 0.39617658 -0.16089857 0.0046802363 -0.20424151 -0.072644636 -0.017197318 -0.17216462 0.08899688 -0.14270444 0.13961451 -0.055642705 -0.1739592 0.3003805 0.06815934 -0.091487385 0.29126227 -0.26119184 0.10242789 0.023598827 -0.104524784 -0.17512469 0.082726784 -0.093964204 -0.20033866 0.33920777 0.040467475 -0.16950065 -0.05955299 0.09640705 -0.2897635 -0.17660703 0.2422526 -0.23981754 0.05142872 -0.24238577 -0.25874847 0.0833845 -0.05152501 -0.2848131 0.021431724 0.13346873 0.010137707 -0.011507712 -0.05118768 -0.06754819 -0.22064413 -0.00084960094 0.28879517 0.044119995 -0.15171002 -0.0007803152 -0.0767177 -0.39945444 -0.27995917 -0.07757288 -0.093925916 -0.289002 -0.39632502 0.13446815 -0.058828417 0.2614897 -0.15257144 0.18829325 -0.08264423 0.13411777 0.03749175 -0.14905451 -0.05971155 -0.07827625 0.012657574 0.07265313 -0.013762452 -0.11176231 0.027569676 -0.15855403 0.17263584 0.07503744 0.15165299 0.13475741 0.25681618 0.1949102 0.037321385 -0.122101076 0.23982637 -0.47914308 -0.4415227 0.049120493 -0.30142444 -0.0006997803 0.07710575 -0.17571867 0.100034565 0.018461019
545 0.1253962 0.30105206 -0.15122388 -0.25344166 0.07330559 -0.028575039 0.01534762 -0.04013559 0.24731961 0.09386456 0.16962442 0.18029374 -0.12709281 0.22156605 0.025216682 0.051785108 0.048936814 -0.2241896 0.120764606 0.25212827 0.23597158 -0.074548274 -0.08096626 0.00871232 -0.071253 -0.035397563 -0.010746653 0.049432196 -0.14267884 -0.19882844 0.0072239637 0.15134811 -0.054126456 -0.14090985 0.15499155 0.22218053 -0.08639275 -0.109158024 -0.3609616 0.020878015 0.05424319 -0.038393427 0.041782912 -0.062727995 0.21909693 -0.14074402 -0.014729783 0.2272378 0.11668647 -0.15942782 0.27631667 -0.043065023 -0.10026455 0.07168431 -0.1264392 -0.5255356 -0.0147557305 -0.10664269 0.1057884 0.21217185 -0.18536964 -0.015173268 -0.033888303 0.036219347 -0.29020342 -0.15413444 0.20537588 -0.066830724 0.014192571 0.1357729 -0.009814996 0.024430465 -0.069900036 -0.110276796 -0.14357856 0.15293214 -0.0077878735 -0.23754625 -0.047860574 -0.13767014 -0.19244681 0.23802467 0.26157072 -0.11967498 -0.0010375238 -0.1326265 -0.25232658 -0.20100465 -0.22271101 -0.1571237 -0.029082656 -0.17597504 -0.4110421 0.17378204 0.26545516 0.39611486 -0.030761622 0.27150422 -0.11660419 -0.0449166 0.19098659 -0.31121686 -0.1320762 0.044990085 -0.107392475 -0.032687664 0.034076754 -0.10707073 -0.15689132 -0.21441133 0.020259185 0.16979793 0.21568486 0.14381905 0.36637703 0.04104657 0.06773488 -0.14791176 0.21999542 -0.323687 -0.4157089 0.113400765 -0.15048395 0.011915576 0.23879905 0.04645308 0.11200466 -0.037520465
838 0.12196199 0.055227898 -0.1507317 -0.25829986 0.084490955 -0.11951926 0.032323185 -0.10703779 0.092767455 -0.15523426 0.26369604 0.1069494 -0.21766612 0.20207141 0.20947047 0.26585695 0.10623537 -0.2673557 -0.082233444 -0.04736925 0.0034600662 -0.0910752 0.2279208 -0.05600423 0.07824159 -0.058157723 -0.068176016 0.20384772 0.11377601 -0.040758837 -0.13265717 0.08555186 0.0901261 -0.12792826 0.07780652 0.37071615 -0.19912164 -0.19823165 -0.21814714 0.00950917 -0.0149653405 0.031808063 -0.015507959 -0.09818671 0.13077311 0.16690643 -0.13054436 0.16458118 0.04115764 0.02261126 0.34705985 -0.017592806 -0.037854217 -0.09709882 -0.2764843 -0.0991964 0.08835789 -0.0085165 -0.14045165 0.16784346 -0.118958145 -0.18474115 -0.004870592 0.028795695 -0.30208725 -0.27098826 0.23946221 -0.1707302 0.080511354 0.13006783 -0.29593745 -0.24153854 -0.039967496 -0.17970592 -0.09901437 0.18462418 -0.0045786747 -0.025510043 -0.058539473 -0.035204094 -0.13437417 -0.0078884065 0.18942598 -0.009920781 0.016693316 -0.06760597 -0.21404217 -0.2818603 -0.21002154 -0.19674982 -0.05007093 -0.23476978 -0.49032685 0.10007189 0.0242852 0.17132585 -0.15606938 0.35870448 -0.18931945 -0.029315576 0.027887307 -0.27496675 -0.11738898 0.08878372 0.0639294 -0.008771452 0.023920847 -0.10473437 -0.020982794 -0.22735742 0.29561493 0.11582241 0.0552037 0.1717468 0.32849556 0.08495056 0.0127278585 -0.05436616 0.32334813 -0.38026428 -0.5276765 0.124554634 -0.30720547 0.1279251 0.27578735 -0.14383878 0.023227088 0.022559814
600 0.26596624 0.3105163 0.03160343 0.036657084 -0.14930655 0.021699795 0.14416173 -0.20884311 0.3293254 -0.011057231 0.096439 -0.048123553 -0.0873823 0.0051773367 0.0148321465 0.18027118 -0.23261143 -0.18907614 0.16147915 0.07690956 0.058886755 -0.04053634 0.00031568663 0.21695317 0.03240705 -0.12204268 -0.109455675 0.14268453 0.1731068 -0.25101674 0.027182823 0.13586417 0.0022952838 0.06139508 0.28796133 0.4458686 -0.34522635 0.0893519 -0.33400598 -0.09276349 0.12198152 -0.07644218 0.09148427 0.2600843 -0.09267351 0.10163623 0.10916979 0.34878746 -0.0635593 -0.17097998 0.21416837 -0.060154412 0.1473628 0.037396424 -0.09309071 -0.32127765 0.2562982 0.010154483 0.07593253 0.25787902 0.32455498 -0.09931761 -0.096495874 0.13720424 -0.101038896 -0.34514937 0.17432855 -0.14967218 -0.10490652 -0.0141933095 -0.29579046 0.26574647 -0.12422104 0.0018522878 -0.03195616 -0.03653989 0.04017898 0.024302699 -0.34549484 -0.15549746 -0.30304557 0.0341507 0.17812128 0.07744465 -0.21127605 -0.1766917 -0.18530788 -0.12785958 -0.23821472 -0.24670506 -0.2724514 0.0128839165 -0.4165594 0.1433975 -0.3575143 0.14144537 0.063558005 0.20882899 -0.11563301 -0.10291759 -0.015125633 -0.41712198 0.083730385 -0.1483855 0.04598829 -0.01942284 -0.19361942 0.01112134 -0.08579825 0.0017058286 0.16966912 -0.23882018 0.08049009 0.040679578 -0.05370113 0.20964415 0.31858507 0.07335741 0.38097858 -0.38606575 -0.6017193 0.1806569 -0.20666906 -0.059040297 0.1684191 -0.10008332 -0.07256687 -0.14969504
476 0.10854162 0.088841274 -0.30919433 -0.067815155 0.07397276 -0.033976305 -0.14457676 -0.18947108 0.037942268 0.23611435 0.06951489 0.14080709 -0.21054396 -0.17255017 0.023340857 0.18274663 -0.15371299 -0.39932385 -0.15042539 -0.006466815 0.20091158 -0.19106011 -0.009831223 -0.06172635 -0.13799037 -0.15338899 0.058310535 0.11508224 -0.11888639 0.015308525 0.14670932 0.013237647 0.014860701 -0.2289314 -0.20157103 0.09536046 0.026739003 -0.124354325 -0.24243426 0.087900765 0.07852153 0.0879438 -0.071988985 -0.38820863 0.08099628 0.061058696 0.032009132 0.09640618 0.14574908 -0.19376536 0.15019123 -0.2022343 0.032076 0.22959821 -0.110205196 -0.19939213 -0.008660942 0.07285542 -0.008882935 0.43216482 -0.021981727 -0.2095288 0.13744022 0.20012838 -0.28736153 -0.12359077 0.03752504 0.14618434 0.097912736 0.06796233 -0.19577235 -0.1456201 -0.12209341 -0.07762571 -0.21452253 0.3041152 -0.108636096 0.22527407 -0.17150037 0.11926562 -0.2904065 0.13000819 0.5002189 0.04667265 -0.042347543 -0.047647893 -0.2209559 -0.44904238 -0.21438006 -0.22884524 -0.25002915 -0.12292815 -0.5192141 -0.06768916 0.031756062 0.4690346 0.056308955 0.22314705 -0.14517863 0.10507878 0.27620032 0.06710424 -0.10420153 -0.10464844 0.21735518 -0.0016471964 -0.26632673 -0.29120287 0.000180085 0.004584299 0.24578968 0.16905296 0.1575593 0.25627264 0.023810752 -0.01122587 0.11637705 -0.09088421 0.05699942 -0.35803226 -0.43877217 0.36082122 0.05556339 -0.25970393 0.20843269 -0.16825505 -0.11416136 0.16672286
238 0.1752534 0.08988136 0.07825309 -0.16050918 0.00565685 -0.08808455 0.106504686 -0.13591072 0.3077196 0.1370099 -0.03708972 -0.072107784 -0.11929687 0.013214827 -0.027319841 0.33740094 0.04637678 0.040535264 0.27343732 0.015981974 0.014259329 0.08001704 0.16562442 0.10631496 0.2043746 -0.14426051 -0.09897139 0.1364687 0.06128117 -0.3329976 -0.031217292 -0.0015283802 -0.028236933 -0.02908015 0.3681695 0.37680706 -0.15853195 0.004173332 -0.15034679 0.07081306 0.11284415 -0.11782617 -0.087250784 0.25608075 -0.065063596 0.01808205 -0.010974281 0.19283286 -0.17080629 -0.046723712 0.030358553 -0.2084833 0.3015283 0.08225324 -0.13458304 -0.27280784 0.06052087 0.048364982 -0.24504824 0.12845235 0.38297248 -0.15371217 -0.0349104 0.011178208 -0.26005957 -0.26016358 0.17591673 -0.13316661 -0.21863247 -0.008494619 -0.32952204 0.23061953 -0.10404855 -0.07889397 0.050546087 0.00010395308 0.17243005 -0.050011013 -0.15338571 -0.28769177 -0.3136894 -0.15672389 0.4767878 0.020769399 -0.22592124 0.05824459 -0.24024351 -0.24547903 -0.24222109 -0.17106873 -0.15181006 0.00061485963 -0.35803893 0.15359169 -0.21455276 0.18238135 0.08084848 0.09157809 -0.1267028 0.06654606 -0.066087656 -0.25269076 -0.09241525 -0.3172841 0.070044644 -0.017430993 -0.27105975 -0.15638953 -0.019453406 0.05668919 0.20898052 -0.058108643 0.18352288 0.21897906 0.2198921 0.28001228 0.089478664 -0.02218207 0.3750669 -0.43309128 -0.44589522 0.17428868 -0.20264417 -0.2768617 0.21704008 -0.11742274 0.099777915 0.036999337
328 0.06643604 0.06234353 0.015848568 -0.19191706 -0.027264608 -0.18106063 0.085304536 -0.14683136 0.29306304 0.13279286 0.062276255 -0.01713995 -0.08427753 -0.05674796 0.037807472 0.2425721 0.1282015 0.09917677 0.32418013 -0.01824534 -0.072629385 0.1347747 0.13727139 0.053370684 0.26619872 -0.09976949 -0.24951011 0.07890009 0.03598941 -0.1613591 -0.0067991107 -0.042187244 -0.044524718 -0.06651852 0.4074745 0.41674536 -0.076516986 -0.11699377 -0.20005037 0.0074563758 0.1122761 -0.008378561 -0.06605495 0.28909835 -0.08793372 0.040202163 -0.06890321 0.26622435 -0.117889896 -0.049143977 0.09553267 -0.08843815 0.2163406 0.014872097 -0.14647771 -0.24593477 0.13962062 -0.0278439 -0.21631378 0.21628901 0.36393034 -0.16713531 0.10567256 0.18423614 -0.20433027 -0.26156196 0.16223688 -0.13436756 -0.17864819 -0.024059601 -0.40689594 0.21761964 -0.18428074 -0.112210356 0.18458512 0.022045122 0.09570452 0.025611455 -0.083776504 -0.2457132 -0.3831899 -0.1230269 0.3073169 -0.05645315 -0.2712019 0.16942273 -0.2357257 -0.24466643 -0.21191204 -0.18015957 -0.3260262 0.06998256 -0.33054554 0.21618812 -0.17813727 0.15107743 0.10485929 0.14576697 -0.15016487 0.1074987 -0.11430814 -0.28171888 -0.15539572 -0.27723134 0.054604363 -0.060827695 -0.1810817 -0.07733385 0.08608275 0.013831905 0.24093902 -0.041771498 0.1547222 0.21041651 0.37572896 0.2957457 0.16106825 0.028307801 0.42422125 -0.49796754 -0.4284455 0.2710955 -0.16656849 -0.19460587 0.109473705 -0.17628178 0.20590809 0.01646438
767 0.18364216 0.07363625 0.12843186 -0.13587816 -0.05025898 -0.13869055 0.105459675 -0.20481169 0.34846643 0.14836349 -0.005169935 -0.026709674 -0.17443512 -0.09322748 0.007653227 0.2835379 0.1313734 0.06238651 0.296826 0.0747767 0.02956141 0.17682949 0.12395491 0.12296706 0.21936974 -0.18737647 -0.18129735 0.142943 0.08775878 -0.37638497 0.0894504 0.06599553 -0.010212488 -0.043384776 0.30869848 0.36924294 -0.15661013 -0.06563224 -0.16267338 0.121643685 0.09095193 -0.073458664 -0.099735595 0.21956298 -0.019179037 0.037521355 -0.047205493 0.22141773 -0.104008146 -0.05519784 0.089445196 -0.17137484 0.23831572 0.07831938 -0.111183666 -0.26049528 0.021404436 -0.05538458 -0.23336881 0.22297204 0.43560266 -0.15810099 0.04542307 0.095390536 -0.17432941 -0.22766438 0.11506385 -0.08187264 -0.25686336 -0.008563934 -0.3309596 0.24881804 -0.110132866 -0.12942307 0.17395227 -0.06536212 0.15434726 -0.026172917 -0.064031616 -0.28760728 -0.27956653 -0.16797918 0.34078678 -0.063606195 -0.18012886 0.13640013 -0.2759612 -0.19283773 -0.19068965 -0.25680703 -0.21374427 -0.078825146 -0.42227295 0.18159413 -0.13300067 0.22958463 0.036195863 0.16439801 -0.08788483 0.08952063 -0.07832175 -0.26668757 -0.15358478 -0.36076805 0.03630944 -0.033819936 -0.25786057 -0.073421516 0.10088447 0.009825123 0.17732322 -0.10406078 0.116716914 0.21102685 0.3259163 0.17110083 0.115441054 -0.05339365 0.33227104 -0.46148193 -0.52721953 0.18928824 -0.1592581 -0.2184889 0.21639325 -0.08386271 0.19941613 0.108696125
164 0.15909387 0.025521338 0.14638516 -0.12581895 -0.024872443 -0.10693367 0.04553818 -0.24625187 0.3564661 0.16959633 0.06278746 -0.031326883 -0.08782198 -0.14822616 -0.019893924 0.26952505 0.14187323 0.00500121 0.28960896 0.061355017 0.011445169 0.17188649 0.085495 0.10303785 0.24506523 -0.13724923 -0.21349967 0.10920159 0.099070154 -0.3388008 0.054009963 0.030299284 -0.032910857 -0.017241765 0.24575949 0.33388335 -0.124957904 -0.011073653 -0.14821632 0.061053038 0.03842583 -0.045827035 -0.10634555 0.23012139 -0.05007346 0.10976423 -0.10475334 0.22345676 -0.09450941 -0.09271481 0.095137715 -0.15479961 0.18129359 0.021210698 -0.1252877 -0.30166876 0.053861648 -0.026458634 -0.2383772 0.19560081 0.39490804 -0.123333596 0.001603274 0.0760977 -0.14834097 -0.19052362 0.11614068 -0.12064075 -0.2391718 0.00892798 -0.36490867 0.21850838 -0.07460517 -0.11119379 0.15440017 -0.1005676 0.12717734 -0.08290891 -0.06742118 -0.3614634 -0.35390598 -0.1550921 0.3284999 -0.01522912 -0.23783298 0.16482383 -0.26719433 -0.19131772 -0.18481801 -0.13759199 -0.25986853 -0.05125818 -0.36994624 0.1288516 -0.14767854 0.26243383 0.038574137 0.17015193 -0.061776523 0.09058293 0.02086877 -0.28665942 -0.07741256 -0.41218615 0.0062624975 -0.049687028 -0.23261495 -0.14541973 0.08953996 -0.007050385 0.2819973 -0.04057447 0.106917754 0.17866866 0.24586639 0.18185368 0.08304692 -0.010325774 0.33893612 -0.46519664 -0.44526023 0.2175465 -0.19037277 -0.22507015 0.16358793 -0.09701794 0.17723794 -0.0011885059
851 0.19444388 0.15699588 0.09748314 -0.09050875 -0.07476377 -0.06506809 0.051209033 -0.21139425 0.3105243 0.1739891 0.018562373 -0.040740114 -0.109196156 -0.093361825 -0.01918855 0.25375578 0.13093098 0.040694762 0.27442074 0.020008316 -0.059057623 0.14767617 0.15371478 0.14213975 0.22353582 -0.17578705 -0.18285325 0.14498514 0.06127739 -0.37203565 0.013200091 0.046465784 -0.056689978 -0.009024366 0.30068928 0.36244214 -0.07977856 -0.044618547 -0.16717136 0.054793373 0.09473497 -0.031703312 -0.07907862 0.24571155 -0.05094419 0.05477681 -0.087974355 0.21231899 -0.09961395 -0.13304801 0.11589562 -0.17859676 0.19775254 0.15324722 -0.19137038 -0.27987865 0.057681613 0.023772743 -0.2242997 0.23144758 0.46887812 -0.08174111 0.034430183 0.041300654 -0.18317969 -0.2294279 0.13153796 -0.16505408 -0.28543997 -0.03185537 -0.2251788 0.16790143 -0.12996534 -0.10991394 0.18450767 -0.02325321 0.1542773 -0.050801028 -0.083656736 -0.27841857 -0.29945493 -0.14240259 0.31628585 -0.02416389 -0.22877648 0.17460196 -0.22942865 -0.2139734 -0.22708625 -0.1657991 -0.27909964 -0.09857335 -0.44817743 0.15692574 -0.1532956 0.30125165 0.09453847 0.17824788 -0.038801618 0.06372967 -0.05270029 -0.25364316 -0.14629708 -0.36367258 0.05627008 -0.047343466 -0.22556286 -0.058227014 0.100845546 0.014337319 0.18963857 -0.08784419 0.13831796 0.07172928 0.242218 0.24410576 0.1188311 -0.015689963 0.36557147 -0.5176034 -0.5099909 0.22919771 -0.22176605 -0.26981077 0.20102274 -0.13000286 0.21468943 0.10451258
128 0.18494178 0.10265731 0.10158144 -0.17208958 -0.010838952 -0.12799284 0.055908293 -0.21036512 0.3426514 0.17362599 0.02488398 -0.048907235 -0.20447595 -0.07777071 -0.034149915 0.32836184 0.08588857 0.06599674 0.26919493 -0.017543506 -0.06535101 0.1788695 0.12874417 0.12120855 0.17976615 -0.1617089 -0.1585476 0.07686752 0.017752226 -0.27924415 0.06735345 0.0504317 -0.06459713 -0.0051086717 0.32391384 0.4116037 -0.105915844 -0.006872159 -0.14878769 0.07458307 0.07755288 -0.0634393 -0.08512477 0.2699497 -0.051622786 0.118598394 -0.02208227 0.19869585 -0.088552356 -0.07438336 0.105308115 -0.2130263 0.22831872 0.12960543 -0.09537968 -0.32237652 0.0564409 -0.039274856 -0.24660835 0.18435931 0.41048372 -0.07663061 0.024379302 0.08328947 -0.16593495 -0.23212183 0.0970203 -0.115743324 -0.30808875 0.0006871253 -0.3007 0.22066866 -0.10467604 -0.13534045 0.15348017 -0.002869624 0.19474532 -0.027520394 -0.11319156 -0.30510306 -0.25061494 -0.20512284 0.28713733 -0.06575394 -0.17713992 0.20453 -0.24534948 -0.19216418 -0.2148748 -0.15115552 -0.26014328 -0.078171015 -0.4026226 0.14208627 -0.114198856 0.23724502 0.0546734 0.13011445 -0.06922078 0.04868852 -0.0202532 -0.24698672 -0.18580082 -0.30243653 0.0506814 -0.015531857 -0.23865427 -0.06998552 0.053581942 0.053604122 0.24200329 -0.075653695 0.110794425 0.23183149 0.26563674 0.24108724 0.09122065 0.01660895 0.3934588 -0.45157814 -0.4796286 0.19970179 -0.19302198 -0.22531702 0.18314199 -0.12618937 0.16973244 0.030592585
287 0.21847326 0.1635403 0.13562214 -0.15683836 0.034197673 -0.099449925 0.08669128 -0.19512245 0.3097703 0.11030365 -0.015697934 -0.0070800483 -0.13329268 -0.08285525 -0.052982945 0.2964411 0.142346 0.021477493 0.2873618 0.0260842 -0.07792501 0.15025456 0.12503377 0.2246902 0.22258577 -0.2332661 -0.10828295 0.10999874 0.023645993 -0.33796036 0.061867625 0.02630075 -0.044958558 -0.049720038 0.35199162 0.40390214 -0.08664852 -0.044134412 -0.13350737 0.10090882 0.1416291 -0.060748346 -0.078249164 0.2732794 -0.018942827 0.074729964 -0.04141094 0.1854105 -0.19375972 -0.100217596 0.074668676 -0.18928947 0.22960408 0.124084435 -0.16663161 -0.2625379 0.11495593 -0.07123801 -0.23638949 0.23849538 0.41449606 -0.053666368 0.032586474 0.046079576 -0.16418763 -0.19736062 0.08169221 -0.106736615 -0.35772353 -0.051663797 -0.24033308 0.23590825 -0.12872232 -0.110735595 0.19879384 -0.027294219 0.18334965 0.012589324 -0.11673283 -0.27985293 -0.30923513 -0.16636512 0.2543876 -0.054925542 -0.23041862 0.19803914 -0.26060107 -0.2372299 -0.19458444 -0.14921868 -0.26905173 -0.07021095 -0.4179172 0.16084306 -0.13177852 0.26787758 0.08373184 0.16594547 -0.02644884 0.04831796 -0.05822838 -0.23486635 -0.15037538 -0.38932106 0.12662135 0.0011731725 -0.26493004 -0.0778344 0.07394132 0.005003168 0.2223307 -0.10012842 0.13733488 0.16728848 0.22735174 0.19257991 0.11369248 -0.03338067 0.33484367 -0.52039856 -0.511075 0.22732587 -0.17022686 -0.23037687 0.17860375 -0.15178132 0.14533868 0.07183552
319 0.37264004 0.14400457 0.20359889 -0.32426482 0.12739477 0.18309432 0.2633076 0.03148486 -0.15242934 -0.08886426 0.3887354 0.19304277 -0.079394646 0.09298869 0.43494892 -0.108196065 -0.07318425 -0.24061471 0.24112204 0.16533299 -0.07941002 -0.18790556 0.24481249 -0.20252778 0.14323963 -0.063068025 -0.09524892 0.07941009 -0.2349991 -0.28858855 0.2708672 0.07343446 -0.23188287 0.12912843 0.04065759 0.2910713 0.023763256 -0.19754487 -0.267042 0.311838 -0.16578278 0.07042387 0.07877416 -0.12044416 0.1973504 0.14032412 -0.0023144353 0.27410564 0.068517655 -0.26788595 0.04843465 -0.34431514 0.2363942 0.03658948 0.31167245 -0.47215563 0.36067504 -0.31447136 -0.33501905 0.23293105 0.03578355 0.066210024 0.008173611 0.017496727 -0.29349524 0.04768443 0.17538834 -0.17344521 0.030037606 -0.115684055 -0.19256987 0.051350214 -0.044425327 -0.3841222 -0.34309125 0.18583155 -0.042982336 -0.0459688 -0.24639012 0.10380746 -0.15597285 0.2602721 0.15305726 -0.079027876 -0.05988517 -0.03781101 -0.19451703 -0.20500416 -0.061026208 -0.19243059 -0.09770458 -0.088400796 -0.4050647 0.21742456 0.27684093 0.31533659 0.111894235 0.043418583 -0.23307453 0.06405367 -0.15885994 -0.4334593 0.0039005177 0.0776543 0.062257428 -0.049962856 -0.036818285 -0.19608372 -0.16286859 -0.06719266 0.13791382 0.2172034 0.36120874 0.27398196 0.42097458 0.1328801 -0.077300064 0.3211469 0.41146952 -0.25381693 -0.48076347 0.07489045 0.042316686 -0.01731568 0.3161546 -0.104779616 -0.050885115 -0.13658021
917 0.1991585 0.2461162 -0.35285836 0.18124056 -0.056204118 0.08287632 0.06141248 0.09058291 0.39302275 -0.33208254 -0.10683545 -0.19678313 -0.054207664 -0.17328236 0.13990442 0.020365303 0.12997596 -0.34721804 -0.019105466 -0.092134416 -0.008863838 -0.16460748 -0.059697367 0.33206883 -0.062473353 -0.27489167 0.0105544 0.17460014 -0.065568045 -0.23942704 -0.00810422 0.3858471 0.041110072 0.13929714 0.19751523 0.3910865 -0.2547114 -0.1454952 -0.09408775 -0.021189112 -0.11711824 -0.009799872 0.0016873248 0.035399057 -0.16609383 0.020435175 0.07306968 0.22979249 0.065477625 -0.265418 0.41251922 0.09681686 0.022534106 0.030325886 -0.018511064 -0.13389343 0.47862798 -0.117860675 0.0076463884 0.3501431 0.08935549 -0.2254498 0.057950795 0.12351758 -0.40961882 -0.19790886 0.027234737 0.07688141 0.08388523 -0.09696906 -0.1779736 -0.059305787 0.11081454 -0.2722956 -0.22265895 -0.18410397 -0.06081632 0.17170417 -0.41992566 -0.380173 -0.26588413 -0.0030824454 0.22843806 -0.2875415 0.03365882 -0.15465209 -0.1648176 -0.17091072 -0.07945852 -0.36276403 -0.39475763 -0.05657415 -0.41345996 -0.17630334 -0.4036019 0.43274283 0.17002462 0.3212564 -0.102180414 -0.20651329 0.13556385 -0.3427573 -0.03564952 -0.281051 -0.17538638 -0.27821076 0.033707615 0.025618596 -0.0543729 -0.015514043 0.40826458 -0.10300413 0.046316933 0.24650902 0.026779763 0.15960838 0.5054547 0.24055423 0.31003958 -0.33810353 -0.25122836 0.16895466 -0.32083133 -0.10380476 0.32622623 0.08643325 0.08027717 0.015228575
801 0.14705892 0.17659299 -0.18146029 0.10919458 0.20715876 0.017739236 0.2369483 -0.049435433 0.42125434 -0.10031651 -0.1651333 -0.0650019 -0.14992729 -0.19139652 0.16277231 -0.09511462 0.029292716 -0.2617929 -0.05595474 0.079832345 0.08956852 -0.15844892 0.016879804 0.16763414 0.103894554 -0.32901183 -0.122603156 -0.063005336 0.06735162 -0.050819013 0.033782817 0.09515237 -0.0016356674 0.19914894 0.2965856 0.4775396 -0.2721671 -0.084816895 -0.034411035 0.036792893 -0.022451099 0.050279353 -0.053282443 -0.03963915 0.050108325 -0.02975362 -0.092646405 0.28861007 -0.038393997 -0.30342126 0.29694867 -0.066736504 0.11372675 -0.02470447 -0.23664749 -0.25013494 0.28113434 -0.038169593 0.26056826 0.45720378 -0.094845496 -0.14813589 -0.14924684 0.12598419 -0.28673363 -0.22974016 0.04472234 0.06727414 0.16736041 0.062513925 -0.20284812 0.0048502274 0.13957453 -0.18499626 -0.23390427 0.119243644 -0.15544026 0.32451946 -0.417652 -0.4443976 -0.16090742 0.058694784 0.07314279 -0.14102648 -0.12923227 -0.34850484 -0.117891274 -0.11755749 -0.28435442 -0.16223502 -0.048546962 -0.13698642 -0.4536426 -0.023038585 -0.25358203 0.5723137 0.0009472698 0.48909062 -0.037012268 -0.048190307 0.13719846 -0.32722503 0.12997273 -0.032049563 -0.067435965 -0.04567107 -0.30927435 -0.1658983 0.06130997 -0.21210043 0.30484626 -0.32925877 -0.048590977 0.4665436 -0.20322058 0.18413496 0.13800283 0.38740382 0.27857175 -0.37552777 -0.18349016 0.114755616 -0.28296152 -0.048495237 0.088185884 -0.093697354 0.21917526 0.0013428032
720 0.3746525 0.04215686 0.15773015 -0.36778918 -0.092499465 -0.23403156 -0.106862135 -0.1153425 0.10366409 0.087595314 0.10698328 0.00021264324 0.055694684 -0.14410265 -0.028095791 0.023597522 -0.020728484 -0.2049181 0.28223568 -0.2675035 0.11497144 -0.10565353 0.25780928 0.2158083 0.24826789 0.2128758 0.28419244 0.119563386 -0.36576468 -0.20165572 0.17371038 0.062248357 -0.17849019 -0.20615157 -0.17198232 0.65566254 0.17208356 -0.43607542 0.017200291 -0.37710485 -0.24819764 0.07990269 0.006610113 0.09512115 0.0039881617 -0.31303754 -0.18203668 0.22849071 -0.046378594 0.01879003 -0.28521895 -0.4196921 0.041054603 -0.17179619 0.34660423 -0.3664613 0.15208288 0.1731616 -0.032935847 0.20101695 0.13761221 -0.03310354 -0.18061574 0.08443517 0.037674576 -0.23192988 0.29180613 0.11644144 0.113202654 0.006602477 -0.0805583 -0.2926248 0.2038935 0.31717747 0.22652987 -0.43739882 -0.28973478 0.019208819 -0.41276646 0.12417378 0.052401584 0.19794326 0.3016962 0.0973547 0.07480797 0.39977783 -0.07564813 0.11442864 0.2734948 0.039321233 -0.13962828 0.15150172 -0.048923314 -0.59215 -0.35135862 0.20395161 0.288574 0.1861616 -0.07681936 0.058925543 -0.1734405 -0.092520736 -0.21864702 -0.16629437 -0.44886124 0.77332556 -0.09764243 0.05802157 0.22841372 -0.03816942 0.010242366 0.043236446 -0.15191135 0.43101263 -0.15736428 0.26440766 0.3467172 -0.16470902 0.49146807 -0.5087249 -0.258323 0.020246228 -0.38842523 0.40777 0.32611308 0.090965286 0.44608745 -0.039035566
653 0.22704789 0.30907452 -0.3154268 0.13980506 -0.08008487 0.015583023 0.125161 0.082253516 0.48096117 -0.29914868 -0.031260617 -0.07200707 0.015779922 -0.2674364 0.084054016 -0.024615077 0.0873811 -0.3302772 0.006430853 -0.0038190745 0.0823415 -0.16883034 -0.010226205 0.29542983 -0.011384951 -0.35648027 0.092694335 0.19715953 0.056904476 -0.19907366 0.06362358 0.33364585 0.06825912 0.16570336 0.28722385 0.41970992 -0.32998806 -0.2238224 -0.12409086 -0.023584072 -0.0834797 0.02447857 -0.0035329768 0.16627581 -0.069422245 0.017654095 -0.03441809 0.3432913 0.053828236 -0.2482223 0.30802944 0.061392076 -0.008667159 0.11848951 -0.030152619 -0.17086071 0.45793626 -0.09071221 0.15067048 0.353462 0.054957066 -0.27782097 0.028319577 0.056930374 -0.39291927 -0.38051063 -0.08008371 0.003952792 0.08658851 -0.034115873 -0.3526481 -0.06354841 0.09076525 -0.21136312 -0.28357634 -0.2092794 -0.021305911 0.11256153 -0.40190306 -0.5069176 -0.2190405 0.05359907 0.20147392 -0.17869155 0.020612532 -0.23726478 -0.14985144 -0.0504099 -0.098845206 -0.32340726 -0.3445522 -0.122821026 -0.42475525 -0.10615509 -0.41064134 0.32212922 0.117044 0.34935412 -0.06845665 -0.06717693 0.17470798 -0.4118626 -0.02222168 -0.22898863 -0.13368107 -0.16111998 -0.05513181 -0.063458115 -0.104709834 -0.053659085 0.34669507 -0.2261438 0.041999068 0.17566435 -0.10577362 0.23796955 0.36260942 0.23772776 0.45455265 -0.3574222 -0.1595097 0.1827273 -0.3271702 -0.09114948 0.1680122 -0.044581093 0.11068873 0.018769642
90 0.2471795 0.30872062 -0.29479346 0.13985294 -0.07238897 0.027372153 0.11241531 0.029848471 0.52212363 -0.2337778 -0.08156059 -0.12747529 0.043159507 -0.23523782 0.106460705 -0.05685855 0.061531734 -0.40397945 -0.057502367 0.024621295 -0.0022085793 -0.1874825 -0.02071253 0.34730625 -0.056987073 -0.31217015 0.09123198 0.24669798 0.044397335 -0.16004822 0.099198565 0.33218825 0.092291236 0.22803438 0.26124933 0.40019628 -0.30659837 -0.22264388 -0.13517962 0.021949928 -0.1506207 0.014480161 0.11059101 0.116352506 -0.07377406 0.02582979 -0.025884017 0.32189196 -0.005525435 -0.35091528 0.3046649 0.041453168 -0.0081263585 0.08627007 -0.069562644 -0.15564743 0.43845382 -0.08075197 0.05059116 0.37564096 0.05050384 -0.21144895 -0.012590998 0.031595316 -0.2930365 -0.32120898 -0.1335604 -0.00073840836 0.06970777 -0.028691554 -0.37049237 -0.08323598 0.18789889 -0.1558017 -0.28858444 -0.20663323 -0.01875024 0.12258767 -0.45055103 -0.46732196 -0.29363623 0.015579626 0.19985595 -0.17629127 0.012884633 -0.20366763 -0.1598142 -0.10577375 -0.1301916 -0.34552523 -0.37299976 -0.10651786 -0.46813446 -0.06530734 -0.3981335 0.27903008 0.09049676 0.36626753 -0.09300911 -0.1105564 0.15966615 -0.40324742 -0.055491064 -0.2578457 -0.17275465 -0.1592236 -0.029728105 0.06700625 -0.12047914 0.032208838 0.34532946 -0.24069935 0.026079604 0.17478462 -0.013614856 0.2583856 0.38872063 0.15299708 0.365921 -0.3229344 -0.2019412 0.20080955 -0.27606523 -0.10785955 0.21092212 -0.030025458 0.16676603 0.05156331
843 0.34997958 -0.017889576 0.2476541 -0.22395036 0.11075125 -0.09143448 -0.0030184037 -0.102512605 0.16845915 0.25319943 0.06643706 0.091141135 0.12922364 -0.13101661 0.054657277 0.05084967 0.026079593 -0.13080628 0.1256679 -0.22788033 0.074414596 -0.16701901 0.27099323 0.15255894 0.23733155 0.031320684 0.28823763 0.112091854 -0.33485433 -0.14808722 0.1420055 0.010891802 -0.28244144 -0.052128688 -0.16717406 0.52347195 0.23487511 -0.36191222 0.039002556 -0.50432366 -0.27920926 0.11782852 -0.020743199 0.19088736 -0.060196992 -0.25403097 -0.14268084 0.19722107 0.05291571 0.15698417 -0.3147505 -0.42732224 0.048442766 -0.18235242 0.24190448 -0.24123843 0.21382196 0.020556152 -0.056923904 0.12858954 0.19104688 -0.10963649 -0.23967256 0.04151182 -0.06878487 -0.2181928 0.36202297 0.15647031 0.03504102 0.2572279 -0.15394868 -0.28316185 0.18926458 0.39467937 0.29225418 -0.27974412 -0.26863548 -0.029290766 -0.4951556 0.15771174 0.06727734 0.21827134 0.3657504 0.071148984 0.23945223 0.30682796 -0.16375759 0.02061801 0.34919137 -0.060464635 -0.13287996 0.12928142 -0.122213185 -0.51317436 -0.26239064 0.15393014 0.4587187 0.29768184 -0.18849686 0.12494851 -0.09858242 -0.1426348 -0.31951898 -0.2669312 -0.32251018 0.64345604 -0.060037114 -0.013046378 0.26236877 -0.028410258 0.06288032 -0.09663772 -0.022426896 0.48732272 -0.12285258 0.3856386 0.26926646 -0.13725503 0.41960463 -0.40843245 -0.16040294 0.1286368 -0.43099177 0.53937346 0.27644542 0.2377428 0.48718244 -0.117103696
807 0.40660998 -0.06956767 0.24752569 -0.27909404 0.070089795 -0.10939003 -0.05825084 -0.036607724 0.17906205 0.17301534 0.03421116 0.10969683 0.079982445 -0.08518376 0.019105224 0.08242597 0.016379237 -0.14554854 0.14693804 -0.28266618 0.033217072 -0.066874914 0.27835435 0.1706882 0.19171366 0.1541521 0.3470003 0.058141887 -0.34138173 -0.08779018 0.15183297 0.03292315 -0.2267581 -0.08837373 -0.29422292 0.6226501 0.25464168 -0.3369445 0.029873068 -0.43265462 -0.12489874 0.08737041 -0.02798554 0.26892173 -0.04378292 -0.17165312 -0.15800853 0.25121003 0.13143225 0.058919977 -0.27506262 -0.35420227 0.05717082 -0.19265574 0.28979596 -0.40624458 0.19104625 0.0067622582 -0.08349193 0.20048523 0.14314291 -0.062402625 -0.123715304 0.017887142 -0.045767114 -0.2769549 0.3420163 0.19285005 0.09471846 0.16829358 -0.09442759 -0.28322726 0.31933782 0.38348174 0.39196286 -0.3340539 -0.28269756 -0.039901197 -0.31000382 0.14620437 -0.01207163 0.15194114 0.26565275 0.06369761 0.18323661 0.26602647 -0.24165799 8.6804357e-07 0.36725092 0.041482024 -0.25608197 0.1475473 -0.15465768 -0.4793588 -0.17437303 0.12457215 0.41599876 0.35654926 -0.1090067 0.05881291 -0.17126781 -0.24548958 -0.3070097 -0.15112323 -0.43229693 0.73989034 -0.13174888 -0.112103075 0.2681101 -0.13266811 -0.0006410538 -0.14937438 -0.057630405 0.49678668 -0.18324511 0.2966871 0.28841048 -0.13028337 0.29622063 -0.5034029 -0.17365119 0.13981387 -0.41765457 0.6301195 0.19354576 0.23606715 0.4951375 -0.02669534
766 0.34464687 -0.13498498 0.07650521 -0.2502068 -0.024361424 -0.22697996 -0.21516861 -0.15315469 0.011765682 0.20195134 0.21195179 0.13930883 -0.023626326 -0.15528588 -0.052172255 0.059632327 0.072447576 -0.15296736 -0.009449369 -0.15132797 0.04447598 -0.021836456 0.43501163 0.12065742 0.2743264 -0.02057219 0.26868483 0.17203936 -0.25651163 -0.030264175 0.13409907 -0.15233716 -0.051329285 0.016098913 -0.2907127 0.62922114 0.09335363 -0.27202117 -0.103020325 -0.49139166 -0.4366953 0.0013093665 -0.08920707 0.03757968 -0.03742059 -0.21481349 -0.09812457 0.3598406 0.028237075 0.05953622 -0.29860887 -0.51731014 0.106500864 -0.1357029 0.47786832 -0.27099997 0.121240385 -0.07048129 0.13240671 0.10183151 0.06759124 -0.13545378 -0.24044259 0.04931273 0.00082963746 -0.23098427 0.3395737 0.21927992 -0.049347706 0.18357573 -0.14420813 -0.3386765 0.19900066 0.4981204 0.22534217 -0.31257507 -0.37431175 -0.017735427 -0.3964739 0.29443896 -0.0029011893 0.10121342 0.5167737 0.059140183 0.12490737 0.37510028 -0.052260436 0.023232732 0.2454928 0.068165824 -0.18037869 0.08503154 -0.18048993 -0.5808005 -0.39061946 0.21682535 0.4703968 0.2439436 -0.050448555 0.0974823 -0.16026692 -0.21282911 -0.1561544 -0.16631302 -0.49350098 0.62617224 -0.1038322 -0.11967998 0.29264694 -0.120690994 0.003673169 -0.090815976 -0.082609326 0.5496867 -0.081631124 0.16687429 0.189421 -0.09627913 0.40740922 -0.253935 -0.21457534 -0.006495691 -0.32965025 0.39384127 0.24083526 0.21982343 0.29816487 -0.15997729
81 0.24612105 -0.037187696 -0.1189901 -0.0988526 0.17065111 0.09105692 0.17029546 -0.20591971 0.34960592 0.13118966 0.13375573 -0.0279379 -0.22524287 -0.047167566 0.22438765 -0.061744824 -0.00056365033 -0.10586392 -0.007496672 0.051858183 0.08273934 -0.42917588 0.011220228 -0.09382167 0.0018869321 -0.07738389 0.12985933 0.11794383 -0.24884494 -0.272849 -0.07417554 0.09606386 0.09599688 -0.21241367 0.09007309 0.24399415 -0.06581913 -0.06681441 -0.15872967 -0.033794872 -0.25647092 0.20346569 0.14359659 -0.22665705 -0.040470745 0.17021494 0.036465127 0.06671837 0.008389319 0.01896759 -0.073157586 -0.25332886 0.04115426 0.13147555 -0.43492955 -0.20692652 0.099533945 0.24213932 0.11571853 0.42680392 0.032783628 -0.13184719 0.19766983 0.42444795 -0.26091823 -0.22890323 -0.046661966 0.097021334 0.0376221 0.010606265 -0.105927445 -0.08680699 0.044663645 -0.12757091 -0.12966917 0.05352817 -0.05160324 0.011963848 -0.115413986 -0.2827156 -0.3105962 0.006364253 0.23606382 -0.028313741 -0.07155246 -0.20761047 -0.2946726 -0.51534843 -0.2806081 -0.081526615 0.005384764 -0.27254027 -0.47723714 -0.21016839 0.19215165 0.37666005 -0.1359266 0.66675025 -0.15966795 0.015668692 0.15931302 0.17316015 0.07143934 0.057638913 0.104906715 -0.2345278 -0.0033069022 0.21658853 -0.0026007923 -0.288812 0.00094194495 0.06813669 -0.0641944 0.25986466 0.25955027 0.1254725 0.18422543 0.16840488 0.23229071 -0.21767393 -0.56421536 0.055792186 -0.24688573 -0.056302927 0.07603854 -0.20410682 0.20783232 0.25519273
73 0.29328153 -0.031311195 0.094792284 -0.23468024 0.06343566 -0.2214351 0.05181491 -0.12377128 0.1768025 0.2840493 0.06410405 0.024638508 0.12036132 0.10757347 0.068278894 0.008451413 -0.117005445 -0.1071125 0.17285988 -0.25380626 0.1575163 -0.13903216 0.3016135 0.12192385 0.24637175 -0.005918314 0.29367998 0.07556659 -0.3268627 -0.14251861 0.17224097 0.027389541 -0.37718508 -0.09324437 -0.2641817 0.59950256 0.20778672 -0.2885053 0.04341836 -0.47743762 -0.27498767 -0.0548556 0.11367769 0.049832508 -0.10124548 -0.27101797 -0.18844004 0.23120618 0.0022901602 0.08168362 -0.23598513 -0.2723513 0.055265784 -0.16487055 0.36197692 -0.34950364 0.014408771 0.007877496 -0.09562912 0.15204707 0.19511308 -0.058786165 -0.16989687 0.010979933 -0.01699868 -0.30490723 0.25195137 0.12058332 0.1215863 0.20884967 -0.11211741 -0.31402415 0.15548107 0.31268197 0.3146677 -0.37262183 -0.26781088 -0.04896848 -0.4228571 0.04522136 0.015231512 0.11131184 0.40719295 0.1036647 0.20000714 0.3409483 -0.20278828 0.023192594 0.3633723 -0.09134423 -0.2044375 0.057975184 -0.19643979 -0.48482734 -0.28358993 0.15209581 0.41198558 0.3125226 -0.15640615 0.10296423 -0.16037016 -0.2003909 -0.2706784 -0.23449555 -0.36688054 0.8209435 0.0132861715 0.094177686 0.28013912 -0.04488067 0.02212587 -0.02494343 -0.12556659 0.47035065 -0.049934927 0.3341154 0.27624345 -0.14683835 0.38684824 -0.51340926 -0.07926748 -0.0062137335 -0.40334547 0.44788507 0.20199111 0.26384196 0.6050622 -0.034152254
472 0.37011668 -0.011456018 0.15050991 -0.30416346 0.08160905 -0.23848937 -0.019478064 -0.11475409 -0.029094134 0.08229344 0.109074675 0.24139522 0.027634157 -0.08517828 0.04124545 -0.031560756 -0.03368442 -0.16069224 0.2891934 -0.07904022 0.063429505 -0.12698863 0.29423198 0.26926923 0.18465002 0.0675084 0.3476618 0.13534074 -0.3493306 -0.13802671 0.24743007 0.10688771 -0.15562686 -0.06747052 -0.081932485 0.5687979 0.2632202 -0.39553377 0.0405223 -0.3982921 -0.104721844 0.027046908 0.04951834 0.17153588 0.0130288955 -0.21014781 -0.09057039 0.20522915 -0.12743843 0.25271213 -0.38943675 -0.47829157 0.018080747 -0.0954223 0.44637027 -0.24183089 0.18175027 0.033386044 -0.03821088 0.103122376 0.11590071 0.05714618 -0.14978367 -0.007985765 0.010058488 -0.25959006 0.37762523 0.22954734 -0.047074687 -0.049456224 -0.034335654 -0.20297384 0.24381018 0.4069538 0.22103053 -0.23602544 -0.17829704 0.061354835 -0.33138874 0.15954019 0.03863437 0.08998433 0.15831083 0.14127405 0.12205434 0.33392906 -0.15889359 -0.022155276 0.33349055 -0.16931123 -0.23480564 0.17501284 -0.13921492 -0.5684667 -0.31352052 0.3029331 0.45795444 0.36789325 -0.07519711 0.14417112 -0.095689304 -0.15599027 -0.18883863 -0.16711651 -0.2868616 0.7690272 -0.11114685 -0.04589024 0.21094307 -0.031479716 -0.015153696 -0.1642466 -0.1228153 0.3991974 -0.10480972 0.37267753 0.35697073 -0.1415924 0.4805105 -0.4075018 -0.148945 0.048957016 -0.38931587 0.47462735 0.35336557 0.2417309 0.41619197 -0.09543285
124 0.28551385 0.025919445 0.20535497 -0.219623 0.0920977 -0.15685213 -0.05575049 -0.056130763 0.062280454 0.156184 -0.040934652 0.20951687 -0.009558199 -0.06826798 0.003516523 0.011955178 -0.04674544 -0.1797096 0.23007056 -0.13927932 0.07612565 -0.16159599 0.2523661 0.2592781 0.26510587 0.06407496 0.35344175 0.08973439 -0.39205846 -0.10070886 0.15678768 0.06690392 -0.17810212 -0.19171071 0.02195222 0.5428217 0.25114033 -0.3578918 0.017304402 -0.44591448 -0.05318885 0.011270729 0.06262683 0.06963955 0.020540435 -0.36312348 -0.050609984 0.19307192 -0.16366939 0.22079529 -0.34713337 -0.4534174 0.051620383 -0.15551049 0.46491694 -0.26676342 0.10399388 0.07194614 -0.04879297 0.036613785 0.20633455 -0.0030977842 -0.22616637 0.053591173 -0.034582682 -0.20771836 0.34204164 0.23829801 0.036620315 0.06122126 -0.1320442 -0.24865271 0.18059485 0.45925108 0.28722286 -0.25331718 -0.20040284 0.025680376 -0.35724032 0.16157664 -0.011915731 0.058616217 0.2829145 0.10573389 0.087989345 0.32924783 -0.19056286 0.058690332 0.3530377 -0.2165734 -0.15125954 0.13751312 -0.14725937 -0.617648 -0.24142736 0.3343206 0.50459224 0.45460653 -0.0701261 0.1952221 -0.12590446 -0.2391555 -0.11661557 -0.17240967 -0.2951953 0.7312494 -0.079183914 -0.03545922 0.20252247 0.005417915 -0.0015745339 -0.096797645 0.024405187 0.49361977 -0.07727926 0.2911129 0.34387773 -0.16063775 0.44243923 -0.44192094 -0.10441225 0.15428118 -0.3488534 0.55528873 0.3259481 0.253309 0.46594694 -0.18867871
740 -0.031104418 0.12249825 -0.23665679 -0.20698206 -0.2180706 -0.18271226 0.050774433 -0.05834943 -0.21172932 0.48949507 0.34622824 0.17277376 0.29246002 0.023843953 -0.11202354 -0.21953337 -0.060257424 -0.4794918 0.41913822 0.19875252 -0.5561652 -0.1697212 -0.07046697 0.05453035 0.361402 -0.07245436 0.4662348 0.026227355 -0.060382582 -0.39248833 -0.10106991 -0.0046236264 -0.13907617 -0.3037308 0.22965117 0.6175582 0.30680645 -0.13933697 -0.42439863 0.06635863 -0.31093127 0.5263662 -0.26579905 0.024404649 0.46160913 -0.17587465 -0.36051792 0.424234 0.08924861 -0.08375942 -0.19274442 -0.17857683 -0.07568898 0.1817899 -0.056519676 -0.37365448 0.13946462 -0.049609426 0.16206974 -0.38307303 0.20808627 -0.1091087 -0.15483719 -0.3296181 0.07349543 -0.12199259 0.23264506 0.25733638 -0.66478384 0.04089661 0.05044552 -0.23895818 -0.05118183 0.31654066 -0.11783058 -0.11227511 -0.2685171 -0.03885521 -0.008456782 -0.015483858 0.05115112 -0.07527824 0.106931515 0.047409948 0.36618102 -0.25213248 -0.28569016 -0.344154 -0.23969112 -0.014422756 0.09471092 -0.1677894 -0.082256004 -0.14444803 -0.5299059 0.2169386 0.6064173 0.10816279 0.17085609 -0.06550754 -0.0577966 -0.22574943 0.031553816 -0.065066166 -0.005729018 -0.00085304346 -0.11737002 -0.16618314 0.07092781 -0.35161233 0.2718492 0.3595794 -0.24185371 0.16247016 0.19155858 -0.10840415 0.23329566 -0.41013545 0.19541544 -0.428053 -0.5012112 -0.020322591 -0.22345598 -0.048555534 0.49863803 -0.28026488 0.44800928 0.42657036
677 0.3991337 -0.08479001 0.31724867 -0.20948493 0.07975782 -0.17315929 -0.043607574 0.023681492 -0.0098639745 0.04841729 0.15576506 0.0941196 0.14790075 -0.095416926 0.008451777 0.06977087 -0.16856234 -0.24285913 0.21957225 -0.096983835 0.06842398 -0.099199384 0.17248562 0.27189648 0.27849892 0.12038341 0.355982 0.19962695 -0.40019387 -0.002595483 0.18380715 0.04663962 -0.19840544 -0.050931614 -0.36056164 0.55889606 0.3007944 -0.30645844 0.07708356 -0.28866693 -0.13515314 -0.012804563 0.061410587 0.1442289 -0.10115926 -0.2755043 -0.1699671 0.3708406 -0.02154017 0.12312404 -0.3841993 -0.43928856 -0.048563797 -0.15805562 0.33683604 -0.37866488 0.2688743 -0.0021203705 -0.16149355 0.09395036 0.029076798 0.0059375362 -0.21529652 0.021314088 0.015514404 -0.19920906 0.29824463 0.33133778 -0.08424003 0.020480555 -0.18189894 -0.18484329 0.18323222 0.41582444 0.16697274 -0.33589095 -0.18676785 -0.04425217 -0.41800335 0.12922935 0.06398045 -0.0979292 0.19301108 0.0051685707 0.066027 0.34006095 -0.14460999 0.012092276 0.3850431 0.057846453 -0.20335239 0.12094675 -0.1909663 -0.4318744 -0.33110335 0.16088498 0.4152654 0.3158182 -0.032005895 0.21517548 -0.19220279 -0.16047573 -0.05887971 -0.14670765 -0.3725439 0.7487528 -0.002143149 -0.10641703 0.1761952 -0.024448661 0.13127917 -0.11272485 -0.12133686 0.50181305 -0.1597207 0.34868 0.27284813 -0.20063896 0.49043623 -0.4426434 -0.19170524 0.10806872 -0.44229367 0.45237058 0.2899846 0.12040336 0.39008403 0.06518713
837 0.3207149 -0.012152146 0.2667126 -0.24700175 0.13730486 -0.26212156 -0.09283141 -0.048191268 0.02651698 0.06161025 0.09709644 0.11155053 0.09428504 0.048216213 0.06278775 0.010403073 -0.04740225 -0.17102303 0.35401177 -0.09563017 0.18891884 -0.008243784 0.27051103 0.18753858 0.28869838 0.16982144 0.22889933 0.23181766 -0.38101208 -0.18128017 0.26284495 0.022927351 -0.26103354 -0.20907064 -0.075498305 0.536941 0.18572529 -0.4596889 0.072967544 -0.2689645 -0.16444688 0.047879037 0.10211191 0.08385623 -0.09385585 -0.24940534 -0.16088742 0.33956507 -0.07929432 0.08796239 -0.2043615 -0.31614268 -0.07260893 -0.112958595 0.2602927 -0.25013134 0.13245863 0.10736335 -0.0839319 0.073008165 0.036577888 -0.0054679215 -0.20639586 0.09894879 -0.0027705578 -0.09053226 0.27314764 0.28029403 0.07175851 -0.0056913625 -0.021485586 -0.3287436 0.23792328 0.33314577 0.27132392 -0.26628846 -0.22555746 -0.0029970359 -0.55187976 0.25935465 0.12602921 0.063023105 0.2387393 0.143947 0.24265912 0.35270208 -0.16611542 0.061747417 0.29288235 -0.11966448 -0.1822714 0.14418249 -0.13965082 -0.47004876 -0.50638384 0.29643935 0.4718524 0.30713448 -0.047945745 0.1886564 -0.17508715 -0.10741717 -0.18415982 -0.18177031 -0.37362856 0.8927275 -0.17930701 -0.0024611591 0.17786261 -0.12207395 0.099914975 -0.07342631 -0.099386126 0.40598693 -0.14432563 0.31180978 0.30938697 -0.20797382 0.47640565 -0.3969146 -0.12121826 0.073108196 -0.40315586 0.34543335 0.39630333 0.11739509 0.43180308 -0.03114775
486 0.33090067 0.0031298073 0.116254486 -0.15960696 0.077436075 -0.15202603 -0.13367511 -0.07275966 0.03563637 0.10996991 -0.13062334 0.21196504 0.02647791 -0.09073742 0.035080303 0.042738695 -0.039113507 -0.18018916 0.22619103 -0.11687651 0.1257718 -0.17328332 0.3059981 0.26192784 0.19272304 0.03281225 0.43447152 0.15251197 -0.3255889 -0.15631095 0.21672945 -8.4939566e-05 -0.19685198 -0.08990905 -0.05838909 0.5461463 0.30296707 -0.32743716 0.061432946 -0.5143674 -0.104001254 0.100855 0.044043433 0.07358157 -0.059317537 -0.19124243 -0.071436286 0.12494567 -0.12350805 0.17633519 -0.40787706 -0.45962712 -0.0013347997 -0.17670245 0.46821862 -0.3683009 0.18148023 -0.04307421 -0.041056577 0.049498383 0.16508603 0.04832392 -0.073567174 0.00053881295 -0.040984564 -0.24084751 0.3424289 0.31307748 0.036476407 0.063006215 -0.060923852 -0.1628144 0.17971762 0.3645709 0.3417155 -0.33005366 -0.27407205 0.04270572 -0.37478215 0.1767427 0.023533948 0.14659218 0.25205463 0.107442655 0.16829312 0.3038814 -0.24565105 0.0642231 0.3327223 -0.12178664 -0.14109257 0.107944906 -0.14101955 -0.6132079 -0.22004372 0.3358523 0.3962085 0.47976434 -0.021364534 0.25847858 -0.075170085 -0.26759636 -0.24037126 -0.20255885 -0.28679734 0.72469246 -0.18970455 -0.019075494 0.18422474 -0.03296552 0.022527134 -0.15244947 -0.056052893 0.50016326 -0.08989369 0.31972563 0.36035773 -0.20306048 0.40292093 -0.4563555 -0.0923836 0.18351878 -0.2800145 0.4694598 0.31791675 0.27999368 0.40141 -0.14317924
870 0.15929788 0.14287488 -0.11939119 0.061212562 0.02183718 0.03672828 0.3678653 0.0060009267 0.45193204 -0.19538993 -0.17126168 -0.13976887 -0.024921956 -0.3229968 0.12106443 -0.01592731 0.06346784 -0.49225858 -0.09914194 0.13691624 0.01579641 -0.2167798 0.014794737 0.18320091 0.20608084 -0.24998052 -0.011440454 0.104018204 0.107076526 -0.12729095 0.1336694 0.30532762 0.06886134 0.20119898 0.38009506 0.3722552 -0.25968954 -0.21100773 -0.22015983 0.16150816 -0.005196538 -0.018342242 0.20572858 0.28563523 0.020369638 -0.07519093 -0.054242834 0.33878708 -0.00023132932 -0.17660877 0.2690285 0.04172535 -0.027571946 0.020286927 -0.12014339 -0.10927718 0.31891048 -0.27096474 0.05640597 0.39793 -0.100759126 -0.28855774 -0.025462236 0.035939846 -0.34709528 -0.29631925 -0.04892578 -0.03670529 0.027917204 -0.059314515 -0.4224637 -0.05945038 0.03612298 -0.01773035 -0.16068621 -0.07824356 -0.10584308 0.17683983 -0.3586249 -0.5077155 -0.13575482 0.16245945 0.15648626 -0.35435405 0.0042567076 -0.2754068 -0.16353367 -0.04932171 -0.3252792 -0.2424507 -0.17253067 -0.12034494 -0.56256723 -0.21262835 -0.4570668 0.3786455 0.047721464 0.27238744 -0.12378457 -0.05167955 0.03512392 -0.44156677 0.04987738 -0.16885146 -0.014601541 -0.17655733 -0.28590336 0.078520775 -0.03160823 -0.041925114 0.30382404 -0.11560963 0.21063727 0.3053053 -0.10363365 0.27498302 0.21521884 0.28166837 0.31057006 -0.4492547 -0.02768775 0.22779971 -0.42624342 -0.0873345 0.23200417 0.06629881 0.058221977 -0.051005732
14 0.08204825 0.19915569 -0.20509775 0.14839351 0.1027884 0.08386796 0.19707938 -0.084289685 0.36844233 -0.21521384 -0.2317223 -0.22237031 -0.054762147 -0.31061372 0.09710023 -0.045289353 0.011278566 -0.44159308 -0.16825387 0.06599691 0.17177147 -0.10503877 0.0354615 0.28194714 0.061168335 -0.32743314 0.03366282 0.09666597 0.06430521 -0.19622707 0.21537483 0.2870442 0.04881921 0.12847416 0.3107166 0.48740432 -0.19389558 -0.1824665 -0.13299285 0.11761393 -0.010131431 0.005453747 0.115485154 0.20893857 0.04066771 -0.06596246 -0.010189521 0.32510743 0.009287504 -0.2669259 0.2947286 0.045368005 0.03517467 -0.059204314 -0.08820791 -0.15327589 0.2949088 -0.113113575 0.23107876 0.40773186 0.05871143 -0.15143895 -0.040198233 0.105161645 -0.25778466 -0.2702079 0.09164214 -0.005302196 -0.033037733 0.026020357 -0.41784728 -0.16323078 0.034955435 -0.20151088 -0.21973562 -0.11964343 -0.09875125 0.20800643 -0.44026646 -0.42874524 -0.22886 0.17756248 0.08622215 -0.13258705 -0.12516433 -0.23436952 -0.14900689 0.028510295 -0.32096586 -0.26686007 -0.17202899 -0.2180775 -0.40319043 -0.22010146 -0.3516888 0.3988292 -0.03693756 0.40910965 -0.15863553 -0.090022 -0.030305967 -0.42640325 0.04796766 -0.14272593 -0.050008554 -0.081780806 -0.16340901 0.074031666 -0.11128657 -0.11845103 0.30040464 -0.30502164 0.10781055 0.25331765 -0.06660161 0.22589521 0.24060361 0.35230136 0.3552239 -0.36282852 -0.07027175 0.22915624 -0.3161951 -0.17416662 0.23541823 -0.09460869 0.23777969 0.008891768
624 0.1030631 0.17730677 -0.0149718495 -0.1849793 0.4001386 0.011223955 0.16870877 0.050384365 0.20728539 -0.05036918 0.12855145 0.15264884 -0.33693612 0.14278696 0.07364153 -0.012834119 -0.039794773 -0.28385764 -0.09118211 0.04000383 -0.061598923 0.021326201 0.29413283 -0.11181471 0.1183115 -0.017685104 0.23722102 0.10956567 -0.16329516 -0.20012558 -0.14013492 0.17310336 0.05067782 -0.1789314 0.11673036 0.19289269 -0.017574437 0.048593014 0.11267022 -0.22178286 0.11973036 0.042364277 -0.1101399 -0.12123117 -0.050165866 -0.3000597 -0.27995104 0.3081015 -0.19128306 -0.033627994 0.26230273 -0.1031077 0.054836564 0.034518454 -0.34242886 -0.27282038 0.18032216 0.16629677 0.10640089 0.33299476 -0.18075258 -0.09140119 -0.26949695 -0.05969348 -0.41061237 -0.16294251 -0.13476285 0.029602516 -0.032413993 -0.17891616 -0.3005476 0.017565755 0.17668243 -0.22517946 -0.1826053 0.2563622 0.27629843 0.20729573 -0.06388813 -0.28839675 -0.01456707 -0.08541597 0.33541378 0.0012437929 -0.27430838 -0.1692635 -0.040827803 -0.36639166 -0.23294869 -0.117176406 -0.120379865 0.0779672 -0.47512558 0.175686 0.107693896 0.38698304 0.1685957 0.18133566 -0.1008264 0.04879133 0.18669955 -0.30171964 -0.21094923 0.089795895 0.10762367 0.07659327 -0.3386326 0.14647293 0.018866265 -0.23052923 -0.08802826 0.10181674 -0.18532872 0.47536096 0.36762974 -0.110736035 -0.06469892 0.14969046 0.4858508 -0.26080322 -0.46127164 0.3609405 -0.1260215 0.080876835 0.19629544 -0.049828548 -0.097499065 0.21783264
780 0.38352296 -0.12506104 0.2685231 -0.20219816 0.07469278 -0.13458894 0.098570324 -0.028471773 -0.06044087 0.07587957 0.0681681 0.105662316 0.1677632 -0.05774945 -0.03883298 0.11807163 -0.1906231 0.0063794265 0.05855044 -0.11734483 0.13128933 -0.28261733 0.3070007 0.16096853 0.37781122 0.31050503 0.24499391 0.15886642 -0.3016495 -0.17735963 0.22734264 -0.022348812 -0.25742486 -0.1514715 -0.30198652 0.48830423 0.20335844 -0.28230536 0.041503426 -0.40634105 -0.24650224 -0.17816275 0.14082083 0.07882236 -0.016249878 -0.046470154 -0.08353389 0.36472255 0.023642994 0.40415874 -0.24779163 -0.27558893 0.13056657 -0.26138672 0.38601935 -0.27110538 0.22564664 -0.07555595 -0.10204265 0.06842914 0.0005651566 0.040897496 -0.22923297 -0.021807337 -0.16086201 -0.284113 0.2907206 0.2861464 -0.04286172 0.26373354 -0.26493534 -0.26128975 0.2405438 0.33633587 0.18089469 -0.24852149 -0.114525355 -0.053379234 -0.46550706 0.3464158 0.008049141 0.1793163 0.0534997 0.09839943 0.15969431 0.33163553 -0.20148158 0.024258934 0.33926627 -0.14293215 -0.23867932 0.21850152 -0.15516603 -0.49834898 -0.27177656 0.2634575 0.5122996 0.5417875 0.026441295 0.22336188 -0.25125945 -0.32208884 -0.28686407 -0.15021937 -0.21998806 0.78166944 -0.23426706 -0.10858872 0.18984057 0.0020322362 0.17293738 -0.013403649 -0.005437846 0.50435555 0.07705339 0.30355194 0.42885983 -0.14372343 0.372526 -0.42193314 -0.20800021 -0.0035726945 -0.23007768 0.4493817 0.22996628 0.20006803 0.37619683 -0.22754434
512 0.324173 -0.036715414 0.2477759 -0.18579218 0.18078005 -0.18680699 -0.1197061 -0.01820976 0.047710426 0.12639897 0.019650776 0.15145099 -0.008758833 -0.08391877 -0.0062837694 0.07181265 -0.09696516 -0.20526056 0.24813318 -0.08846215 0.10984086 -0.13654205 0.2923601 0.16918518 0.26282087 0.13251784 0.30062944 0.055681992 -0.33940005 -0.052985035 0.17112605 0.0029490306 -0.30102262 -0.021657016 -0.1682572 0.58848935 0.269362 -0.21932516 0.0711704 -0.47277665 -0.014401991 0.04102852 0.09013235 0.15976244 -0.09235361 -0.18578856 -0.052458357 0.27987874 -0.07637868 0.22538055 -0.25712568 -0.5094354 0.010762847 -0.12661028 0.34706244 -0.34065363 0.10163332 -0.053499077 -0.062242817 0.10827568 0.043110095 -0.06440106 -0.16530807 0.0325943 -0.041501764 -0.2418931 0.35695636 0.21595351 0.043394312 0.16437958 -0.11905543 -0.26100418 0.16462894 0.3530536 0.29184458 -0.251434 -0.2769892 -0.10109162 -0.40496328 0.2116626 -0.062889025 0.10740322 0.3437744 0.106420994 0.16543767 0.2581577 -0.23475364 0.02663564 0.2957706 -0.15525442 -0.21321836 0.055450466 -0.11203391 -0.53374624 -0.31152225 0.21071084 0.53488326 0.4690819 -0.00619327 0.16805486 -0.1439789 -0.19432425 -0.16717018 -0.09568827 -0.3116553 0.7178664 -0.10874303 -0.029259203 0.1647289 -0.07180938 0.06068658 -0.115736276 -0.04056897 0.4403277 -0.17572041 0.37976956 0.2607414 -0.18189397 0.36412996 -0.3711776 -0.041386493 0.19162433 -0.41049153 0.5232551 0.3722507 0.27200586 0.5141907 -0.082277186
753 0.24217495 0.22191103 -0.2242797 0.10688156 0.040436383 0.040024165 0.14622088 0.022196136 0.4210208 -0.21687284 -0.14099257 -0.19659168 -0.029707592 -0.2746434 0.20046532 0.04340368 0.0002349494 -0.34691852 -0.13270113 0.094634764 0.12871313 -0.1760595 0.06589434 0.32899746 0.10475419 -0.33639467 -0.024653662 0.115701646 0.07281631 -0.1668728 0.2384957 0.23435648 0.051564723 0.16710664 0.29579836 0.38244292 -0.2143344 -0.15641455 -0.17261 0.09514404 0.015221869 0.02472758 0.077719904 0.21944709 0.033358153 -0.079775676 0.012837021 0.3042762 -0.007836218 -0.32152522 0.32950965 0.048578415 0.003073592 0.16725737 -0.017105568 -0.16278145 0.32354772 -0.17660943 0.27477613 0.36261716 0.03388709 -0.22875051 -0.05174367 0.06824487 -0.19747564 -0.2891752 0.029467639 -0.06172595 0.11218206 -0.028806947 -0.37664074 -0.13886586 0.06481216 -0.1898326 -0.2403821 0.0009301673 -0.090739384 0.21942182 -0.3620343 -0.49327558 -0.1820356 0.16497587 0.10278346 -0.184331 -0.038930535 -0.28436255 -0.14663436 -0.07880905 -0.28960058 -0.26374236 -0.15166333 -0.1301301 -0.4763802 -0.10263705 -0.41549107 0.4597541 0.016776469 0.3185375 -0.16087088 -0.14160697 -0.019912995 -0.40361723 0.03474972 -0.17401904 -0.1306205 -0.13236345 -0.16509037 -0.030910417 -0.0012451407 -0.09581353 0.35708997 -0.29252598 0.08242051 0.28499967 -0.20799725 0.23622131 0.2251364 0.28952456 0.24871741 -0.41143337 -0.12556195 0.1965885 -0.35438558 -0.13736454 0.24351503 0.04694338 0.21950781 -0.055138674
34 0.08994795 0.32020444 -0.17224607 -0.22682823 0.44543344 0.006927542 0.22440115 0.12392401 0.17053568 -0.107849404 0.02178976 0.12090343 -0.4029542 0.094151765 -0.12643334 -0.051623784 0.09530634 -0.17582482 -0.00042798003 0.08454595 0.06460199 -0.08395224 0.37512597 -0.36708432 -0.009858066 -0.015786912 -0.036431383 0.20025393 0.012737841 -0.24764161 -0.14781013 0.049126152 -0.032882906 -0.07897965 0.1576326 0.5164611 -0.16294788 0.005252056 0.028855858 0.07740692 -0.020907717 -0.085533805 -0.0634187 0.008878498 0.089078404 0.012460076 0.026756534 0.31191155 -0.060822792 -0.09397532 0.07513243 -0.2690495 0.1138682 -0.055300005 -0.24480937 -0.39533836 0.28472662 -0.12320611 0.10345086 0.22859304 -0.25134242 -0.2950077 -0.15141104 0.16654667 -0.3521964 -0.08109054 0.10687116 -0.1538317 -0.11769387 0.11823645 -0.16873568 -0.14946108 0.12582238 -0.16123828 -0.16000609 0.1821483 -0.034337692 0.12958229 0.05507076 -0.14687574 -0.07493426 -0.06430857 0.38972664 0.020771416 -0.15738806 -0.14783938 -0.13397205 -0.43817762 -0.23481669 -0.015210305 -0.10162826 -0.0844657 -0.49695268 -0.17960927 -0.011293158 0.17627151 0.07379618 0.34361798 0.12240831 0.05140635 0.23751603 0.13287015 0.0051626344 0.10815859 0.024003003 -0.14139432 -0.33865017 -0.09912409 -0.095533624 0.029067187 0.15340137 0.050580304 0.0061447048 0.35078973 0.04717351 -0.116268836 -0.10583292 0.14827031 0.23358633 -0.3531801 -0.41142333 0.32199955 -0.11941634 -0.070942104 0.2880676 0.08150789 0.03650031 0.124762736
709 0.2946988 -0.12197561 0.23840953 -0.29850477 0.13542582 -0.22414975 -0.026380027 -0.117089346 0.06583406 0.05005844 0.07231605 0.131073 0.078832895 -0.015494935 0.14398323 -0.14444533 -0.08040588 -0.17426589 0.24970073 -0.17939718 0.15177889 -0.08503271 0.23871839 0.25993308 0.33543795 0.13351645 0.41430566 0.28018475 -0.3438304 -0.06854255 0.17676516 -0.0097033605 -0.18025666 -0.009605629 -0.20652628 0.52088743 0.29516193 -0.23348488 0.10274731 -0.33430937 -0.19359106 -0.029209202 0.027908258 0.11690734 -0.02486994 -0.33108065 -0.11410318 0.24404205 -0.059786577 0.2278633 -0.34987664 -0.4156033 0.0450025 -0.13938403 0.3608871 -0.34784627 0.018097822 0.0931742 -0.111959554 0.08760052 0.056825556 0.1320423 -0.1171029 0.056647457 0.07699968 -0.12884574 0.26060426 0.22148876 -0.10925717 0.11311559 -0.12107358 -0.22858258 0.30374882 0.30286336 0.21592046 -0.36408252 -0.15723586 -0.023977222 -0.4595984 0.20048107 0.055057097 -0.022996645 0.2930685 0.07034474 0.20898971 0.2067771 -0.14065097 -0.13296413 0.28721434 -0.13635291 -0.16873048 0.08074063 -0.15877402 -0.555768 -0.48217842 0.27499855 0.44001544 0.4111186 -0.06416909 0.15379132 -0.13472398 -0.24941894 -0.12363893 -0.1800526 -0.29585683 0.75523126 -0.047127075 -0.10485408 0.19177355 -0.08502508 0.09551683 -0.07223436 -0.062479023 0.4620974 -0.13885343 0.32470328 0.22325148 -0.21745704 0.42554763 -0.41143465 -0.057289645 0.04459217 -0.5005905 0.44382414 0.3089613 0.2092181 0.51340884 0.02950632
50 0.36383712 0.041674435 0.26598543 -0.18241687 0.035013605 -0.106816046 0.035470743 0.020770457 -0.103750564 0.09805913 0.032453187 0.26985464 -0.026088284 0.015569986 0.09392505 0.023054611 -0.093577385 -0.12158098 0.16806477 -0.09049258 0.105592504 -0.13215467 0.056341268 0.10059621 0.2178504 -0.04024015 0.36969241 0.16395277 -0.3011479 -0.15582138 0.28896636 0.025365587 -0.37826014 -0.1485653 -0.18286173 0.65914553 0.15319121 -0.3274207 -0.0460259 -0.4063206 -0.06393836 -0.032869507 0.0071323803 0.06766021 0.019643327 -0.35187382 -0.075296 0.2294096 -0.046937726 0.17861992 -0.2834688 -0.5210933 -0.02640644 -0.17855453 0.40077037 -0.38525194 0.18147458 0.012747583 -0.18591249 0.11922561 -0.0077644926 -0.062859535 -0.24191421 -0.06385541 0.045450777 -0.19796622 0.32126093 0.1231079 0.054933503 0.14924568 -0.07315747 -0.16477482 0.20526284 0.3643453 0.22513978 -0.16197921 -0.2233964 -0.13830087 -0.291306 0.19565353 -0.07063504 0.033800215 0.28755274 -0.033388805 0.20384456 0.34943536 -0.2511347 -0.0739435 0.20162788 -0.06520498 -0.2840498 0.0774063 0.022552295 -0.548086 -0.13764828 0.28364396 0.6710133 0.48218036 -0.03873648 -0.019567786 -0.23368023 -0.28326347 -0.07840995 -0.0075114733 -0.4519251 0.7085729 -0.069706246 -0.1286673 0.07728185 -0.060109496 -0.02861745 -0.14544572 0.04600266 0.43328953 -0.051433306 0.56714994 0.25618443 -0.23899704 0.32961744 -0.30933484 0.057788335 0.13437128 -0.2825316 0.5009718 0.35560185 0.20495296 0.4595239 -0.090648755
928 0.21556966 -0.12692742 0.24644788 -0.16954993 -0.015604719 -0.1590683 -0.08407492 -0.038447317 -0.0073714256 0.11586328 -0.033652037 0.09758413 0.0022174795 -0.0572885 0.088223524 0.028152378 -0.056755785 -0.10025483 0.16301887 -0.10816292 0.05911677 -0.13007288 0.27970764 0.23719393 0.130946 0.06483309 0.34371608 0.23099746 -0.35464305 -0.077249214 0.24356197 0.08103526 -0.18558444 -0.16630965 -0.06770543 0.51448953 0.1639939 -0.38416567 0.055220604 -0.5023639 -0.09455701 0.02580627 -0.019847235 0.137906 -0.11163485 -0.4121007 -0.098178975 0.16825998 -0.1766715 0.2015907 -0.32630816 -0.42891148 -0.04548089 -0.17478825 0.42125666 -0.33426028 0.17049898 0.0060724765 0.0010987074 0.11458973 0.08240842 -0.025514908 -0.1418642 0.055574577 -0.04798012 -0.18390487 0.30277732 0.37266564 -0.04257964 0.083721414 -0.09609225 -0.21349236 0.097114906 0.3542147 0.31414747 -0.36293188 -0.28669596 0.1410813 -0.39152065 0.20193765 0.016281204 0.0065113087 0.3002504 0.06055411 0.0060160435 0.315199 -0.14671406 0.06953976 0.33721185 -0.17155772 -0.22176613 0.19442236 -0.24233647 -0.49369472 -0.30405754 0.3005329 0.51573557 0.40838343 -0.106118925 0.14447333 -0.13284664 -0.18260364 -0.14714885 -0.21773615 -0.37266484 0.6986229 0.010002756 0.06457703 0.12518343 0.10214275 0.036323827 -0.07798054 -0.1915567 0.661367 -0.11105319 0.48054388 0.30319765 -0.28264588 0.4526063 -0.41127005 -0.2465106 0.0398218 -0.29614198 0.41931862 0.2555932 0.20137827 0.36628565 -0.14163417
763 0.2077157 -0.0866215 0.31033662 -0.16805519 0.054011565 -0.16698705 -0.023812091 0.08366756 0.08852932 0.06254682 0.069324896 -0.019620651 0.08042512 -0.015009309 0.06298441 0.11511028 -0.059746686 -0.13564108 0.22729643 -0.1420631 0.051163994 -0.06974896 0.18582419 0.21323715 0.26023003 0.13263601 0.33937576 0.15676433 -0.34506086 -0.0033757356 0.2513653 0.06320036 -0.28496218 -0.18174677 -0.32609183 0.611057 0.2749264 -0.2767633 0.0070738336 -0.35558635 -0.13478823 0.13009082 0.02077947 0.11210553 -0.08189431 -0.2812999 -0.16364111 0.29714936 -0.020601612 0.042821854 -0.19737054 -0.49287876 0.011746768 -0.2090572 0.38073307 -0.41759157 0.062279325 0.03954587 -0.19670314 0.18466234 0.018704284 0.032370467 -0.1408791 0.025715154 0.12086863 -0.1815233 0.35837746 0.2226122 0.0025711886 0.082588665 -0.20865612 -0.24402364 0.2754803 0.3450831 0.33477202 -0.29950798 -0.23069838 -0.025884833 -0.30856392 0.101660505 -0.028267944 0.038150117 0.21988015 0.033747 0.1336669 0.3453807 -0.104222514 0.08530724 0.35362998 -0.07356364 -0.2641597 0.17360303 -0.08352663 -0.4707456 -0.30806813 0.23108967 0.41170967 0.4429355 -0.01160342 0.11542496 -0.16672063 -0.23998347 -0.16624239 -0.15443887 -0.3388458 0.79412735 -0.058049742 -0.15194093 0.12651512 -0.11047703 0.2226831 -0.14001767 -0.09218458 0.47151303 -0.22420654 0.38476768 0.26795715 -0.16416481 0.44210267 -0.5009722 -0.17422175 0.1694592 -0.42055538 0.5524216 0.26248607 0.19897403 0.4996383 -0.059713874
770 0.22189908 -0.06696567 0.24381693 -0.22509909 0.11780625 -0.19096068 -0.063315175 0.008463621 0.11515592 0.073483855 -0.03928284 0.05524065 0.0065044314 0.007902731 0.08619544 -0.018025113 -0.07442846 -0.15730052 0.15867074 -0.17504065 0.22212066 -0.15571047 0.24839422 0.25998273 0.2798758 0.087861195 0.36263004 0.17275222 -0.26066384 -0.086965784 0.24706765 0.05575911 -0.24342549 -0.100626804 -0.24765462 0.55912566 0.29677993 -0.30494153 0.12124351 -0.3973076 -0.2265135 0.01849317 0.11642326 0.14430013 -0.025846742 -0.27190056 -0.104005605 0.3238416 -0.062161293 0.25775927 -0.24861549 -0.3319584 -0.018297372 -0.13686474 0.32452577 -0.2697306 0.049799446 -0.025389109 -0.15475272 0.029813413 0.11173201 -0.010673866 -0.11883321 0.04408864 -0.05999432 -0.22473383 0.28604433 0.26419592 0.05113266 0.15271229 -0.23163824 -0.1773203 0.13881034 0.24167188 0.2860716 -0.32379448 -0.30483785 -0.044659384 -0.34288132 0.19179869 -0.016067116 0.049156975 0.2606985 0.03422246 0.17721917 0.3472145 -0.2168797 -0.057926867 0.31721854 -0.048557892 -0.26395395 0.10250262 -0.16672195 -0.5422586 -0.29760095 0.1956952 0.5359866 0.4391333 -0.07450163 0.15822479 -0.08495557 -0.19027692 -0.21524371 -0.2517304 -0.31418177 0.7885647 -0.13803788 -0.054071087 0.19962388 -0.001550926 0.118709885 -0.01381169 -0.1363302 0.47686675 -0.2283499 0.35155448 0.29214135 -0.21934575 0.4496795 -0.4559492 -0.1198576 0.20220423 -0.3590881 0.5201077 0.30715305 0.27676597 0.45423958 -0.024668712
310 0.19801 -0.12155941 0.17919265 -0.20282696 0.046098907 -0.3164392 -0.111555256 0.015362125 -0.007980284 0.11922182 -0.034194708 0.15309653 0.06908092 -0.054604325 0.05286984 -0.056532092 -0.1346771 -0.16090873 0.17106311 -0.097038254 0.14060774 -0.045263078 0.27751452 0.12473229 0.23499507 -0.0129029825 0.21402852 0.13336883 -0.2445286 -0.12836067 0.23289241 -0.029391106 -0.31636003 -0.19463773 -0.15215959 0.5419575 0.25592977 -0.2418194 0.062288374 -0.40816885 -0.22727248 0.056651633 0.092154354 0.04198354 -0.15572959 -0.36437643 -0.1262051 0.29172698 -0.053743374 0.11523783 -0.25920478 -0.35024577 -0.009103595 -0.09460548 0.3879275 -0.2746144 0.11976808 0.0005481914 -0.14218692 0.0016814773 0.10056117 -0.06165278 -0.06936682 0.0077091525 -0.024440955 -0.12594017 0.3512158 0.30137315 -0.019118253 0.18183385 -0.16629158 -0.22369306 0.14366181 0.28749922 0.28125688 -0.21242996 -0.26391155 -0.059653938 -0.32616204 0.2083778 0.117116585 -7.636992e-05 0.33351085 -0.073075816 0.17506847 0.20929344 -0.10565473 0.0043385057 0.34894195 -0.15616108 -0.37402087 0.06381812 -0.055795886 -0.4884782 -0.31503832 0.26569253 0.55627745 0.4527878 0.0077212504 0.21877724 -0.24098532 -0.17284878 -0.18207529 -0.18500775 -0.29410267 0.7263895 -0.069154784 -0.13890027 0.17990912 -0.00115141 0.118485525 -0.09839692 -0.0763307 0.578478 -0.19972491 0.36211827 0.370527 -0.31241512 0.4270231 -0.44564953 -0.08554352 0.16611439 -0.4569041 0.52486634 0.243568 0.18240093 0.48354253 -0.0102257505
594 0.34219697 0.003815016 0.21142668 -0.09098765 0.14142048 -0.20704143 -0.06506788 -0.08121109 0.055411246 0.08769718 0.033909757 0.13217151 -0.027624436 -0.004687382 0.15011667 0.12483709 -0.06563431 -0.055557 0.14532483 -0.16868944 0.04524061 -0.08022914 0.2558627 0.24703571 0.2290116 0.06774826 0.4484662 0.088471495 -0.3641764 -0.1277717 0.18686211 0.031048315 -0.24534474 -0.093420014 -0.24318105 0.5753458 0.2699523 -0.30825543 0.08844137 -0.39815572 -0.0901148 0.1016019 0.1519005 0.24172923 0.03204547 -0.23871763 -0.09952428 0.3013423 -0.0651537 0.15413 -0.2804759 -0.4471794 0.013821765 -0.16186851 0.3866688 -0.33379728 0.13559504 -0.06516564 -0.12073843 0.06305852 0.16501948 -0.03341188 -0.14834669 0.04140753 -0.046328865 -0.21219487 0.44023475 0.2915533 0.0046161627 0.13872828 -0.20842725 -0.18638203 0.1576666 0.38963267 0.33100656 -0.14882886 -0.086503625 -0.1060657 -0.37451902 0.19990692 0.013839087 0.052387457 0.31012338 0.023678817 0.20472458 0.28991073 -0.2210437 0.02550564 0.21867785 -0.17934027 -0.32683125 0.11557751 -0.15243398 -0.6151203 -0.2840392 0.26042488 0.4468433 0.4410897 -0.0421494 0.24922532 -0.14895085 -0.17383501 -0.1938826 -0.17096244 -0.3377041 0.7260884 -0.169079 -0.06994884 0.19679753 -0.053522937 0.046730526 -0.10050179 -0.10041182 0.34794068 -0.2188329 0.3460762 0.29228747 -0.20319603 0.38476118 -0.38918102 -0.019286694 0.12407119 -0.3992778 0.5838362 0.31765032 0.272203 0.47380728 -0.16166219
168 0.25975582 -0.14325017 0.24984197 -0.21979246 0.11856391 -0.13384876 -0.08698744 0.06313519 0.020828765 0.038320716 -0.06450641 0.11433339 0.009483396 -0.031199398 0.07472504 -0.01541262 -0.09724289 -0.13145952 0.19285782 -0.12725374 0.11430796 -0.058763668 0.25339308 0.172713 0.21903022 0.056490425 0.29608345 0.1994951 -0.24263266 -0.14508957 0.21517782 0.025846815 -0.23825315 -0.13509639 -0.18975168 0.59276646 0.21913864 -0.34162858 0.102572665 -0.359158 -0.11033757 -0.02176916 0.02867934 0.04783738 -0.05106232 -0.34728506 -0.084535114 0.2467808 -0.07135663 0.18397877 -0.25198427 -0.33239838 -0.023029864 -0.13390139 0.3561966 -0.23738223 0.14573967 0.027552797 -0.12653188 0.031916305 0.09477297 -0.05873328 -0.1221128 0.109916136 -0.0755354 -0.14877069 0.3517147 0.30147013 -0.012829766 0.16717589 -0.12057749 -0.2171553 0.33249995 0.30040127 0.3141737 -0.27478176 -0.27176914 -0.062141057 -0.4086447 0.2717611 -0.0018852642 0.013700609 0.29255036 -0.0019415518 0.13980025 0.33616057 -0.20179759 0.032972913 0.3583229 -0.12848534 -0.23486024 0.045556333 -0.16546687 -0.45648584 -0.34697807 0.19742377 0.5108166 0.381763 -0.048282873 0.084860556 -0.11585578 -0.15260197 -0.15232156 -0.1980183 -0.28078577 0.72637135 -0.05092411 -0.070815064 0.209849 0.0036389956 0.100741394 -0.074857265 -0.12924375 0.5340095 -0.22790244 0.3893801 0.31851894 -0.2059631 0.54269785 -0.4879444 -0.10192505 0.13513379 -0.38808826 0.5386403 0.34116033 0.22791214 0.51686734 -0.033990797
466 0.2520972 -0.09764799 0.23020193 -0.16732429 0.12729242 -0.16592664 -0.03786573 -0.089127414 0.08084317 0.11024188 -0.00035405246 0.046715662 -0.008343311 -0.00040725822 0.123698756 -0.11566918 -0.12229367 -0.13094121 0.18849497 -0.09995094 0.028533693 -0.12836899 0.2673311 0.24297398 0.23789993 0.016634101 0.2779152 0.11627242 -0.30438238 -0.06909091 0.16198939 0.0066685625 -0.264113 -0.14138924 -0.2310522 0.5652338 0.3042584 -0.27103537 0.1062715 -0.35265478 -0.06381623 -0.032173518 0.15367146 0.13431646 -0.16320927 -0.3422367 -0.14448693 0.30964133 -0.04374247 0.13760117 -0.2531056 -0.33562884 0.042976044 -0.14911123 0.4110755 -0.33101887 0.014219778 0.03492805 -0.112428896 0.14837448 -0.013887015 6.824659e-05 -0.16886735 -0.015418012 -0.02047524 -0.1835152 0.2930017 0.22414632 -0.057742927 0.09080957 -0.2324979 -0.20032296 0.18866935 0.21155179 0.30206 -0.31853703 -0.17555453 -0.019203318 -0.34816235 0.17750457 -0.08105891 0.0473544 0.34710363 0.005079333 0.21564324 0.33241788 -0.22556834 -0.0037775042 0.33309263 -0.17340581 -0.2107684 0.15941565 -0.089442745 -0.48723885 -0.30351922 0.18517967 0.5429494 0.35038456 -0.09237572 0.12483627 -0.20116855 -0.18343925 -0.21957299 -0.16574924 -0.37258556 0.7604975 -0.1394488 0.03159352 0.26882356 -0.04407621 0.08069235 -0.027188173 -0.10454338 0.5247266 -0.18756545 0.4766414 0.21605985 -0.29385963 0.4574162 -0.48182628 -0.10106389 0.1675791 -0.47561783 0.5352886 0.31262025 0.20065849 0.4289592 -0.07492257
834 0.25018346 -0.12939207 0.31188977 -0.26111692 0.11650037 -0.2587984 0.043936495 -0.058057792 0.15533039 0.1387761 0.007083597 0.09430845 0.013772135 -0.040922787 0.146304 -0.059718885 -0.136274 -0.19873367 0.19969936 -0.1458429 0.09911564 -0.1913644 0.25907257 0.2361692 0.18424428 0.20102441 0.31646246 0.14303058 -0.2459873 -0.05290303 0.16878639 0.06733347 -0.2476208 -0.080354355 -0.14052844 0.62423193 0.25042957 -0.2956524 0.12773146 -0.45483267 -0.14868951 0.006158809 0.0837316 0.12692556 -0.07187614 -0.2630637 -0.14256054 0.26532757 -0.08246607 0.1965942 -0.2082062 -0.35383332 -0.00078108476 -0.1225975 0.38040155 -0.27930522 0.008087642 0.01358775 -0.20245942 0.003856854 0.08696688 0.010353254 -0.10540965 0.07557664 0.008641327 -0.19622722 0.24689461 0.32399383 -0.013953316 0.1378239 -0.13733079 -0.2246824 0.21319453 0.2968243 0.25116304 -0.21870162 -0.24842378 -0.016243078 -0.4130102 0.14727671 -0.018870147 0.11384625 0.3240057 0.072345965 0.14428371 0.28931716 -0.24425946 0.10322274 0.32061914 -0.059986185 -0.22644018 0.04140203 -0.17953375 -0.53286475 -0.3277547 0.25598705 0.5971234 0.48160306 -0.026040642 0.12803626 -0.12838562 -0.1996819 -0.24320638 -0.16430008 -0.36155167 0.7878509 -0.14101954 -0.047719367 0.20598222 0.034369096 0.12605391 0.057187743 -0.16768955 0.51642454 -0.18237428 0.45573044 0.23381355 -0.20457251 0.4647791 -0.44928885 -0.086133905 0.22065702 -0.3009983 0.61414695 0.31021312 0.2216905 0.44550538 -0.04608156
147 0.16325074 -0.018744085 0.38041446 -0.18559276 0.11421822 -0.13338818 -0.08389958 0.08445637 -0.030348524 0.069023445 0.07960374 0.049051408 0.00979016 -0.012032678 0.13115664 -0.10450584 -0.12231392 -0.1970456 0.10023365 0.030635048 0.04951743 -0.13174994 0.31650063 0.18592025 0.18247104 0.09806816 0.41010222 0.12253004 -0.32634598 -0.15117535 0.20668009 -0.14039856 -0.25485536 -0.10570741 -0.21527427 0.4617932 0.14835939 -0.35507023 -0.018247848 -0.4983818 -0.13143113 -0.0009140751 -0.026344856 0.058240335 0.10041728 -0.2843077 -0.13377902 0.3704428 -0.07448718 0.24395634 -0.33861032 -0.19116938 0.0019645703 -0.15515426 0.36310863 -0.37686375 -0.05037226 0.072436444 -0.090481766 0.20878232 0.064707994 -0.07829523 -0.014646202 0.08349601 -0.021824798 -0.017134981 0.40663582 0.3258674 0.05336806 0.2292554 -0.16109054 -0.19765021 0.218603 0.31153363 0.3665555 -0.36108562 -0.29279435 -0.012669444 -0.4293011 0.17507176 0.013522031 0.14081605 0.23579614 0.03083389 0.2024499 0.39278862 -0.20687808 0.035392735 0.33110285 -0.047799945 -0.26615724 -0.008057404 -0.19608891 -0.51666576 -0.43486956 0.22928791 0.5491102 0.38799772 -0.110963695 0.03350092 -0.03570779 -0.064338125 -0.1097611 -0.1573845 -0.36323017 0.7080813 -0.20877023 -0.0501432 0.16042627 -0.16334763 0.13278975 0.11317471 -0.120430894 0.49843484 -0.20788653 0.36652496 0.22722499 -0.12999979 0.3860832 -0.37037432 -0.08040277 0.33834037 -0.39060163 0.49175507 0.27565083 0.2374263 0.3681865 -0.12854089
369 0.32441467 0.20077133 -0.08598904 -0.15003437 0.15981871 -0.072498545 0.18728486 0.3138299 0.2981104 0.00058597367 -0.07191817 0.0823951 -0.11368131 0.31098503 -0.11074174 0.09203309 -0.10735711 -0.3341595 -0.03479271 0.09794741 -0.02417884 -0.34893554 0.24309097 -0.16742373 0.14732157 -0.24996072 -0.006242075 -0.06698144 0.1537059 -0.30556253 -0.20355655 0.10900083 0.113899134 -0.2044747 -0.038464483 0.19277717 0.054318525 -0.16692844 0.014284218 0.13167977 -0.08121668 0.012269815 -0.08950156 -0.18706024 0.11186878 0.03535151 0.12994994 0.22294292 0.07798581 -0.070379384 -0.007138135 -0.10520545 -0.29399708 -0.07293745 -0.19972104 -0.36883888 0.104579434 0.033577517 -0.09069675 0.032758713 -0.0670455 -0.25930902 -0.121824846 0.24909958 -0.41825947 -0.1968233 0.16234693 -0.26716956 -0.037179373 0.049587786 -0.241988 0.13405436 0.07966744 -0.27664167 -0.3518678 0.224624 -0.14490458 0.057119768 -0.19221056 -0.15601848 -0.3250278 -0.10010641 0.31400633 -0.1277555 -0.12135069 -0.052892737 -0.024347907 -0.30877116 -0.1757129 -0.13905682 -0.02469434 0.038201317 -0.32178238 -0.002730661 0.13193122 0.37426195 0.016159343 0.2646295 -0.10400988 0.10006381 0.18644853 -0.018134002 -0.008364315 0.0057357056 0.06722765 0.19586745 -0.49564224 -0.07229194 -0.2718967 -0.07006657 0.2397168 0.11814453 -0.0728766 0.26795995 -0.005390557 0.19508313 -0.026752835 0.11579983 0.02240377 -0.5319593 -0.5755386 0.21831134 -0.08811443 -0.13406809 0.27853227 -0.15529785 0.0003134029 0.45740384
59 0.20557712 -0.110732585 0.29549986 -0.25841433 0.12450616 -0.1369165 -0.090980865 0.02593885 0.058265712 0.033173062 0.10365284 0.11125888 0.038481932 -0.03734898 0.022911336 -0.058364425 -0.11004165 -0.11241614 0.22385646 -0.1314127 0.123406135 -0.0069504525 0.25039455 0.20042951 0.24733542 0.13022034 0.33231068 0.19588386 -0.30776387 -0.11736601 0.25087467 0.013141575 -0.32187498 -0.16955966 -0.17329627 0.5612983 0.2669689 -0.3451214 0.17561457 -0.39002335 -0.12015779 -0.017842514 0.081824124 0.0055745216 -0.0059042126 -0.3513445 -0.11274243 0.2783081 -0.090790905 0.14955607 -0.28092623 -0.334123 0.018730078 -0.080811985 0.38152233 -0.27449524 0.12762873 -0.0075446074 -0.079156995 0.107682124 0.14367296 -0.11886963 -0.061131574 0.036689352 -0.10470521 -0.19569692 0.32901776 0.26462013 -0.036695696 0.21919186 -0.21656062 -0.28637952 0.25241753 0.33258504 0.2798077 -0.24596937 -0.20944875 -0.012193396 -0.3568743 0.1590399 -0.0015591678 7.730631e-05 0.2981113 0.11062663 0.18762176 0.31500068 -0.21566436 0.041376512 0.3743804 -0.13214956 -0.31199193 -0.0034967926 -0.104249425 -0.46991643 -0.32270753 0.26334637 0.5253758 0.40046304 -0.02647783 0.16090411 -0.08230982 -0.13765661 -0.12740761 -0.12512441 -0.29901183 0.759273 -0.13492376 -0.10229499 0.20747791 0.003983567 0.14174111 -0.089140974 -0.13255778 0.54290086 -0.16300595 0.39258873 0.30761546 -0.20212688 0.42985934 -0.48167554 -0.046914063 0.13633215 -0.36411545 0.55011207 0.30441806 0.2490364 0.4650582 -0.057650767
221 0.17026922 0.1578352 -0.038419973 -0.4761024 0.23526783 0.20899728 0.13921419 0.05307263 -0.111396365 -0.08494576 0.32498658 0.12041524 -0.07491464 0.10235513 0.27746055 0.4108788 0.0968695 -0.26421267 0.020069199 0.09158669 -0.008744416 -0.18631992 0.14857495 -0.21281976 0.39588612 -0.020956174 0.010414925 0.26799706 -0.038653247 -0.24020943 0.005306124 0.2602359 0.026396047 0.21569207 0.06528585 0.24178697 0.055420704 -0.3085138 -0.11076426 0.13953932 0.073092766 -0.060225368 0.05084345 0.057788245 0.1695153 0.41403064 -0.028127732 0.48468536 0.054514598 -0.08778745 -0.01537561 -0.25435236 0.31371608 -0.017765664 -0.09772616 -0.23498085 0.12560216 -0.16372108 -0.3225434 0.13424855 -0.15129773 0.20946003 -0.12024058 0.08598131 -0.23841906 0.03967018 0.17699584 0.1243756 -0.24353947 0.17849581 -0.103699364 -0.108280785 0.2316158 -0.18923688 -0.25132713 0.15278304 0.09973394 0.05138886 -0.29234225 0.08516693 -0.21719836 0.25660107 -0.032240663 -0.052837677 -0.11470668 -0.07286833 -0.2851315 -0.30236465 0.40010223 -0.44584072 0.14414378 0.27257538 -0.37103394 0.17764506 0.30450845 0.39969912 0.08448821 0.1786935 -0.056586597 0.073446184 -0.051158555 -0.21566497 -0.018691618 0.08784231 0.087355085 0.068386756 -0.2847649 -0.13689052 -0.0657938 0.16792734 0.24294771 0.09907914 0.22356533 -0.02357295 0.33734933 0.17210676 0.038911957 0.14919251 0.46208555 -0.19853786 -0.22341922 -0.17140329 -0.13102996 -0.012003336 0.24750896 0.19911765 0.002961294 -0.10276904
867 0.3510747 0.07241884 -0.22807907 -0.2706952 0.22663267 -0.056557193 0.109529115 0.022104125 0.17493898 0.058085937 0.11965645 0.07482033 -0.31283388 0.12582697 -0.03201203 0.10801788 0.37335232 -0.29495612 0.10590068 0.20428476 -0.28016812 -0.09590424 0.091818646 0.0582618 0.18150386 0.21835527 0.21278428 0.20138758 0.17425197 -0.31147194 -0.05932846 0.19715096 -0.13631716 -0.23522362 0.109905265 0.5047138 -0.024673896 0.026064482 -0.31133217 0.114766926 -0.11165947 -0.14425693 -0.03142902 -0.08435171 0.2843772 -0.27815956 0.020388259 -0.11069474 -0.16929573 0.2925089 0.46199456 0.036800034 -0.17892529 -0.2975303 0.0869616 -0.28262368 0.17485678 -0.1763106 -0.029960336 0.36902744 0.018658709 -0.16033496 0.24374807 0.11945429 -0.47000098 -0.16436209 0.33335167 -0.28116357 -0.09175043 0.2174967 -0.036125474 -0.19109382 0.159601 0.016064717 -0.09142704 0.0694952 0.11078127 0.17860818 -0.16013345 -0.2596458 -0.13142398 0.16824427 0.16203584 -0.055799615 0.06663024 -0.3846587 -0.16979647 -0.4697246 -0.26958734 -0.528629 -0.12104383 -0.24093768 -0.31226298 0.014361317 -0.087379694 0.16342287 -0.17296597 0.037995934 -0.017829435 -0.0177224 0.1279515 -0.36620858 -0.078034945 -0.32801744 0.12318025 -0.1562229 -0.54095894 -0.019496052 -0.1507313 0.003993002 0.18400145 0.21695264 -0.030555448 0.14814551 0.13214931 0.42979747 -0.024802024 0.1006723 0.4829045 -0.2302712 -0.37286985 0.0004340437 -0.22817452 0.07409768 0.16512203 0.056817804 -0.32279205 -0.07833275
670 0.31093657 -0.052121196 -0.330273 -0.30402553 -0.068986475 0.48476076 0.03494243 0.04818657 0.09187169 0.3729448 0.16123232 0.14245604 -0.30534104 0.09734645 0.42815393 0.24176094 0.0028408007 0.0175675 0.13770069 -0.014599782 0.20474783 -0.055580508 -0.33801323 0.03831861 -0.20608737 -0.36557856 0.17699547 0.27751866 -0.18774663 0.04477724 0.25387907 0.031986278 -0.34086263 -0.1077533 0.039978553 0.2168394 0.32673547 -0.10428371 -0.010342106 -0.020939307 0.2499722 -0.07367264 -0.030306961 -0.16540135 -0.035891823 -0.28601038 0.27016714 0.42302918 -0.036964145 -0.12930033 0.09686022 -0.271923 -0.13603173 0.029346315 0.03061433 -0.37925863 0.29097787 -0.23119001 -0.09669987 0.3044584 0.120252326 -0.11494933 0.08828398 0.0078457445 -0.052805368 0.17650838 -0.120577745 -0.17332815 0.19736293 0.028172104 -0.28383195 -0.063395575 -0.05647108 0.20156246 -0.593294 0.2420855 -0.14696759 0.00051859504 0.030630823 0.29432744 -0.403419 0.21880382 0.25564432 -0.13639148 0.26338142 0.14517254 -0.17247334 -0.48685107 -0.09662294 0.047351133 -0.29399365 -0.26069522 -0.56201804 0.22013871 0.15379736 0.60701704 0.028460603 -0.08982865 -0.23458904 0.011292066 0.20521745 -0.12447145 0.1626277 -0.25058794 0.1634897 0.036051206 -0.18938074 -0.16888204 -0.23681903 -0.49022838 0.30133498 0.1681439 0.17216095 0.32539248 0.1549836 -0.084838666 0.103708014 0.19895902 0.14815949 -0.37515157 -0.41036728 0.33908546 -0.13478392 -0.06336747 0.26421618 0.021387944 0.05921286 0.14608397
351 0.123488665 0.20370288 -0.1566448 -0.18669939 0.2633614 -0.31153595 0.093560666 -0.07892137 0.11043765 0.077392064 0.07361145 0.12248118 -0.18868802 0.12211412 0.036664546 -0.0065155714 -0.1080471 -0.17910217 0.18413498 0.03378784 -0.06758755 0.033938568 -0.2140494 -0.24090146 0.030512895 -0.2395792 -0.11688002 0.28318447 -0.10846983 0.0102709485 -0.16586015 0.20732735 -0.012833637 -0.03099659 0.1048228 0.22984517 -0.046159476 -0.18766335 0.12637626 0.06757856 -0.34205705 0.13468556 0.04493761 -0.31018385 0.008085703 0.029660337 0.057278685 0.31313327 -0.39721015 -0.04867267 0.32771224 -0.40083137 -0.046528462 -0.0183928 -0.2023448 -0.31169298 0.0464511 0.079475336 0.13427159 0.12612541 -0.14302367 -0.20291717 0.20618343 0.1590481 -0.32493576 -0.4394808 0.12534039 0.16191243 0.24619837 0.09122892 -0.27295902 -0.12368023 0.15912476 -0.15234639 -0.10750072 0.22982472 -0.0470399 -0.22253421 -0.25349262 -0.00027757153 0.27564913 -0.24934383 0.31526762 -0.08103692 -0.19007482 -0.09397414 0.07192786 -0.40015483 -0.46071595 -0.22560078 0.21117361 -0.0023553332 -0.7152336 0.16280743 0.25089708 0.19540586 0.15261601 0.45999178 0.24278602 -0.019438766 0.3241515 -0.068085715 0.056905046 -0.17788847 0.12064256 -0.15583546 -0.16852541 0.09239139 -0.045916032 0.053488184 0.229004 -0.18494828 0.10209982 0.41320267 -0.110102296 0.004637481 0.051490393 0.16293822 0.428768 -0.4451431 -0.460797 0.2943011 -0.07136764 -0.22771695 -0.07289612 -0.059551425 0.27980694 0.13644123
964 0.19425312 0.034128416 -0.10755466 -0.092426196 0.023792405 -0.06464871 -0.042889584 0.018160133 0.2637316 0.071455486 0.075097375 0.06487046 0.0459886 0.0666202 0.2535533 -0.13546292 0.04047656 -0.30464914 -0.006001084 0.0316026 -0.047002725 -0.18882902 0.11699753 -0.0550825 -0.25751564 -0.03531617 -0.06593237 0.29213938 -0.2308093 -0.29501277 -0.15651757 0.06502127 -0.025113685 -0.2556914 0.16774859 0.38957924 0.008523633 -0.08266432 -0.08097089 0.08560852 -0.22626965 -0.008961611 -0.009557792 -0.123832196 -0.04778021 0.013661956 0.1897791 0.2033961 -0.08616971 0.12820569 -0.15006699 -0.36732608 0.2139943 0.06893428 -0.3142954 -0.15269768 0.25597903 0.17709395 0.23918684 0.395096 -0.24113482 -0.1815253 0.017558247 0.25957644 -0.40669683 -0.08610768 -0.15911333 0.21441127 -0.004855519 0.24986446 -0.32293105 -0.124399684 -0.15420768 -0.15459931 -0.050688423 0.12903649 0.03978035 -0.023575062 -0.21084915 -0.38551763 -0.21453434 -0.11345699 0.11916791 -0.008432996 -0.049393848 -0.12563615 -0.16872293 -0.613741 -0.41916227 -0.20823589 -0.081637345 -0.1242543 -0.44549564 -0.054227203 0.115620494 0.3136794 -0.11640846 0.64376026 -0.18638365 -0.13159098 0.42278567 0.03384546 0.11836671 0.06465627 0.19743446 0.053367868 -0.038876187 -0.001173711 -0.04444544 -0.108822525 0.20809756 -0.15361607 0.024433859 0.3531907 0.05058673 -0.13884749 0.06526668 0.3015658 0.21417561 -0.2795446 -0.46680135 -0.063689746 -0.22940809 -0.1435806 0.0906515 -0.06967705 0.17760597 0.12348371
877 0.29249883 -0.028629487 0.15227146 -0.23440966 0.14461438 -0.18967798 -0.08866013 0.0075307805 0.05507339 0.16558552 0.13465442 0.14243133 0.08209651 -0.043311056 0.07303309 -0.008717726 -0.042125724 -0.20935225 0.21130124 -0.026329996 0.20523143 -0.14043193 0.29984415 0.2084414 0.27679524 0.21655427 0.3924908 0.106554985 -0.36678752 -0.094890356 0.14298785 -0.103073284 -0.3369767 0.048568804 -0.104497254 0.5315766 0.19058372 -0.29524148 0.069465384 -0.50719047 -0.07197347 0.05018887 0.00021947264 0.11966928 -0.019883614 -0.121426046 -0.123114526 0.35898647 -0.13858417 0.2249022 -0.23059809 -0.4732103 0.048323136 -0.18609503 0.42994478 -0.36591265 0.19075997 -0.01642146 -0.124222055 0.10007037 0.18424685 -0.041632693 -0.21631704 0.04244347 -0.09449699 -0.18340786 0.348226 0.19246896 0.029358286 0.20524737 -0.052443676 -0.3347939 0.076334015 0.3191232 0.21205199 -0.20264596 -0.23809093 -0.0657634 -0.36038315 0.13866079 0.07143559 0.014149076 0.28610265 0.04869024 0.0939228 0.34092465 -0.16430968 -0.10616907 0.28595114 -0.15921807 -0.1988147 0.07733949 -0.06468842 -0.45118436 -0.28147626 0.38508746 0.5408933 0.41703236 -0.026510913 0.12736557 -0.10037643 -0.14854681 -0.20480135 -0.03601208 -0.26482946 0.75858504 -0.15614834 -0.06219701 0.21730033 -0.04295228 0.07677573 -0.21832757 -0.032029323 0.41626868 -0.19546895 0.4049925 0.33632323 -0.31492335 0.36772573 -0.37962633 -0.041921582 0.11925191 -0.5220605 0.70131195 0.3444143 0.28149194 0.32426178 -0.12217703
273 0.1292411 0.16268092 -0.07239266 -0.015697826 0.099402055 -0.20864032 0.16125879 0.045415867 0.066229574 -0.15362093 0.07449525 0.2666264 -0.21075302 0.0052718474 -0.032262016 -0.035238367 -0.056901135 -0.17745252 -5.2174546e-05 0.13619713 -0.058331344 -0.09508175 0.14810586 -0.17177762 0.07798363 -0.2641566 -0.037176307 -0.093468346 -0.09629665 -0.17825645 0.038398404 -0.18215866 -0.02367587 -0.16114263 -0.31675482 0.13548745 -0.013435431 0.00590198 -0.010267977 -0.0062737083 -0.3340074 -0.043304022 -0.26369196 -0.123464875 -0.08406523 -0.05325442 -0.20088138 0.4128528 -0.008776998 -0.35926932 0.054014325 -0.11931153 0.054186266 -0.06329616 -0.14742273 -0.105487496 0.0010708595 0.13388972 0.08961874 0.44305784 -0.16383998 -0.3108242 0.22581944 0.24098279 -0.13576564 0.0008873688 0.17035753 -0.06803256 0.24949497 0.302853 -0.14047547 0.08242006 0.03077572 -0.007776376 -0.10372695 -0.058173597 0.31600705 0.24508151 -0.40804118 -0.12070646 -0.15192178 0.022832626 0.32514733 -0.124572925 -0.1286451 -0.043905962 -0.24803548 -0.3472405 -0.3823039 -0.30518347 -0.039494865 -0.0336536 -0.523048 -0.0017811501 -0.07623586 0.32740146 0.006643245 0.44684258 -0.015764615 0.18669441 0.40876806 0.18444291 0.3072156 0.04427087 0.22443628 0.03186772 -0.19054765 -0.19603573 0.09202429 -0.011306589 -0.012403895 0.09483391 -0.19527987 0.4870328 0.21122931 -0.2247806 -0.042488284 -0.10626111 0.08808257 -0.149688 -0.47380278 0.3179733 -0.03868929 -0.003315895 0.01868018 -0.06732385 0.07877099 0.17606147
672 0.24907577 0.18175067 -0.24830014 -0.14070348 0.32270792 0.0013796283 0.14290965 0.17226401 0.16947483 0.07698772 0.076462194 0.07584359 -0.22955376 0.15125932 -0.015449736 -0.013735813 -0.128075 -0.2082699 0.045713026 0.08636916 -0.0136206085 -0.06336412 0.07879921 -0.08997043 0.09790686 -0.088308476 0.055750787 0.15142228 -0.053235937 -0.20577797 -0.1438365 -0.019208798 -0.063068435 -0.04191637 0.024517268 0.3837791 0.0076896213 0.11907991 0.05945325 0.13982727 -0.16850147 -0.02044467 -0.04763148 -0.025222283 0.027127085 0.015373315 -0.16308886 0.33271137 -0.060190327 -0.07807879 0.17995417 -0.22793022 0.17275055 -0.10321447 -0.29738337 -0.39259025 0.2529637 0.13586473 0.098932676 0.19470035 -0.07761707 -0.14461768 -0.12752558 0.13415264 -0.5603098 -0.07249185 0.11190331 0.017974615 0.05196118 0.071518 -0.18981059 -0.004483287 0.088362366 -0.20963235 -0.15712383 0.20146121 0.07238837 0.119318366 -0.09201127 -0.24204455 -0.067652844 -0.026593301 0.3727681 0.0023120774 -0.121748194 -0.23634666 -0.11052737 -0.4114124 -0.2055397 -0.10349138 0.04020782 0.098379076 -0.5367645 -0.12225247 0.08951283 0.23492469 0.054958034 0.3621891 -0.026047703 -0.016111305 0.20192717 0.12971216 -0.028767401 0.023929639 0.15195835 -0.107928894 -0.41916585 -0.077073544 -0.08705668 -0.12995456 0.07084946 0.10748891 -0.15731668 0.33547097 0.266699 0.097084366 -0.08602941 0.16582492 0.28226134 -0.41822433 -0.4354068 0.023956168 -0.1023474 -0.06060502 0.07375969 -0.05305648 0.084080584 0.06567019
280 0.04966632 0.046185967 -0.17624748 0.07421665 0.2265083 -0.15421338 0.1006855 0.10156679 0.33249697 0.20774919 0.13274722 0.06495103 -0.32862496 -0.05223776 0.115174636 -0.0047780625 -0.046834853 -0.31635314 0.13540235 0.055829186 -0.012127744 -0.19249943 0.034322415 -0.20258744 -0.14963058 -0.23087674 -0.11104467 0.28559253 -0.17699505 -0.17756562 -0.20245172 0.14496452 -0.01467561 -0.13908692 0.085896224 0.22351554 -0.0022240512 0.063275285 -0.03780844 -0.0136824595 0.11865005 0.14768757 -0.24891463 -0.013332682 0.06797594 0.06591104 0.018007295 0.20019962 -0.16346817 -0.27016354 0.21186353 -0.23456213 -0.05616616 -0.01397314 -0.19071269 -0.43281558 0.18204609 0.12223218 0.13156098 0.39293984 -0.17415637 0.0014355027 0.10230019 0.113478705 -0.47124758 -0.0050979615 0.19300596 0.23515597 0.19929817 -0.0022690473 -0.25395015 -0.14033002 -0.16827561 -0.11375455 -0.13179688 0.10160092 -0.14149782 0.13814035 -0.082336634 -0.24837106 -0.10948187 0.008840976 0.17284209 0.077455945 -0.12872142 -0.16968177 -0.18841399 -0.21445169 -0.037126765 -0.05334236 0.11343998 0.008637275 -0.5373015 0.13777214 -0.12184754 0.20819496 0.05336383 0.4202514 0.01137553 0.2389738 0.59738594 -0.022894332 -0.19343291 -0.023515262 0.17076334 -0.14930382 -0.31590387 -0.22657554 0.114147425 -0.07472879 0.04851297 0.11797962 0.012666478 0.67649704 0.32034555 0.16326278 -0.115172796 0.19672786 0.11809769 -0.36440745 -0.49460578 0.09687164 -0.15666361 -0.048703816 0.064683564 -0.08490524 0.2184146 0.18139556
341 0.29817584 0.20991279 -0.23980948 -0.14887612 0.25812626 -0.05065822 0.17187077 0.097849056 0.3969592 0.007481465 0.123909354 -0.0085928 0.0910839 -0.045888156 -0.12836346 0.02834668 0.027351972 -0.0962499 0.28257683 0.07286556 -0.06790939 -0.14260222 -0.050036635 0.00501895 -0.10918158 -0.32542512 -0.009129751 0.13075644 -0.005560678 -0.10051571 -0.15769352 0.11367825 -0.040589996 0.016773414 0.064252175 0.3536688 -0.14645916 -0.0045302603 0.14177915 0.033817075 -0.057386443 0.08694985 -0.15358478 -0.14978705 0.10569218 0.007970552 -0.18068394 0.24613996 -6.953662e-06 -0.18781379 0.24385148 -0.25280878 0.22522855 -0.19143744 -0.20478344 -0.20961693 0.40966502 0.14415152 0.16546547 0.3536585 -0.22051783 -0.16762897 0.066714376 0.11262965 -0.3789569 -0.02342231 0.22206509 0.003807086 0.044468146 0.08734697 0.013607718 0.056134548 0.025466243 -0.19589017 -0.28477344 0.23630634 0.051432192 0.028969351 -0.26675117 -0.18344252 -0.16080467 -0.10708232 0.25680453 0.013776766 0.030734077 -0.15860112 -0.09197332 -0.34419623 -0.22127065 -0.13619322 -0.19113667 -0.06036429 -0.4666077 -0.041458745 -0.015007607 0.2796367 -0.009468488 0.44598505 -0.045252863 0.14054587 0.4351923 -0.043012235 0.013083164 -0.011241554 0.08049314 -0.17226805 -0.06452495 -0.028541017 0.09345759 -0.2680234 0.15121952 0.072945714 -0.09951152 0.4596475 0.21718894 0.023690112 0.06541088 0.20900251 0.1921685 -0.33873677 -0.42492807 0.19457604 -0.17596026 0.022373859 0.028826904 -0.022896038 0.12383368 0.10630134
337 -0.052922152 0.32471335 0.061270244 -0.3076964 0.27073085 0.068998106 0.17400555 0.10424359 -0.06032047 0.29034254 0.44018263 0.18552789 0.23807502 0.06797244 0.11732646 0.282779 -0.07954257 -0.1955977 0.05827173 0.098702945 0.08550534 -0.052053303 -0.0032215214 0.20281154 0.17394069 -0.19084488 0.42020762 0.2694939 -0.26187724 -0.49593097 0.27249613 0.039568927 -0.47109076 -0.39648104 0.2681477 0.46699256 -0.092022836 -0.34514368 -0.28330722 -0.06045729 0.12175937 0.51257044 -0.30917242 -0.19461684 -0.022386504 -0.4581924 -0.10012884 0.3392897 0.15694194 0.39007795 0.104462855 -0.51918685 -0.10315532 -0.007793268 0.1819648 -0.4969383 -0.1483679 -0.4723851 0.17549315 -0.3325954 0.3150812 0.070861906 -0.12109828 -0.2701026 0.25899786 -0.042266935 0.096454635 0.24084112 0.07877716 0.0875866 -0.32473388 0.08936653 0.2477708 -0.16521904 0.008523478 -0.025686681 -0.12575448 0.10142836 -0.097420014 0.07371108 -0.22880009 0.46003988 0.0694534 -0.43033376 0.18987092 -0.4813587 -0.31451315 -0.23438133 -0.5578776 0.19776599 -0.05990486 -0.13507654 -0.5146962 -0.10147966 0.2233692 0.124701686 0.024792451 0.33897147 -0.12720934 0.3034867 0.52985555 -0.20787978 0.06833121 0.22584277 -0.45216691 0.017582487 0.1890549 -0.2553124 -0.025163783 -0.7251094 0.29195964 0.52634287 0.06606829 0.49121118 -0.05820824 0.08610992 0.2223443 -0.46158436 0.12238445 -0.42419422 -0.35738447 0.26885232 -0.06700437 0.20007148 0.13541119 0.31319293 0.12364185 0.00068489485
669 0.20108621 0.22637191 -0.061045248 -0.15478373 0.24776168 -0.13027996 0.04179185 0.0710948 0.18668137 0.05446486 -0.02474107 0.07467172 -0.31861296 0.122988656 0.050329715 0.07267609 -0.08149341 -0.27932093 0.14178994 0.05530652 -0.055214647 -0.09691293 0.10727206 -0.03227463 -0.050510794 -0.1901908 -0.027420526 0.28670073 -0.010470149 -0.12867256 -0.18305077 -0.18930353 0.050452594 -0.068807796 0.22521314 0.27802387 0.14146775 0.07888041 -0.015370524 0.044029646 -0.05600591 0.21800873 -0.16460557 -0.18862902 0.10077137 0.03301941 0.0354536 0.37290734 0.016275255 0.035299435 0.09618495 -0.15403499 -0.112179555 0.0130257085 -0.15603656 -0.36791885 0.19495007 0.17576312 0.10988081 0.4524251 -0.26396134 -0.15834555 -0.19943017 0.22367676 -0.30324283 -0.0863932 0.17273887 0.0035336534 0.079230316 0.19138864 -0.096919335 0.23761101 -0.06793464 -0.4096974 -0.3190226 0.108437784 -0.06143556 0.14452675 -0.09110455 -0.2191569 -0.042312913 -0.034183897 0.15497965 -0.123067334 -0.09834658 -0.05423144 0.055183686 -0.19628496 -0.17406128 -0.14638719 -0.15069824 -0.028114093 -0.56649953 -0.053718194 0.09900774 0.27779406 -0.1483357 0.38145387 -0.040234853 0.19625518 0.34505108 0.10774725 0.12913303 -0.047803782 0.1459134 0.01590715 -0.19517879 -0.02547023 0.08034896 -0.005153311 0.18351918 0.07678708 -0.13333187 0.5519226 0.25376856 0.0038485941 0.13716686 0.106149 0.18162102 -0.41766873 -0.47572955 -0.014034066 -0.22235014 -0.09588372 0.14585811 -0.22723912 0.18291804 0.27987
398 0.2008815 0.21693051 -0.195898 -0.10399608 0.16154681 -0.10915329 0.13001232 0.09473416 0.27283293 -0.021681225 -0.0012974694 0.1002713 -0.24744809 -0.015202499 0.09715498 0.035797976 -0.14743967 -0.19424286 0.16804764 0.091252185 -0.009494845 -0.061541997 0.053354256 -0.110149525 -0.0004135482 -0.17697701 -0.07941721 0.21917106 -0.05125485 -0.11722685 -0.21670668 -0.012478503 -0.114526704 0.0024373585 0.18641141 0.26873222 0.053808197 0.07624913 0.018099343 -0.046724103 0.006974925 0.18306886 -0.11251309 -0.051293626 0.09556652 0.124695525 -0.1223511 0.26902008 -0.12602027 -0.10602005 0.09924359 -0.30758557 -0.038102888 -0.050499532 -0.20839243 -0.23916952 0.23425049 0.11078797 0.1990038 0.4539819 -0.22607131 -0.047922052 0.014053074 0.121399134 -0.41436136 -0.1929274 0.1938325 0.08999381 0.1697458 0.12444895 -0.22398096 0.038869735 -0.011421407 -0.27050313 -0.19508198 0.19886534 -0.03288569 0.112495475 0.025931016 -0.26055977 -0.08308449 -0.016656194 0.17209506 -0.03862156 -0.15165477 -0.15194947 -0.04813791 -0.25461158 -0.14507192 -0.12866253 -0.021607775 -0.04683395 -0.578454 -0.13279493 0.012033343 0.37621942 -0.0034931367 0.48521245 0.02412209 0.09462605 0.3692247 0.090564996 0.15488213 -0.038156204 0.014002491 -0.07003927 -0.24777207 -0.055182576 0.05306169 -0.11963863 0.07348748 0.013226417 -0.061693475 0.43840495 0.19612664 0.09288107 0.02583109 0.18730308 0.07657745 -0.37280306 -0.54780775 0.098701715 -0.09928943 0.078688584 0.20681974 -0.120736994 0.12173502 0.07342696
38 0.15991394 0.22243574 -0.19481917 -0.10266364 0.29961225 -0.1416458 0.15242977 0.057792284 0.28577873 -0.008988157 0.11144819 0.05082088 -0.234111 0.10053609 0.023634456 0.051625215 0.10760151 -0.15666966 0.10769878 0.034237638 -0.06713255 -0.07531595 0.050072584 -0.12583831 -0.10488541 -0.16957782 -0.10412637 0.14193858 -0.18415399 -0.056298118 -0.18002734 -0.00037546887 -0.14340766 0.035102807 0.0008345668 0.3775925 0.022663856 -0.047342986 0.04695366 0.06579059 -0.0657561 0.09811579 -0.022390764 -0.13522902 0.04926407 -0.06913006 -0.081929535 0.25152814 -0.078649454 -0.12570435 0.122060716 -0.18151256 0.096547365 -0.06320291 -0.20483139 -0.347326 0.194418 0.12215391 0.111621134 0.3465102 -0.23559983 -0.082637064 0.0025430894 0.19535923 -0.3018915 -0.16488649 0.053375937 0.08882281 0.17264096 0.06939149 -0.16817683 0.036467772 0.028562069 -0.15505837 -0.16273884 0.13375437 0.114545204 0.14191635 -0.17406583 -0.18458319 -0.09896107 -0.11031994 0.19556516 0.008716109 -0.18428734 -0.17011361 -0.16946155 -0.40095854 -0.2968243 -0.18385394 -0.03528051 -0.02739037 -0.540276 -0.03529899 -0.016950874 0.25357687 0.0978156 0.43123308 -0.021679804 0.09754251 0.38979396 0.04561745 0.009162109 -0.00049164577 0.15710217 -0.024671411 -0.21278265 -0.041548934 0.021115394 -0.1908933 0.10085965 -0.014806433 -0.12522729 0.47779053 0.21900678 0.055696703 -0.03298129 0.19176617 0.05289101 -0.4172572 -0.49659815 0.06867152 -0.20865595 -0.12842602 0.09270117 -0.18038781 0.18185773 0.14466056
53 -0.012944532 0.3769985 0.13364872 -0.26360178 0.23472117 -0.008494424 0.1881204 0.17413966 -0.07222079 0.30439135 0.4956786 0.14746349 0.21822906 0.06843519 0.17072858 0.37156105 -0.21349977 -0.35030514 0.09599561 0.11849781 0.08182519 -0.015484466 -0.05114485 0.27198756 0.16001476 -0.21318612 0.4141935 0.16123576 -0.32922447 -0.6506318 0.3886241 0.06717308 -0.48763967 -0.44018748 0.15199791 0.61646146 -0.058633756 -0.47311515 -0.3495857 -0.104205824 0.14892213 0.5818064 -0.36291176 -0.23543316 -0.0735692 -0.6275369 -0.13266957 0.470788 0.17872934 0.3538229 0.10606332 -0.54228127 -0.07333238 0.012124266 0.1019332 -0.53802294 -0.011649512 -0.49026054 0.21176173 -0.40909165 0.34179407 0.039269812 -0.012515712 -0.27091584 0.2955173 -0.0410134 0.123307385 0.22738308 -0.017406017 0.15035282 -0.3133784 0.007234416 0.21769066 -0.054239493 -0.02388656 0.008095566 -0.13687669 0.0064488407 -0.103982896 0.017371258 -0.3351221 0.5850242 0.1282279 -0.3433055 0.30195704 -0.50541943 -0.36998585 -0.18241772 -0.65561587 0.12454179 -0.08451038 -0.023705112 -0.5370131 -0.0888039 0.3727683 0.06604809 0.10308503 0.3800084 -0.0637167 0.23463722 0.46742168 -0.22485809 0.11465804 0.18895468 -0.5694584 -0.014249908 0.208802 -0.26356405 0.18802208 -0.6442683 0.22984436 0.5265502 0.053018004 0.50628954 -0.06189626 0.15348262 0.21765825 -0.43267396 0.077355966 -0.42764843 -0.39819416 0.33448073 -0.107566945 0.3076426 0.10738693 0.16574064 0.25090274 0.11702329
157 -0.03805841 0.042523865 -0.2775777 -0.10533326 -0.1906167 -0.42275444 0.0451512 -0.17598173 -0.17152227 0.57815737 0.30894628 0.32010454 0.29110283 -0.022302663 -0.09201472 -0.15167016 0.060983256 -0.36423656 0.6156772 0.18504758 -0.42266905 -0.10187332 -0.22299027 0.08961533 0.31552944 0.18676473 0.3925375 -0.040552806 -0.3357728 -0.30296743 0.0109150335 0.04148885 -0.083690606 -0.2600545 0.28412136 0.75897366 0.30860382 -0.19554779 -0.2104411 0.16996317 -0.35162336 0.50213796 -0.18998158 0.1031561 0.58500373 -0.14820854 -0.26612428 0.6365399 0.1560433 -0.100554846 -0.214938 -0.12971374 0.05448826 0.2301259 -0.011376764 -0.42514083 0.07635928 -0.20044105 0.20890288 -0.47355434 0.09426727 0.12148515 -0.14484562 -0.4094629 0.0034415843 -0.030358601 0.30904984 0.20915298 -0.85485137 -0.14060715 0.0041250456 -0.2528653 -0.12976749 0.2523599 -0.17728233 0.013971098 -0.19567226 -0.022072839 -0.096992195 0.029512879 0.042601466 0.047053944 0.28318805 -0.0067826756 0.29443732 -0.23964058 -0.3003503 -0.3912286 -0.23880802 -0.14934583 0.029953158 -0.18858263 -0.17369282 -0.42368194 -0.5317615 0.12018577 0.21754836 0.10874186 0.012494089 -0.124501795 -0.030718325 -0.27898875 -0.20565237 -0.008385627 -0.13114788 -0.013855512 0.039846398 -0.08497252 -0.072347924 -0.62026 0.38850874 0.16587509 -0.26592454 0.29204172 0.19019191 -0.24370557 0.37704507 -0.3551424 0.2966828 -0.58674777 -0.577119 -0.03131003 -0.5219585 0.124682136 0.46565932 -0.22572897 0.43597537 0.45238733
921 0.10581829 0.2288687 -0.37664488 -0.1525208 0.050303042 -0.18444858 -0.07357478 0.026308982 -0.29066685 0.39288154 0.35808027 0.38152772 0.2730456 -0.017426683 0.010510371 -0.07786984 -0.06824979 -0.4764182 0.2580698 0.198192 -0.15088846 -0.0939318 -0.2667997 0.1156434 0.29782125 -0.14553344 0.8567911 0.43461502 -0.31294975 -0.45960453 0.0014303238 0.21015385 -0.4963066 -0.5531811 0.28108394 0.78259873 0.18293142 -0.50883555 -0.5281781 -0.014162941 -0.19109254 0.6261371 -0.37905917 0.088607624 0.22054791 -0.4649732 -0.116089 0.66175324 0.24970327 0.12222869 -0.106595665 -0.49555615 -0.11873058 -0.022437695 -0.025821155 -0.5190858 0.020435723 -0.54269224 0.27321735 -0.42181435 0.5672144 -0.061192814 0.020962361 -0.5108602 0.34222925 -0.30776122 0.22368555 0.2049821 -0.37027612 0.05098561 -0.042214084 0.033911668 0.22410992 0.21354684 0.044936296 0.080214486 -0.33323723 0.0074863145 -0.112715885 -0.049243372 -0.41035968 0.34602064 -0.005359478 -0.014904271 0.2016655 -0.47535515 -0.33648768 -0.21708286 -0.55898565 0.27973208 -0.30261332 -0.02641875 -0.51298785 0.013911102 -0.15687893 0.24680944 0.3906281 0.2033505 0.09812868 0.009811807 0.19292238 -0.21258628 0.15339279 0.35832274 -0.55489546 -0.026578419 0.19179317 -0.025290063 0.22462137 -0.53658897 0.35843977 0.5094944 -0.16563971 0.24996188 0.005827457 0.15086937 0.18424225 -0.4868839 0.09328643 -0.46817926 -0.53981656 0.14097391 -0.19616964 0.09162649 0.24415168 -0.09231575 0.30736578 0.2114428
